{"learner":{"attributes":{"best_iteration":"50","best_score":"0.9088354686896006","scikit_learn":"{\"_estimator_type\": \"classifier\"}"},"feature_names":[],"feature_types":[],"gradient_booster":{"model":{"gbtree_model_param":{"num_parallel_tree":"1","num_trees":"273"},"iteration_indptr":[0,3,6,9,12,15,18,21,24,27,30,33,36,39,42,45,48,51,54,57,60,63,66,69,72,75,78,81,84,87,90,93,96,99,102,105,108,111,114,117,120,123,126,129,132,135,138,141,144,147,150,153,156,159,162,165,168,171,174,177,180,183,186,189,192,195,198,201,204,207,210,213,216,219,222,225,228,231,234,237,240,243,246,249,252,255,258,261,264,267,270,273],"tree_info":[0,1,2,0,1,2,0,1,2,0,1,2,0,1,2,0,1,2,0,1,2,0,1,2,0,1,2,0,1,2,0,1,2,0,1,2,0,1,2,0,1,2,0,1,2,0,1,2,0,1,2,0,1,2,0,1,2,0,1,2,0,1,2,0,1,2,0,1,2,0,1,2,0,1,2,0,1,2,0,1,2,0,1,2,0,1,2,0,1,2,0,1,2,0,1,2,0,1,2,0,1,2,0,1,2,0,1,2,0,1,2,0,1,2,0,1,2,0,1,2,0,1,2,0,1,2,0,1,2,0,1,2,0,1,2,0,1,2,0,1,2,0,1,2,0,1,2,0,1,2,0,1,2,0,1,2,0,1,2,0,1,2,0,1,2,0,1,2,0,1,2,0,1,2,0,1,2,0,1,2,0,1,2,0,1,2,0,1,2,0,1,2,0,1,2,0,1,2,0,1,2,0,1,2,0,1,2,0,1,2,0,1,2,0,1,2,0,1,2,0,1,2,0,1,2,0,1,2,0,1,2,0,1,2,0,1,2,0,1,2,0,1,2,0,1,2,0,1,2,0,1,2,0,1,2,0,1,2,0,1,2,0,1,2,0,1,2,0,1,2,0,1,2],"trees":[{"base_weights":[3.002544E-1,-2.5808224E-1,8.907612E-1,-4.8568615E-1,2.557852E-2,5.5598456E-1,1.1552991E0,-6.530613E-1,-3.511188E-1,-4.844721E-1,1.4798202E-1,-1.7142862E-1,6.6079295E-1,7.4594593E-1,1.2393823E0,-4.054056E-3,-3.4503635E-2,-3.5106387E-2,-1.1692653E-2,-3.4403674E-2,-2.4590183E-3,-1.2170408E-3,3E-2,4.109587E-3,-2.9268295E-2,2.4387527E-2,4.7925312E-2,-1.7881394E-9,4.6308722E-2,5.1724124E-3,6.340819E-2],"categories":[],"categories_nodes":[],"categories_segments":[],"categories_sizes":[],"default_left":[0,0,0,0,0,0,0,0,0,0,0,0,0,0,0,0,0,0,0,0,0,0,0,0,0,0,0,0,0,0,0],"id":0,"left_children":[1,3,5,7,9,11,13,15,17,19,21,23,25,27,29,-1,-1,-1,-1,-1,-1,-1,-1,-1,-1,-1,-1,-1,-1,-1,-1],"loss_changes":[1.2980258E2,1.3104221E1,1.6292526E1,2.3058128E0,5.766877E0,6.6952457E0,2.7201538E0,9.813671E-1,2.4929962E0,1.5515809E0,5.804652E0,1.2729129E0,3.4306107E0,2.763503E0,2.691391E0,0E0,0E0,0E0,0E0,0E0,0E0,0E0,0E0,0E0,0E0,0E0,0E0,0E0,0E0,0E0,0E0],"parents":[2147483647,0,0,1,1,2,2,3,3,4,4,5,5,6,6,7,7,8,8,9,9,10,10,11,11,12,12,13,13,14,14],"right_children":[2,4,6,8,10,12,14,16,18,20,22,24,26,28,30,-1,-1,-1,-1,-1,-1,-1,-1,-1,-1,-1,-1,-1,-1,-1,-1],"split_conditions":[6.31514E-1,-2.128E-1,2.0094142E0,-2.0681317E0,1.5846995E-1,-1.4712E1,1.493885E3,4.0983606E-2,-2.111E1,3.649E-1,1.50255E3,-2.0734E1,1.50195E3,2.5079517E0,1.488046E3,-4.054056E-3,-3.4503635E-2,-3.5106387E-2,-1.1692653E-2,-3.4403674E-2,-2.4590183E-3,-1.2170408E-3,3E-2,4.109587E-3,-2.9268295E-2,2.4387527E-2,4.7925312E-2,-1.7881394E-9,4.6308722E-2,5.1724124E-3,6.340819E-2],"split_indices":[5,3,5,5,16,11,10,16,11,0,10,11,10,5,8,0,0,0,0,0,0,0,0,0,0,0,0,0,0,0,0],"split_type":[0,0,0,0,0,0,0,0,0,0,0,0,0,0,0,0,0,0,0,0,0,0,0,0,0,0,0,0,0,0,0],"sum_hessian":[3.9199997E2,2.0177777E2,1.9022221E2,1.1155555E2,9.022221E1,8.533333E1,1.04888885E2,4.7999996E1,6.3555553E1,1.6888887E1,7.333333E1,1.0666666E1,7.4666664E1,1.9555553E1,8.533333E1,3.111111E0,4.4888885E1,1.4666666E1,4.8888885E1,1.1111111E1,5.7777777E0,5.3777775E1,1.9555553E1,7.1111107E0,3.5555553E0,4.8888885E1,2.5777777E1,3.9999998E0,1.5555554E1,2.222222E0,8.311111E1],"tree_param":{"num_deleted":"0","num_feature":"18","num_nodes":"31","size_leaf_vector":"1"}},{"base_weights":[-2.453211E-1,-6.60992E-2,-4.8484853E-1,-9.722953E-2,5.8064514E-1,-3.805074E-1,-5.838927E-1,-1.9780265E-2,-2.8545785E-1,8.219178E-1,-1.0344829E-2,6.1855633E-2,-4.402421E-1,-6.0332876E-1,-1.6255813E-9,-1.5320668E-2,5.3515197E-3,-2.1606652E-2,-7.317095E-4,5.3773582E-2,5.1724124E-3,-2.837838E-2,1.9565215E-2,-1.87156E-2,-3.4800004E-2,-1.9834714E-2,-3.1773403E-2],"categories":[],"categories_nodes":[],"categories_segments":[],"categories_sizes":[],"default_left":[0,0,0,0,0,0,0,0,0,0,0,0,0,0,0,0,0,0,0,0,0,0,0,0,0,0,0],"id":1,"left_children":[1,3,5,7,9,11,13,15,17,19,-1,21,23,25,-1,-1,-1,-1,-1,-1,-1,-1,-1,-1,-1,-1,-1],"loss_changes":[1.653361E1,4.5238256E0,1.4829941E0,3.0930192E0,2.1335123E0,2.2263298E0,9.3941116E-1,5.5455947E0,2.452095E0,1.3663521E0,0E0,2.4570003E0,9.77911E-1,2.7993774E-1,0E0,0E0,0E0,0E0,0E0,0E0,0E0,0E0,0E0,0E0,0E0,0E0,0E0],"parents":[2147483647,0,0,1,1,2,2,3,3,4,4,5,5,6,6,7,7,8,8,9,9,11,11,12,12,13,13],"right_children":[2,4,6,8,10,12,14,16,18,20,-1,22,24,26,-1,-1,-1,-1,-1,-1,-1,-1,-1,-1,-1,-1,-1],"split_conditions":[6.794E-1,1.53564E3,8.44E-1,7.95082E-1,9.32E2,1.484945E3,1.567415E3,2.125E-1,8.13E2,5.982E-1,-1.0344829E-2,1.46775E3,7.85E2,-2.047E1,-1.6255813E-9,-1.5320668E-2,5.3515197E-3,-2.1606652E-2,-7.317095E-4,5.3773582E-2,5.1724124E-3,-2.837838E-2,1.9565215E-2,-1.87156E-2,-3.4800004E-2,-1.9834714E-2,-3.1773403E-2],"split_indices":[6,10,6,16,15,9,9,2,15,6,0,9,15,11,0,0,0,0,0,0,0,0,0,0,0,0,0],"split_type":[0,0,0,0,0,0,0,0,0,0,0,0,0,0,0,0,0,0,0,0,0,0,0,0,0,0,0],"sum_hessian":[3.8488885E2,2.2088887E2,1.6399998E2,2.1155554E2,9.333333E0,8.222221E1,8.177777E1,1.5066666E2,6.0888885E1,7.1111107E0,2.222222E0,9.777777E0,7.244444E1,7.911111E1,2.6666665E0,4.5777775E1,1.04888885E2,3.9111107E1,2.1777777E1,4.8888884E0,2.222222E0,3.111111E0,6.666666E0,5.9555553E1,1.2888888E1,1.2444444E1,6.6666664E1],"tree_param":{"num_deleted":"0","num_feature":"18","num_nodes":"27","size_leaf_vector":"1"}},{"base_weights":[-4.3552566E-2,-4.37302E-1,6.1919266E-1,-3.567568E-2,-2.3665899E-1,1.1369606E0,2.6235738E-1,-9.417045E-2,-3.838863E-1,1.196319E0,3.9622638E-1,-4.5283023E-1,3.100671E-1,-1.8072292E-2,3.1468512E-3,-2.0465894E-2,3.658535E-3,6.108742E-2,2.0689655E-2,5.1724124E-3,2.7272725E-2,-2.727273E-2,-1.0344829E-2,1.1944868E-2,3.7128713E-2],"categories":[],"categories_nodes":[],"categories_segments":[],"categories_sizes":[],"default_left":[0,0,0,0,0,0,0,0,0,0,0,0,0,0,0,0,0,0,0,0,0,0,0,0,0],"id":2,"left_children":[1,3,5,-1,7,9,11,13,15,17,19,21,23,-1,-1,-1,-1,-1,-1,-1,-1,-1,-1,-1,-1],"loss_changes":[1.02130424E2,1.3433651E1,2.6655834E1,0E0,2.9777174E0,2.129921E0,3.1317158E0,3.144076E0,8.474817E-1,5.756378E-1,2.0086342E-1,2.1292925E-2,2.3706183E0,0E0,0E0,0E0,0E0,0E0,0E0,0E0,0E0,0E0,0E0,0E0,0E0],"parents":[2147483647,0,0,1,1,2,2,4,4,5,5,6,6,7,7,8,8,9,9,10,10,11,11,12,12],"right_children":[2,4,6,-1,8,10,12,14,16,18,20,22,24,-1,-1,-1,-1,-1,-1,-1,-1,-1,-1,-1,-1],"split_conditions":[3.709E-1,1.002E-1,8.466817E-1,-3.567568E-2,1.499832E3,2.134E-1,2.6E1,3.3333334E-1,1.068E-1,1.567415E3,2.247E-1,2.632E-1,3.222E-1,-1.8072292E-2,3.1468512E-3,-2.0465894E-2,3.658535E-3,6.108742E-2,2.0689655E-2,5.1724124E-3,2.7272725E-2,-2.727273E-2,-1.0344829E-2,1.1944868E-2,3.7128713E-2],"split_indices":[2,2,4,0,8,1,15,16,14,9,1,1,1,0,0,0,0,0,0,0,0,0,0,0,0],"split_type":[0,0,0,0,0,0,0,0,0,0,0,0,0,0,0,0,0,0,0,0,0,0,0,0,0],"sum_hessian":[3.893333E2,2.4444443E2,1.4488889E2,1.0177777E2,1.4266666E2,5.8222218E1,8.6666664E1,7.333333E1,6.933333E1,5.333333E1,4.8888884E0,4.8888884E0,8.177777E1,2.6666664E1,4.6666664E1,6.577777E1,3.5555553E0,5.1111107E1,2.222222E0,2.222222E0,2.6666665E0,2.6666665E0,2.222222E0,7.155555E1,1.0222221E1],"tree_param":{"num_deleted":"0","num_feature":"18","num_nodes":"25","size_leaf_vector":"1"}},{"base_weights":[2.4104442E-1,7.809307E-1,-2.5880986E-1,1.0619718E0,4.8348084E-1,9.516409E-2,-4.5283896E-1,4.0997013E-1,1.1169561E0,8.94824E-2,6.497021E-1,-2.4257328E-1,2.096761E-1,-6.4852625E-1,-3.2513258E-1,-2.6483387E-2,3.974083E-2,5.710118E-2,1.1883322E-2,-1.8295635E-2,1.96068E-2,3.5207655E-2,3.773609E-3,3.068717E-5,-3.2321263E-2,7.6186373E-3,4.4736963E-2,-1.0199005E-2,-3.32128E-2,-2.9067446E-2,-1.09343985E-2],"categories":[],"categories_nodes":[],"categories_segments":[],"categories_sizes":[],"default_left":[0,0,0,0,0,0,0,0,0,0,0,0,0,0,0,0,0,0,0,0,0,0,0,0,0,0,0,0,0,0,0],"id":3,"left_children":[1,3,5,7,9,11,13,15,17,19,21,23,25,27,29,-1,-1,-1,-1,-1,-1,-1,-1,-1,-1,-1,-1,-1,-1,-1,-1],"loss_changes":[1.0732361E2,1.5460014E1,1.425087E1,3.0343704E0,6.141615E0,2.9155295E0,3.1327496E0,3.731974E0,1.6959686E0,4.174618E0,2.0235767E0,1.8878888E0,2.0562024E0,2.2692871E-1,2.1355715E0,0E0,0E0,0E0,0E0,0E0,0E0,0E0,0E0,0E0,0E0,0E0,0E0,0E0,0E0,0E0,0E0],"parents":[2147483647,0,0,1,1,2,2,3,3,4,4,5,5,6,6,7,7,8,8,9,9,10,10,11,11,12,12,13,13,14,14],"right_children":[2,4,6,8,10,12,14,16,18,20,22,24,26,28,30,-1,-1,-1,-1,-1,-1,-1,-1,-1,-1,-1,-1,-1,-1,-1,-1],"split_conditions":[2.41E-1,8.56E-2,4.146E-1,1.48913E3,-1.238E0,1.494485E3,-1.1752E1,6.17E2,9.945355E-1,1.2546554E0,9.535519E-1,4.17E-1,3.96E-1,4.374E-1,-5.909E-1,-2.6483387E-2,3.974083E-2,5.710118E-2,1.1883322E-2,-1.8295635E-2,1.96068E-2,3.5207655E-2,3.773609E-3,3.068717E-5,-3.2321263E-2,7.6186373E-3,4.4736963E-2,-1.0199005E-2,-3.32128E-2,-2.9067446E-2,-1.09343985E-2],"split_indices":[2,2,2,10,11,10,11,15,16,5,16,0,2,2,3,0,0,0,0,0,0,0,0,0,0,0,0,0,0,0,0],"split_type":[0,0,0,0,0,0,0,0,0,0,0,0,0,0,0,0,0,0,0,0,0,0,0,0,0,0,0,0,0,0,0],"sum_hessian":[3.959455E2,1.9008008E2,2.058654E2,9.6414246E1,9.366583E1,7.30703E1,1.327951E2,8.156074E0,8.825817E1,2.824776E1,6.541807E1,1.8218634E1,5.4851665E1,5.0829582E1,8.196553E1,2.2605135E0,5.89556E0,8.552127E1,2.7369058E0,1.1194568E1,1.7053192E1,5.9545444E1,5.872626E0,1.1994438E1,6.224195E0,5.174572E1,3.1059437E0,2.2144213E0,4.861516E1,2.2748201E1,5.9217327E1],"tree_param":{"num_deleted":"0","num_feature":"18","num_nodes":"31","size_leaf_vector":"1"}},{"base_weights":[-2.3668626E-1,-4.5291892E-1,-4.680305E-2,-3.55667E-2,-4.0661728E-1,6.834908E-3,-3.9526588E-1,-2.0795141E-1,-4.7597247E-1,-2.2612687E-2,7.159501E-1,-4.8154747E-1,2.0815061E-2,-3.299603E-2,-3.919127E-3,-2.6317814E-2,-6.3212956E-3,-2.6682666E-2,1.0336413E-4,4.8789397E-2,4.5666075E-3,-2.708804E-2,5.425489E-3],"categories":[],"categories_nodes":[],"categories_segments":[],"categories_sizes":[],"default_left":[0,0,0,0,0,0,0,0,0,0,0,0,0,0,0,0,0,0,0,0,0,0,0],"id":4,"left_children":[1,3,5,-1,7,9,11,13,15,17,19,21,-1,-1,-1,-1,-1,-1,-1,-1,-1,-1,-1],"loss_changes":[1.6014334E1,1.8942566E0,3.9101973E0,0E0,2.065548E0,3.8199043E0,2.1544228E0,2.4328413E0,1.970541E0,2.219153E0,1.0945952E0,9.7140884E-1,0E0,0E0,0E0,0E0,0E0,0E0,0E0,0E0,0E0,0E0,0E0],"parents":[2147483647,0,0,1,1,2,2,4,4,5,5,6,6,7,7,8,8,9,9,10,10,11,11],"right_children":[2,4,6,-1,8,10,12,14,16,18,20,22,-1,-1,-1,-1,-1,-1,-1,-1,-1,-1,-1],"split_conditions":[2.182E-1,4.58E-2,4.425E-1,-3.55667E-2,1.492795E3,1.537935E3,8.56E2,9.71E-2,3.591096E0,1.479685E3,1.539883E3,1.51944E3,2.0815061E-2,-3.299603E-2,-3.919127E-3,-2.6317814E-2,-6.3212956E-3,-2.6682666E-2,1.0336413E-4,4.8789397E-2,4.5666075E-3,-2.708804E-2,5.425489E-3],"split_indices":[1,1,3,0,9,10,15,1,5,10,8,10,0,0,0,0,0,0,0,0,0,0,0],"split_type":[0,0,0,0,0,0,0,0,0,0,0,0,0,0,0,0,0,0,0,0,0,0,0],"sum_hessian":[3.8954898E2,1.8148952E2,2.0805945E2,2.5394821E1,1.560947E2,1.811551E2,2.6904339E1,4.14269E1,1.146678E2,1.748617E2,6.293412E0,2.468645E1,2.21789E0,8.318089E0,3.310881E1,9.977967E1,1.48881235E1,7.1055846E0,1.6775612E2,4.0474696E0,2.2459428E0,2.2474821E1,2.2116282E0],"tree_param":{"num_deleted":"0","num_feature":"18","num_nodes":"23","size_leaf_vector":"1"}},{"base_weights":[-3.7790757E-2,7.6281613E-1,-3.9538684E-1,1.0603276E0,3.816098E-1,-1.9999406E-1,-6.859846E-1,1.1184883E0,6.96973E-1,2.150905E-1,7.475836E-1,7.541503E-3,-3.3949274E-1,-6.74662E-3,-3.513431E-2,5.8229387E-2,2.624014E-2,8.5562505E-3,6.123057E-2,1.8280195E-2,-1.3798212E-2,5.1176656E-2,2.5374244E-3,2.8171984E-2,-2.2083751E-3,-4.462181E-3,-2.2754844E-2],"categories":[],"categories_nodes":[],"categories_segments":[],"categories_sizes":[],"default_left":[0,0,0,0,0,0,0,0,0,0,0,0,0,0,0,0,0,0,0,0,0,0,0,0,0,0,0],"id":5,"left_children":[1,3,5,7,9,11,13,15,17,19,21,23,25,-1,-1,-1,-1,-1,-1,-1,-1,-1,-1,-1,-1,-1,-1],"loss_changes":[1.1527323E2,1.36961975E1,1.5662304E1,6.843033E-1,3.255722E0,4.860346E0,9.310112E-1,9.777832E-1,3.1785517E0,3.0524647E0,3.2415466E0,1.9918145E0,2.8629808E0,0E0,0E0,0E0,0E0,0E0,0E0,0E0,0E0,0E0,0E0,0E0,0E0,0E0,0E0],"parents":[2147483647,0,0,1,1,2,2,3,3,4,4,5,5,6,6,7,7,8,8,9,9,10,10,11,11,12,12],"right_children":[2,4,6,8,10,12,14,16,18,20,22,24,26,-1,-1,-1,-1,-1,-1,-1,-1,-1,-1,-1,-1,-1,-1],"split_conditions":[-1.806E-1,2.202E-1,1.9194149E0,1.209E-1,-8.72586E-1,5.7345E-1,1.482463E3,1.506959E3,1.502397E3,1.813E-1,2.494E-1,2.089E-1,3.2312152E-1,-6.74662E-3,-3.513431E-2,5.8229387E-2,2.624014E-2,8.5562505E-3,6.123057E-2,1.8280195E-2,-1.3798212E-2,5.1176656E-2,2.5374244E-3,2.8171984E-2,-2.2083751E-3,-4.462181E-3,-2.2754844E-2],"split_indices":[3,1,5,0,5,12,8,8,9,0,0,1,5,0,0,0,0,0,0,0,0,0,0,0,0,0,0],"split_type":[0,0,0,0,0,0,0,0,0,0,0,0,0,0,0,0,0,0,0,0,0,0,0,0,0,0,0],"sum_hessian":[4.0058606E2,1.2333139E2,2.7725467E2,6.8269295E1,5.50621E1,1.6679373E2,1.1046092E2,5.705801E1,1.1211283E1,3.8934494E1,1.6127604E1,6.7426956E1,9.936678E1,3.516508E0,1.0694441E2,5.205439E1,5.0036187E0,6.2784543E0,4.9328284E0,2.9995907E1,8.938587E0,1.1216854E1,4.9107504E0,4.8960085E0,6.2530945E1,3.195833E1,6.740845E1],"tree_param":{"num_deleted":"0","num_feature":"18","num_nodes":"27","size_leaf_vector":"1"}},{"base_weights":[2.3153609E-1,-3.1821147E-1,7.151331E-1,-1.7655091E-2,-4.803112E-1,9.90588E-1,4.1790706E-1,-4.211181E-1,9.483566E-2,-3.200338E-1,-5.9139574E-1,1.037153E0,5.693716E-1,-2.5444338E-2,4.9422854E-1,-3.2415763E-2,-6.4061442E-3,2.061767E-2,-1.1742673E-3,-2.2484015E-3,-2.8291825E-2,-3.0809566E-2,6.4653116E-3,2.3627345E-2,5.345663E-2,-1.2333622E-2,3.837786E-2,-9.761834E-3,3.560109E-2,2.7129147E-2,-5.7215705E-3],"categories":[],"categories_nodes":[],"categories_segments":[],"categories_sizes":[],"default_left":[0,0,0,0,0,0,0,0,0,0,0,0,0,0,0,0,0,0,0,0,0,0,0,0,0,0,0,0,0,0,0],"id":6,"left_children":[1,3,5,7,9,11,13,15,17,19,21,23,25,27,29,-1,-1,-1,-1,-1,-1,-1,-1,-1,-1,-1,-1,-1,-1,-1,-1],"loss_changes":[1.0586755E2,9.085236E0,1.6918839E1,3.055149E0,1.9689274E0,1.5502777E0,3.5167027E0,8.933706E-1,1.9920791E0,3.476901E0,1.3380356E0,1.2473755E0,2.3050857E0,2.1625137E0,2.6637688E0,0E0,0E0,0E0,0E0,0E0,0E0,0E0,0E0,0E0,0E0,0E0,0E0,0E0,0E0,0E0,0E0],"parents":[2147483647,0,0,1,1,2,2,3,3,4,4,5,5,6,6,7,7,8,8,9,9,10,10,11,11,12,12,13,13,14,14],"right_children":[2,4,6,8,10,12,14,16,18,20,22,24,26,28,30,-1,-1,-1,-1,-1,-1,-1,-1,-1,-1,-1,-1,-1,-1,-1,-1],"split_conditions":[1.469E-1,4.499E-1,8.057053E-1,1.3661203E-1,6.228E-1,9.3715847E-1,-1.3564E1,1.0838007E0,2.19E2,-3.387E-1,1.9794E1,-2.1568E1,1.6375E-1,8.43E2,9.699454E-1,-3.2415763E-2,-6.4061442E-3,2.061767E-2,-1.1742673E-3,-2.2484015E-3,-2.8291825E-2,-3.0809566E-2,6.4653116E-3,2.3627345E-2,5.345663E-2,-1.2333622E-2,3.837786E-2,-9.761834E-3,3.560109E-2,2.7129147E-2,-5.7215705E-3],"split_indices":[7,6,4,16,6,16,11,4,15,7,11,11,14,15,16,0,0,0,0,0,0,0,0,0,0,0,0,0,0,0,0],"split_type":[0,0,0,0,0,0,0,0,0,0,0,0,0,0,0,0,0,0,0,0,0,0,0,0,0,0,0,0,0,0,0],"sum_hessian":[3.9635754E2,1.856522E2,2.1070534E2,6.543505E1,1.2021716E2,1.0814703E2,1.02558304E2,1.36683E1,5.176675E1,5.0800735E1,6.941642E1,9.6064896E1,1.2082142E1,1.5160071E1,8.739823E1,7.0155325E0,6.6527677E0,1.3378943E1,3.8387806E1,2.4531584E1,2.6269154E1,6.724779E1,2.1686347E0,5.995182E0,9.006971E1,2.3131049E0,9.769037E0,1.2920539E1,2.2395322E0,8.106654E1,6.33169E0],"tree_param":{"num_deleted":"0","num_feature":"18","num_nodes":"31","size_leaf_vector":"1"}},{"base_weights":[-2.0199795E-1,-4.0419167E-1,-2.9298479E-2,-5.147692E-1,-2.9634798E-1,-6.390924E-2,7.350762E-1,-3.289144E-2,-3.9839324E-1,7.299591E-2,-4.484885E-1,-9.167954E-2,4.3737227E-1,9.325332E-1,4.4450206E-3,5.2845567E-3,-2.1894133E-2,-2.9898731E-2,1.1133852E-2,-2.412389E-2,9.4469655E-3,-1.7633324E-2,-2.602334E-3,5.0085124E-2,-2.2353984E-3,1.9098306E-2,5.599603E-2],"categories":[],"categories_nodes":[],"categories_segments":[],"categories_sizes":[],"default_left":[0,0,0,0,0,0,0,0,0,0,0,0,0,0,0,0,0,0,0,0,0,0,0,0,0,0,0],"id":7,"left_children":[1,3,5,7,9,11,13,-1,15,17,19,21,23,25,-1,-1,-1,-1,-1,-1,-1,-1,-1,-1,-1,-1,-1],"loss_changes":[1.3496188E1,1.9716148E0,5.5951433E0,1.1795559E0,5.232443E0,2.8458447E0,1.0864205E0,0E0,1.0472398E0,2.9308248E0,1.5141153E0,1.9655458E0,2.9701293E0,2.8555822E-1,0E0,0E0,0E0,0E0,0E0,0E0,0E0,0E0,0E0,0E0,0E0,0E0,0E0],"parents":[2147483647,0,0,1,1,2,2,3,3,4,4,5,5,6,6,8,8,9,9,10,10,11,11,12,12,13,13],"right_children":[2,4,6,8,10,12,14,-1,16,18,20,22,24,26,-1,-1,-1,-1,-1,-1,-1,-1,-1,-1,-1,-1,-1],"split_conditions":[2.163E-1,5.5812347E-1,1.53564E3,1.496507E3,1.49362E3,6.32E-1,-8.49E-2,-3.289144E-2,1.497799E3,1.261E-1,2.3875E-1,9.1667277E-1,3.251366E-1,4.123E-1,4.4450206E-3,5.2845567E-3,-2.1894133E-2,-2.9898731E-2,1.1133852E-2,-2.412389E-2,9.4469655E-3,-1.7633324E-2,-2.602334E-3,5.0085124E-2,-2.2353984E-3,1.9098306E-2,5.599603E-2],"split_indices":[1,4,10,9,9,2,14,0,9,0,14,4,16,6,0,0,0,0,0,0,0,0,0,0,0,0,0],"split_type":[0,0,0,0,0,0,0,0,0,0,0,0,0,0,0,0,0,0,0,0,0,0,0,0,0,0,0],"sum_hessian":[3.8584174E2,1.7712558E2,2.0871616E2,8.559126E1,9.153431E1,2.005516E2,8.164555E0,3.630695E1,4.9284317E1,2.6856459E1,6.467785E1,1.9079872E2,9.752874E0,5.914161E0,2.2503936E0,3.458604E0,4.5825714E1,4.3521657E0,2.2504292E1,6.1634434E1,3.0434167E0,2.4113068E1,1.6668565E2,3.9965637E0,5.7563105E0,2.2733011E0,3.64086E0],"tree_param":{"num_deleted":"0","num_feature":"18","num_nodes":"27","size_leaf_vector":"1"}},{"base_weights":[-2.2810625E-2,-4.1789952E-1,6.3077176E-1,-2.3395078E-1,-6.8811506E-1,1.1104654E0,3.658317E-1,-6.7908645E-2,-3.663937E-1,-1.3056417E-2,-3.4848817E-2,1.7018208E-2,1.153961E0,6.7778903E-1,2.4489588E-1,3.6105674E-2,-5.2986084E-3,-1.1067379E-2,-2.2494758E-2,2.3082197E-2,5.9281807E-2,1.3849437E-2,4.9680885E-2,-2.018368E-2,1.5894353E-2],"categories":[],"categories_nodes":[],"categories_segments":[],"categories_sizes":[],"default_left":[0,0,0,0,0,0,0,0,0,0,0,0,0,0,0,0,0,0,0,0,0,0,0,0,0],"id":8,"left_children":[1,3,5,7,9,11,13,15,17,-1,-1,-1,19,21,23,-1,-1,-1,-1,-1,-1,-1,-1,-1,-1],"loss_changes":[1.02765526E2,1.2166073E1,1.8650986E1,3.2533045E0,1.9611359E-1,1.3778687E0,3.5346184E0,2.1024642E0,9.0200424E-1,0E0,0E0,0E0,5.4071045E-1,3.1219463E0,3.548738E0,0E0,0E0,0E0,0E0,0E0,0E0,0E0,0E0,0E0,0E0],"parents":[2147483647,0,0,1,1,2,2,3,3,4,4,5,5,6,6,7,7,8,8,12,12,13,13,14,14],"right_children":[2,4,6,8,10,12,14,16,18,-1,-1,-1,20,22,24,-1,-1,-1,-1,-1,-1,-1,-1,-1,-1],"split_conditions":[3.855E-1,1.9943557E0,7.532083E-1,1.498234E3,1.482463E3,4.0983606E-2,1.7213115E-1,1.464262E3,6.31514E-1,-1.3056417E-2,-3.4848817E-2,1.7018208E-2,6.4E1,5.48E2,2.5956285E-1,3.6105674E-2,-5.2986084E-3,-1.1067379E-2,-2.2494758E-2,2.3082197E-2,5.9281807E-2,1.3849437E-2,4.9680885E-2,-2.018368E-2,1.5894353E-2],"split_indices":[2,5,4,8,8,16,16,8,5,0,0,0,15,15,16,0,0,0,0,0,0,0,0,0,0],"split_type":[0,0,0,0,0,0,0,0,0,0,0,0,0,0,0,0,0,0,0,0,0,0,0,0,0],"sum_hessian":[3.95951E2,2.4700046E2,1.4895055E2,1.4806873E2,9.8931725E1,5.186098E1,9.708956E1,6.637185E1,8.169688E1,2.6308544E0,9.6300865E1,3.2443342E0,4.8616646E1,2.5837214E1,7.125235E1,2.2247648E0,6.414709E1,3.118238E1,5.0514496E1,2.8084023E0,4.5808247E1,1.2214061E1,1.3623153E1,6.7494125E0,6.450294E1],"tree_param":{"num_deleted":"0","num_feature":"18","num_nodes":"25","size_leaf_vector":"1"}},{"base_weights":[2.5274175E-1,-2.783943E-1,6.970634E-1,1.2677741E-1,-4.0995955E-1,9.7591305E-1,4.172211E-1,-7.510322E-2,4.2303115E-1,-6.1090803E-1,-2.865468E-1,1.0235585E0,4.597462E-1,1.0777321E0,3.5008398E-1,-2.0942245E-2,1.3632876E-2,3.8076974E-2,-5.7566905E-4,-3.382533E-2,-1.9244507E-2,-2.8372977E-2,-8.603974E-3,3.0946687E-2,5.409292E-2,-1.3550264E-2,3.4682058E-2,1.9228313E-2,6.1962195E-2,2.0069702E-2,-3.0884007E-2],"categories":[],"categories_nodes":[],"categories_segments":[],"categories_sizes":[],"default_left":[0,0,0,0,0,0,0,0,0,0,0,0,0,0,0,0,0,0,0,0,0,0,0,0,0,0,0,0,0,0,0],"id":9,"left_children":[1,3,5,7,9,11,13,15,17,19,21,23,25,27,29,-1,-1,-1,-1,-1,-1,-1,-1,-1,-1,-1,-1,-1,-1,-1,-1],"loss_changes":[9.368468E1,9.70916E0,1.6447487E1,2.7333326E0,3.222309E0,2.1717072E0,4.4807034E0,3.427059E0,2.7237709E0,4.9931908E-1,2.6919284E0,1.6314774E0,2.0501094E0,6.0117626E-1,5.2594137E0,0E0,0E0,0E0,0E0,0E0,0E0,0E0,0E0,0E0,0E0,0E0,0E0,0E0,0E0,0E0,0E0],"parents":[2147483647,0,0,1,1,2,2,3,3,4,4,5,5,6,6,7,7,8,8,9,9,10,10,11,11,12,12,13,13,14,14],"right_children":[2,4,6,8,10,12,14,16,18,20,22,24,26,28,30,-1,-1,-1,-1,-1,-1,-1,-1,-1,-1,-1,-1,-1,-1,-1,-1],"split_conditions":[1.469E-1,4.149E-1,8.057053E-1,7.295082E-1,-1.0584E1,9.3715847E-1,4.503E-1,-1.148E0,-6.14E-1,8.251366E-1,-5.909E-1,1.494209E3,4.92E2,1.491331E3,1.0600259E0,-2.0942245E-2,1.3632876E-2,3.8076974E-2,-5.7566905E-4,-3.382533E-2,-1.9244507E-2,-2.8372977E-2,-8.603974E-3,3.0946687E-2,5.409292E-2,-1.3550264E-2,3.4682058E-2,1.9228313E-2,6.1962195E-2,2.0069702E-2,-3.0884007E-2],"split_indices":[7,6,4,16,11,16,6,11,11,16,7,8,15,9,4,0,0,0,0,0,0,0,0,0,0,0,0,0,0,0,0],"split_type":[0,0,0,0,0,0,0,0,0,0,0,0,0,0,0,0,0,0,0,0,0,0,0,0,0,0,0,0,0,0,0],"sum_hessian":[3.951547E2,1.8016333E2,2.1499138E2,4.4170654E1,1.3599268E2,1.0644077E2,1.08550606E2,2.6713419E1,1.7457235E1,5.023947E1,8.57532E1,9.6545975E1,9.894797E0,8.626669E0,9.992394E1,1.3331543E1,1.3381876E1,9.389981E0,8.067255E0,3.73934E1,1.2846072E1,2.3680878E1,6.2072323E1,1.3621775E1,8.29242E1,2.3606915E0,7.534106E0,2.2691438E0,6.3575253E0,9.544857E1,4.4753656E0],"tree_param":{"num_deleted":"0","num_feature":"18","num_nodes":"31","size_leaf_vector":"1"}},{"base_weights":[-2.0966454E-1,-4.140737E-1,-3.31962E-2,-3.2385644E-1,-5.186225E-1,-6.235194E-2,6.123621E-1,-3.9674956E-1,-2.4738396E-2,-5.3588855E-1,-2.401708E-3,7.780579E-3,-2.2548084E-1,4.9725994E-2,-4.725287E-3,-1.3468293E-2,-3.2997083E-2,2.3835558E-2,-1.5852226E-2,-3.183808E-2,-2.2815509E-2,-4.0043932E-3,1.2154164E-2,4.0029916E-3,-1.779816E-2],"categories":[],"categories_nodes":[],"categories_segments":[],"categories_sizes":[],"default_left":[0,0,0,0,0,0,0,0,0,0,0,0,0,0,0,0,0,0,0,0,0,0,0,0,0],"id":10,"left_children":[1,3,5,7,9,11,13,15,17,19,-1,21,23,-1,-1,-1,-1,-1,-1,-1,-1,-1,-1,-1,-1],"loss_changes":[1.4104755E1,1.5416737E0,4.012274E0,2.1696749E0,6.429367E-1,2.3233745E0,2.5836494E0,2.514635E0,3.1783855E0,3.4589005E-1,0E0,2.9736469E0,2.4622455E0,0E0,0E0,0E0,0E0,0E0,0E0,0E0,0E0,0E0,0E0,0E0,0E0],"parents":[2147483647,0,0,1,1,2,2,3,3,4,4,5,5,6,6,7,7,8,8,9,9,11,11,12,12],"right_children":[2,4,6,8,10,12,14,16,18,20,-1,22,24,-1,-1,-1,-1,-1,-1,-1,-1,-1,-1,-1,-1],"split_conditions":[2.202E-1,8.368E-1,1.537935E3,1.5926E1,1.533845E3,1.50195E3,1.542626E3,1.500418E3,2.8624E1,2.68E-1,-2.401708E-3,1.499575E3,2.462E-1,4.9725994E-2,-4.725287E-3,-1.3468293E-2,-3.2997083E-2,2.3835558E-2,-1.5852226E-2,-3.183808E-2,-2.2815509E-2,-4.0043932E-3,1.2154164E-2,4.0029916E-3,-1.779816E-2],"split_indices":[1,6,10,11,10,10,8,8,11,14,0,10,1,0,0,0,0,0,0,0,0,0,0,0,0],"split_type":[0,0,0,0,0,0,0,0,0,0,0,0,0,0,0,0,0,0,0,0,0,0,0,0,0],"sum_hessian":[3.9040057E2,1.8025673E2,2.1014383E2,9.89599E1,8.129683E1,2.0192747E2,8.216358E0,7.930692E1,1.965298E1,7.828574E1,3.0110881E0,1.4188182E2,6.004565E1,5.0689597E0,3.1473985E0,5.4805008E1,2.4501911E1,7.0050282E0,1.2647952E1,3.1435993E1,4.6849747E1,1.03785225E2,3.8096596E1,1.8084642E1,4.196101E1],"tree_param":{"num_deleted":"0","num_feature":"18","num_nodes":"25","size_leaf_vector":"1"}},{"base_weights":[-2.845326E-2,-3.709755E-1,5.947057E-1,-1.3360873E-1,-6.275835E-1,9.651311E-1,2.5316882E-1,2.0565018E-2,-2.6613367E-1,-3.8672453E-1,-6.6905856E-1,5.198873E-2,5.3945583E-1,1.3117641E-1,7.2661096E-1,-1.9313077E-2,6.564244E-3,-1.5539194E-2,1.6421067E-2,-2.5417922E-2,1.507895E-2,-2.4686683E-2,-3.478309E-2,3.97332E-2,-5.5693756E-3,2.5964845E-3,3.3509407E-2,4.7465105E-2,1.4709926E-2],"categories":[],"categories_nodes":[],"categories_segments":[],"categories_sizes":[],"default_left":[0,0,0,0,0,0,0,0,0,0,0,0,0,0,0,0,0,0,0,0,0,0,0,0,0,0,0,0,0],"id":11,"left_children":[1,3,5,7,9,11,13,15,17,19,21,-1,23,25,27,-1,-1,-1,-1,-1,-1,-1,-1,-1,-1,-1,-1,-1,-1],"loss_changes":[8.19944E1,1.5012165E1,1.6996002E1,2.6619751E0,9.282532E-1,1.5048904E0,4.077953E0,2.7996516E0,1.9600773E0,1.8130696E0,1.2294006E-1,0E0,2.0448575E0,2.471403E0,1.1250315E0,0E0,0E0,0E0,0E0,0E0,0E0,0E0,0E0,0E0,0E0,0E0,0E0,0E0,0E0],"parents":[2147483647,0,0,1,1,2,2,3,3,4,4,5,5,6,6,7,7,8,8,9,9,10,10,12,12,13,13,14,14],"right_children":[2,4,6,8,10,12,14,16,18,20,22,-1,24,26,28,-1,-1,-1,-1,-1,-1,-1,-1,-1,-1,-1,-1,-1,-1],"split_conditions":[4.146E-1,1.5443853E0,2.129E-1,-2.92E-1,-3.77E0,4.5E-1,-2.96E-1,4E0,9.699454E-1,-5.456E0,1.3661203E-1,5.198873E-2,1.181E-1,3.286E-1,2.98E-1,-1.9313077E-2,6.564244E-3,-1.5539194E-2,1.6421067E-2,-2.5417922E-2,1.507895E-2,-2.4686683E-2,-3.478309E-2,3.97332E-2,-5.5693756E-3,2.5964845E-3,3.3509407E-2,4.7465105E-2,1.4709926E-2],"split_indices":[2,5,1,11,11,11,14,17,16,11,16,0,0,1,0,0,0,0,0,0,0,0,0,0,0,0,0,0,0],"split_type":[0,0,0,0,0,0,0,0,0,0,0,0,0,0,0,0,0,0,0,0,0,0,0,0,0,0,0,0,0],"sum_hessian":[3.8211264E2,2.4684036E2,1.3527228E2,1.290176E2,1.1782278E2,6.401586E1,7.125642E1,6.002821E1,6.898938E1,1.8824875E1,9.89979E1,5.32378E1,1.077806E1,5.767285E1,1.3583566E1,1.2309569E1,4.771864E1,6.461423E1,4.3751526E0,1.6219984E1,2.60489E0,1.5619439E1,8.337846E1,7.583463E0,3.1945972E0,5.1236313E1,6.4365354E0,8.177048E0,5.4065185E0],"tree_param":{"num_deleted":"0","num_feature":"18","num_nodes":"29","size_leaf_vector":"1"}},{"base_weights":[2.310174E-1,-2.8579107E-1,6.377107E-1,-1.2261829E-1,-5.758816E-1,8.9825565E-1,3.9029625E-1,-4.5036304E-1,-2.0677784E-2,-6.0219276E-1,1.9834193E-3,9.438795E-1,4.830874E-1,9.923597E-1,3.2444042E-1,-2.6602045E-2,1.8058956E-3,5.7386025E-3,-1.0431515E-2,-3.2739203E-2,-1.665864E-2,2.7866153E-2,4.95537E-2,-4.101231E-3,3.255375E-2,6.096191E-2,3.7564025E-3,6.0009523E-3,2.7905224E-2],"categories":[],"categories_nodes":[],"categories_segments":[],"categories_sizes":[],"default_left":[0,0,0,0,0,0,0,0,0,0,0,0,0,0,0,0,0,0,0,0,0,0,0,0,0,0,0,0,0],"id":12,"left_children":[1,3,5,7,9,11,13,15,17,19,-1,21,23,25,27,-1,-1,-1,-1,-1,-1,-1,-1,-1,-1,-1,-1,-1,-1],"loss_changes":[8.513217E1,8.387206E0,1.4249641E1,3.8538349E0,1.0612907E0,1.6190796E0,4.3543453E0,1.1073008E0,2.2959087E0,6.518097E-1,0E0,1.2292023E0,1.2775617E0,2.2272806E0,5.0821037E0,0E0,0E0,0E0,0E0,0E0,0E0,0E0,0E0,0E0,0E0,0E0,0E0,0E0,0E0],"parents":[2147483647,0,0,1,1,2,2,3,3,4,4,5,5,6,6,7,7,8,8,9,9,11,11,12,12,13,13,14,14],"right_children":[2,4,6,8,10,12,14,16,18,20,-1,22,24,26,28,-1,-1,-1,-1,-1,-1,-1,-1,-1,-1,-1,-1,-1,-1],"split_conditions":[1.469E-1,6.228E-1,8.56E-2,1.7213115E-1,6.0315E-1,9.3715847E-1,4.503E-1,5.741E-1,4.499E-1,1.209E-1,1.9834193E-3,1.494209E3,4.92E2,6.18E2,4.407E-1,-2.6602045E-2,1.8058956E-3,5.7386025E-3,-1.0431515E-2,-3.2739203E-2,-1.665864E-2,2.7866153E-2,4.95537E-2,-4.101231E-3,3.255375E-2,6.096191E-2,3.7564025E-3,6.0009523E-3,2.7905224E-2],"split_indices":[3,6,2,16,12,16,6,2,6,0,0,8,15,15,3,0,0,0,0,0,0,0,0,0,0,0,0,0,0],"split_type":[0,0,0,0,0,0,0,0,0,0,0,0,0,0,0,0,0,0,0,0,0,0,0,0,0,0,0,0,0],"sum_hessian":[4.0317206E2,1.7768053E2,2.2549153E2,1.14626854E2,6.305368E1,1.08550064E2,1.16941475E2,2.6383722E1,8.824313E1,6.048979E1,2.5638852E0,9.665494E1,1.189512E1,1.0143102E1,1.0679837E2,2.2510641E1,3.8730817E0,5.1510754E1,3.6732376E1,4.939876E1,1.109103E1,1.1910294E1,8.4744644E1,2.8429909E0,9.052129E0,7.867746E0,2.275356E0,5.7770977E1,4.9027397E1],"tree_param":{"num_deleted":"0","num_feature":"18","num_nodes":"29","size_leaf_vector":"1"}},{"base_weights":[-2.035235E-1,-4.1225466E-1,-2.4067638E-2,-1.2141169E-1,-4.5165378E-1,4.5995448E-2,-1.7362405E-1,-3.227906E-1,3.787398E-2,-6.0207087E-1,-4.0806726E-1,-1.9929117E-1,1.3025478E-1,-3.29081E-1,7.149453E-2,-2.2254493E-2,2.089396E-2,-3.447598E-2,-3.2914404E-4,8.782189E-3,-2.1513725E-2,2.1885963E-2,-1.2608546E-2,4.739221E-3,3.5684153E-2,-2.0087233E-2,2.1348042E-2,2.6502743E-2,-4.1023446E-3],"categories":[],"categories_nodes":[],"categories_segments":[],"categories_sizes":[],"default_left":[0,0,0,0,0,0,0,0,0,0,0,0,0,0,0,0,0,0,0,0,0,0,0,0,0,0,0,0,0],"id":13,"left_children":[1,3,5,7,9,11,13,15,-1,17,19,21,23,25,27,-1,-1,-1,-1,-1,-1,-1,-1,-1,-1,-1,-1,-1,-1],"loss_changes":[1.4373076E1,1.9785213E0,2.1825552E0,4.233472E0,7.7648735E-1,2.9631186E0,2.554313E0,1.9104819E0,0E0,1.7099972E0,1.682745E0,1.3476722E0,2.133873E0,2.414E0,1.9160805E0,0E0,0E0,0E0,0E0,0E0,0E0,0E0,0E0,0E0,0E0,0E0,0E0,0E0,0E0],"parents":[2147483647,0,0,1,1,2,2,3,3,4,4,5,5,6,6,7,7,9,9,10,10,11,11,12,12,13,13,14,14],"right_children":[2,4,6,8,10,12,14,16,-1,18,20,22,24,26,28,-1,-1,-1,-1,-1,-1,-1,-1,-1,-1,-1,-1,-1,-1],"split_conditions":[8.7706405E-1,1.484945E3,7.95082E-1,1.483367E3,6.31E-2,2.125E-1,8.13E2,7.8810906E-1,3.787398E-2,1.501507E3,7.27E-2,8.870323E-1,1.0958592E0,1.516301E3,-2.744E-1,-2.2254493E-2,2.089396E-2,-3.447598E-2,-3.2914404E-4,8.782189E-3,-2.1513725E-2,2.1885963E-2,-1.2608546E-2,4.739221E-3,3.5684153E-2,-2.0087233E-2,2.1348042E-2,2.6502743E-2,-4.1023446E-3],"split_indices":[4,9,16,9,0,2,15,4,0,8,0,4,4,8,3,0,0,0,0,0,0,0,0,0,0,0,0,0,0],"split_type":[0,0,0,0,0,0,0,0,0,0,0,0,0,0,0,0,0,0,0,0,0,0,0,0,0,0,0,0,0],"sum_hessian":[3.8297638E2,1.7644731E2,2.0652905E2,2.1537775E1,1.5490955E2,1.4111363E2,6.541542E1,1.8037584E1,3.5001922E0,3.19246E1,1.2298494E2,3.5731308E1,1.0538233E2,3.9819138E1,2.5596283E1,1.5823828E1,2.213756E0,2.769903E1,4.2255692E0,4.2542377E0,1.18730705E2,2.180961E0,3.355035E1,1.0043849E2,4.943839E0,3.6755196E1,3.0639424E0,5.805531E0,1.979075E1],"tree_param":{"num_deleted":"0","num_feature":"18","num_nodes":"29","size_leaf_vector":"1"}},{"base_weights":[-4.721347E-2,4.9282527E-1,-3.7955725E-1,9.6262753E-1,1.973191E-1,-1.8821172E-1,-6.5542793E-1,9.85605E-1,1.5512248E-2,6.329944E-1,2.4357725E-2,3.0804763E-2,-3.4479284E-1,-5.4236305E-1,-3.463235E-2,3.2673653E-2,5.276726E-2,1.2532574E-2,4.8211526E-2,-6.6471966E-3,2.3688788E-2,2.7112598E-2,-1.6708255E-3,-8.777569E-3,-2.3632426E-2,-3.002292E-2,-3.5347329E-3],"categories":[],"categories_nodes":[],"categories_segments":[],"categories_sizes":[],"default_left":[0,0,0,0,0,0,0,0,0,0,0,0,0,0,0,0,0,0,0,0,0,0,0,0,0,0,0],"id":14,"left_children":[1,3,5,7,9,11,13,15,-1,17,19,21,23,25,-1,-1,-1,-1,-1,-1,-1,-1,-1,-1,-1,-1,-1],"loss_changes":[6.914328E1,2.019043E1,1.246106E1,5.400543E-1,6.8701706E0,4.8861284E0,3.35083E-2,5.6225204E-1,0E0,3.0418453E0,4.7605066E0,1.9949756E0,1.7126417E0,7.436924E-1,0E0,0E0,0E0,0E0,0E0,0E0,0E0,0E0,0E0,0E0,0E0,0E0,0E0],"parents":[2147483647,0,0,1,1,2,2,3,3,4,4,5,5,6,6,7,7,9,9,10,10,11,11,12,12,13,13],"right_children":[2,4,6,8,10,12,14,16,-1,18,20,22,24,26,-1,-1,-1,-1,-1,-1,-1,-1,-1,-1,-1,-1,-1],"split_conditions":[-1.8886654E-1,8.1257665E-1,1.9943557E0,1.5314E3,1.7213115E-1,-2.088E0,1.88E0,1.92E2,1.5512248E-2,5.54E2,8.442623E-1,2.089E-1,1.49939E3,8.9E-1,-3.463235E-2,3.2673653E-2,5.276726E-2,1.2532574E-2,4.8211526E-2,-6.6471966E-3,2.3688788E-2,2.7112598E-2,-1.6708255E-3,-8.777569E-3,-2.3632426E-2,-3.002292E-2,-3.5347329E-3],"split_indices":[5,4,5,10,16,11,11,15,0,15,16,1,10,11,0,0,0,0,0,0,0,0,0,0,0,0,0],"split_type":[0,0,0,0,0,0,0,0,0,0,0,0,0,0,0,0,0,0,0,0,0,0,0,0,0,0,0],"sum_hessian":[3.8320316E2,1.4580153E2,2.3740163E2,5.542619E1,9.037534E1,1.4116853E2,9.6233086E1,5.304705E1,2.3791378E0,2.4926876E1,6.544847E1,5.9185963E1,8.1982574E1,2.7689499E1,6.854359E1,1.1005303E1,4.2041748E1,1.2386253E1,1.2540624E1,4.9001534E1,1.6446934E1,5.7723627E0,5.34136E1,3.630241E1,4.5680164E1,2.4409883E1,3.2796154E0],"tree_param":{"num_deleted":"0","num_feature":"18","num_nodes":"27","size_leaf_vector":"1"}},{"base_weights":[2.1920972E-1,6.8552655E-1,-2.3706408E-1,4.6568805E-1,8.8983876E-1,-1.0884713E-1,-5.292851E-1,-9.2582494E-2,5.337944E-1,1.2091425E-2,9.098399E-1,1.4494358E-2,-2.3786178E-1,-1.2553036E-1,-5.792232E-1,-2.1516036E-2,2.944021E-2,1.1577723E-2,3.1927876E-2,1.3298444E-2,4.6496365E-2,-3.2873524E-3,4.205264E-2,2.9219678E-2,-1.39203435E-2,6.363199E-3,-2.4948133E-2,-3.2646973E-2,-1.8509258E-2],"categories":[],"categories_nodes":[],"categories_segments":[],"categories_sizes":[],"default_left":[0,0,0,0,0,0,0,0,0,0,0,0,0,0,0,0,0,0,0,0,0,0,0,0,0,0,0,0,0],"id":15,"left_children":[1,3,5,7,9,11,13,15,17,-1,19,21,23,25,27,-1,-1,-1,-1,-1,-1,-1,-1,-1,-1,-1,-1,-1,-1],"loss_changes":[8.530977E1,8.486679E0,7.5488987E0,3.7587185E0,1.0970154E0,2.2688413E0,1.1703777E0,2.890588E0,2.6099625E0,0E0,1.0228958E0,4.9449835E0,2.4843354E0,8.246434E-1,5.9949684E-1,0E0,0E0,0E0,0E0,0E0,0E0,0E0,0E0,0E0,0E0,0E0,0E0,0E0,0E0],"parents":[2147483647,0,0,1,1,2,2,3,3,4,4,5,5,6,6,7,7,8,8,10,10,11,11,12,12,13,13,14,14],"right_children":[2,4,6,8,10,12,14,16,18,-1,20,22,24,26,28,-1,-1,-1,-1,-1,-1,-1,-1,-1,-1,-1,-1,-1,-1],"split_conditions":[2.39E-1,7.332E-1,6.228E-1,5.57E-1,1E0,4.462E-1,1.490778E3,7.85E2,1.490375E3,1.2091425E-2,5.492E-1,1.469E-1,9.128198E-1,8.21E2,9.54E-2,-2.1516036E-2,2.944021E-2,1.1577723E-2,3.1927876E-2,1.3298444E-2,4.6496365E-2,-3.2873524E-3,4.205264E-2,2.9219678E-2,-1.39203435E-2,6.363199E-3,-2.4948133E-2,-3.2646973E-2,-1.8509258E-2],"split_indices":[2,0,6,12,17,6,9,15,9,0,12,7,4,15,0,0,0,0,0,0,0,0,0,0,0,0,0,0,0],"split_type":[0,0,0,0,0,0,0,0,0,0,0,0,0,0,0,0,0,0,0,0,0,0,0,0,0,0,0,0,0],"sum_hessian":[3.99188E2,1.9717278E2,2.020152E2,9.65572E1,1.0061558E2,1.4136247E2,6.065272E1,1.0459653E1,8.609755E1,3.4045167E0,9.721106E1,7.2724014E1,6.8638466E1,7.062825E0,5.3589897E1,7.239676E0,3.2199767E0,2.2987942E1,6.3109608E1,3.371858E0,9.38392E1,6.712778E1,5.5962353E0,2.5951593E0,6.6043304E1,4.604811E0,2.4580142E0,3.804868E1,1.5541217E1],"tree_param":{"num_deleted":"0","num_feature":"18","num_nodes":"29","size_leaf_vector":"1"}},{"base_weights":[-1.8346678E-1,-3.814244E-1,-1.5271278E-2,-3.460432E-1,-3.3241265E-2,-4.6002142E-2,6.626467E-1,-4.980341E-1,-2.6725584E-1,4.298293E-1,-7.356284E-2,4.7589727E-2,5.9209582E-3,-2.6438147E-2,7.1457066E-3,3.806627E-3,-1.7784784E-2,7.913863E-7,4.246713E-2,-1.9678365E-2,-1.3941051E-3],"categories":[],"categories_nodes":[],"categories_segments":[],"categories_sizes":[],"default_left":[0,0,0,0,0,0,0,0,0,0,0,0,0,0,0,0,0,0,0,0,0],"id":16,"left_children":[1,3,5,7,-1,9,11,13,15,17,19,-1,-1,-1,-1,-1,-1,-1,-1,-1,-1],"loss_changes":[1.238266E1,1.4833126E0,4.2429476E0,1.7109795E0,0E0,2.5806093E0,1.277344E0,1.0882292E0,3.1727014E0,1.9451561E0,2.6872272E0,0E0,0E0,0E0,0E0,0E0,0E0,0E0,0E0,0E0,0E0],"parents":[2147483647,0,0,1,1,2,2,3,3,5,5,6,6,7,7,8,8,9,9,10,10],"right_children":[2,4,6,8,-1,10,12,14,16,18,20,-1,-1,-1,-1,-1,-1,-1,-1,-1,-1],"split_conditions":[2.163E-1,9.42E-1,1.53564E3,-5.477E-1,-3.3241265E-2,-5.099E-1,8.98E2,1.533845E3,1.493515E3,1.49945E3,9.1667277E-1,4.7589727E-2,5.9209582E-3,-2.6438147E-2,7.1457066E-3,3.806627E-3,-1.7784784E-2,7.913863E-7,4.246713E-2,-1.9678365E-2,-1.3941051E-3],"split_indices":[1,0,10,3,0,3,15,10,10,10,4,0,0,0,0,0,0,0,0,0,0],"split_type":[0,0,0,0,0,0,0,0,0,0,0,0,0,0,0,0,0,0,0,0,0],"sum_hessian":[3.71076E2,1.698745E2,2.0120148E2,1.5299489E2,1.6879616E1,1.9336801E2,7.8334694E0,5.041557E1,1.02579315E2,9.787772E0,1.8358023E2,4.6265144E0,3.206955E0,4.8276108E1,2.1394596E0,2.1037075E1,8.154224E1,5.3284903E0,4.4592824E0,2.1981184E1,1.6159906E2],"tree_param":{"num_deleted":"0","num_feature":"18","num_nodes":"21","size_leaf_vector":"1"}},{"base_weights":[-4.245866E-2,-3.848247E-1,5.375949E-1,-6.552451E-1,-2.0588842E-1,9.7852147E-1,2.6868233E-1,-1.17091155E-2,-3.321367E-2,-4.1461145E-3,-3.3924273E-1,1.2964427E-2,1.0220028E0,2.7361821E-2,3.6186817E-1,3.5095833E-2,-2.2235436E-3,-1.8705605E-2,7.593029E-3,1.8963499E-2,5.2691698E-2,-6.589088E-3,4.9597986E-2,2.120403E-2,-6.378707E-4],"categories":[],"categories_nodes":[],"categories_segments":[],"categories_sizes":[],"default_left":[0,0,0,0,0,0,0,0,0,0,0,0,0,0,0,0,0,0,0,0,0,0,0,0,0],"id":17,"left_children":[1,3,5,7,9,11,13,-1,-1,15,17,-1,19,21,23,-1,-1,-1,-1,-1,-1,-1,-1,-1,-1],"loss_changes":[7.588914E1,1.1489414E1,1.6558167E1,2.0635605E-1,3.927219E0,1.4039078E0,2.002749E0,0E0,0E0,1.714622E0,1.5620995E0,0E0,6.2291336E-1,4.124197E0,1.5083361E0,0E0,0E0,0E0,0E0,0E0,0E0,0E0,0E0,0E0,0E0],"parents":[2147483647,0,0,1,1,2,2,3,3,4,4,5,5,6,6,9,9,10,10,12,12,13,13,14,14],"right_children":[2,4,6,8,10,12,14,-1,-1,16,18,-1,20,22,24,-1,-1,-1,-1,-1,-1,-1,-1,-1,-1],"split_conditions":[3.855E-1,9.56E-2,-5.909E-1,1.482463E3,-1.888E0,4.0983606E-2,2.39E2,-1.17091155E-2,-3.321367E-2,1.480685E3,8.98E2,1.2964427E-2,6.4E1,8.278689E-1,1.514758E3,3.5095833E-2,-2.2235436E-3,-1.8705605E-2,7.593029E-3,1.8963499E-2,5.2691698E-2,-6.589088E-3,4.9597986E-2,2.120403E-2,-6.378707E-4],"split_indices":[2,2,3,8,11,16,15,0,0,10,15,0,15,16,8,0,0,0,0,0,0,0,0,0,0],"split_type":[0,0,0,0,0,0,0,0,0,0,0,0,0,0,0,0,0,0,0,0,0,0,0,0,0],"sum_hessian":[3.8009677E2,2.3923138E2,1.4086539E2,9.420326E1,1.4502812E2,5.2365204E1,8.850018E1,2.542978E0,9.1660286E1,5.81254E1,8.690272E1,3.3822336E0,4.898297E1,2.5014507E1,6.3485676E1,2.2539244E0,5.5871475E1,8.136393E1,5.5387893E0,2.920836E0,4.6062134E1,2.2213078E1,2.8014293E0,5.433113E1,9.154544E0],"tree_param":{"num_deleted":"0","num_feature":"18","num_nodes":"25","size_leaf_vector":"1"}},{"base_weights":[2.2602421E-1,-2.6670378E-1,6.2646693E-1,6.552607E-2,-3.7898085E-1,2.9305112E-1,7.65909E-1,-4.5193817E-2,5.3360605E-1,-5.8783007E-1,-2.670487E-1,9.3093055E-1,1.6185385E-1,3.5462037E-1,8.138845E-1,-1.9461459E-2,8.983506E-3,4.414725E-2,-4.757465E-3,-9.888652E-3,-3.1188468E-2,-2.7389755E-2,-8.57408E-3,1.646404E-2,5.660857E-2,-1.1643604E-2,1.9673528E-2,2.9014334E-2,-2.0742752E-2,4.1872855E-2,-1.3297877E-3],"categories":[],"categories_nodes":[],"categories_segments":[],"categories_sizes":[],"default_left":[0,0,0,0,0,0,0,0,0,0,0,0,0,0,0,0,0,0,0,0,0,0,0,0,0,0,0,0,0,0,0],"id":18,"left_children":[1,3,5,7,9,11,13,15,17,19,21,23,25,27,29,-1,-1,-1,-1,-1,-1,-1,-1,-1,-1,-1,-1,-1,-1,-1,-1],"loss_changes":[8.047696E1,6.858013E0,1.0228798E1,2.4663146E0,3.0471401E0,5.533665E0,2.8273392E0,3.0894053E0,2.0811448E0,5.3541183E-1,2.3494658E0,1.004632E0,5.3528137E0,3.412927E0,2.8088303E0,0E0,0E0,0E0,0E0,0E0,0E0,0E0,0E0,0E0,0E0,0E0,0E0,0E0,0E0,0E0,0E0],"parents":[2147483647,0,0,1,1,2,2,3,3,4,4,5,5,6,6,7,7,8,8,9,9,10,10,11,11,12,12,13,13,14,14],"right_children":[2,4,6,8,10,12,14,16,18,20,22,24,26,28,30,-1,-1,-1,-1,-1,-1,-1,-1,-1,-1,-1,-1,-1,-1,-1,-1],"split_conditions":[1.469E-1,4.149E-1,4.407E-1,3.509E-1,-5.909E-1,4.503E-1,1.48913E3,1.49798E3,-8.78E-1,1.490778E3,1.5846995E-1,1.491331E3,-1.238E0,1.973E-1,9.945355E-1,-1.9461459E-2,8.983506E-3,4.414725E-2,-4.757465E-3,-9.888652E-3,-3.1188468E-2,-2.7389755E-2,-8.57408E-3,1.646404E-2,5.660857E-2,-1.1643604E-2,1.9673528E-2,2.9014334E-2,-2.0742752E-2,4.1872855E-2,-1.3297877E-3],"split_indices":[3,6,3,1,3,6,10,10,11,9,16,9,11,1,16,0,0,0,0,0,0,0,0,0,0,0,0,0,0,0,0],"split_type":[0,0,0,0,0,0,0,0,0,0,0,0,0,0,0,0,0,0,0,0,0,0,0,0,0,0,0,0,0,0,0],"sum_hessian":[4.0602524E2,1.8218643E2,2.2383879E2,4.6123264E1,1.3606317E2,6.692296E1,1.5691583E2,3.803087E1,8.092394E0,4.599377E1,9.00694E1,1.0376568E1,5.654639E1,1.7268291E1,1.3964755E2,1.4743217E1,2.3287653E1,4.9422083E0,3.1501853E0,4.4289002E0,4.156487E1,2.1671936E1,6.839746E1,3.2616043E0,7.1149635E0,2.0908417E1,3.5637974E1,1.3542507E1,3.725784E0,1.3584126E2,3.8062878E0],"tree_param":{"num_deleted":"0","num_feature":"18","num_nodes":"31","size_leaf_vector":"1"}},{"base_weights":[-2.0007819E-1,-4.2010757E-1,-1.8765366E-2,-1.4730969E-1,-5.0952905E-1,-4.3814033E-2,5.330018E-1,-3.199163E-1,5.1731455E-1,-3.931709E-3,-5.203409E-1,-6.3634135E-2,5.485874E-1,3.4078246E-3,8.205864E-1,-2.887381E-2,-6.767252E-3,9.1336155E-4,4.3898974E-2,-8.384496E-3,-2.6544059E-2,-2.1642393E-2,-1.6098631E-3,3.89615E-2,3.8975365E-3,5.0035685E-2,1.943284E-2],"categories":[],"categories_nodes":[],"categories_segments":[],"categories_sizes":[],"default_left":[0,0,0,0,0,0,0,0,0,0,0,0,0,0,0,0,0,0,0,0,0,0,0,0,0,0,0],"id":19,"left_children":[1,3,5,7,9,11,13,15,17,-1,19,21,23,-1,25,-1,-1,-1,-1,-1,-1,-1,-1,-1,-1,-1,-1],"loss_changes":[1.5019841E1,4.0750656E0,2.892059E0,5.1450415E0,5.5410767E-1,2.3769941E0,1.1591706E0,1.5892725E0,1.6634345E0,0E0,3.7344742E-1,2.2367597E0,6.515173E-1,0E0,4.0908575E-2,0E0,0E0,0E0,0E0,0E0,0E0,0E0,0E0,0E0,0E0,0E0,0E0],"parents":[2147483647,0,0,1,1,2,2,3,3,4,4,5,5,6,6,7,7,8,8,10,10,11,11,12,12,14,14],"right_children":[2,4,6,8,10,12,14,16,18,-1,20,22,24,-1,26,-1,-1,-1,-1,-1,-1,-1,-1,-1,-1,-1,-1],"split_conditions":[2.182E-1,1.491833E3,6.32E-1,8.057053E-1,1.485045E3,1.537935E3,1.496529E3,9.71E-2,1.48994E3,-3.931709E-3,8.4E-3,-3.0392E1,1.539883E3,3.4078246E-3,1.49857E3,-2.887381E-2,-6.767252E-3,9.1336155E-4,4.3898974E-2,-8.384496E-3,-2.6544059E-2,-2.1642393E-2,-1.6098631E-3,3.89615E-2,3.8975365E-3,5.0035685E-2,1.943284E-2],"split_indices":[1,9,2,4,10,10,8,1,10,0,0,11,8,0,8,0,0,0,0,0,0,0,0,0,0,0,0],"split_type":[0,0,0,0,0,0,0,0,0,0,0,0,0,0,0,0,0,0,0,0,0,0,0,0,0,0,0],"sum_hessian":[3.756899E2,1.6912898E2,2.0656091E2,4.2406616E1,1.26722374E2,1.9847147E2,8.089449E0,3.4075634E1,8.330982E0,3.3043375E0,1.2341804E2,1.9290982E2,5.561642E0,3.5646403E0,4.524809E0,1.3336492E1,2.0739143E1,3.9357646E0,4.3952174E0,4.072476E0,1.1934556E2,1.4134686E1,1.7877513E2,3.292439E0,2.2692034E0,2.2638662E0,2.260943E0],"tree_param":{"num_deleted":"0","num_feature":"18","num_nodes":"27","size_leaf_vector":"1"}},{"base_weights":[-3.439919E-2,5.9112966E-1,-3.2353956E-1,8.838932E-1,3.068818E-1,-1.4001317E-1,-6.129461E-1,9.2082703E-1,-3.4191544E-4,7.2011334E-1,1.864509E-1,4.9343333E-2,-1.617944E-1,-1.5374566E-3,-6.2969685E-1,2.3060024E-2,4.705401E-2,4.922802E-2,-6.730155E-3,1.9045394E-2,-5.875824E-3,-3.0397854E-3,-1.7714461E-2,-3.188827E-2,-1.1189597E-2],"categories":[],"categories_nodes":[],"categories_segments":[],"categories_sizes":[],"default_left":[0,0,0,0,0,0,0,0,0,0,0,0,0,0,0,0,0,0,0,0,0,0,0,0,0],"id":20,"left_children":[1,3,5,7,9,11,13,15,-1,17,19,-1,21,-1,23,-1,-1,-1,-1,-1,-1,-1,-1,-1,-1],"loss_changes":[7.0982445E1,1.0054504E1,1.4165682E1,1.9997063E0,3.0750494E0,4.2216415E0,9.931946E-1,1.0763931E-1,0E0,3.342928E0,3.076128E0,0E0,3.1516056E0,0E0,1.876297E-1,0E0,0E0,0E0,0E0,0E0,0E0,0E0,0E0,0E0,0E0],"parents":[2147483647,0,0,1,1,2,2,3,3,4,4,5,5,6,6,7,7,9,9,10,10,12,12,14,14],"right_children":[2,4,6,8,10,12,14,16,-1,18,20,-1,22,-1,24,-1,-1,-1,-1,-1,-1,-1,-1,-1,-1],"split_conditions":[-6.1406887E-1,8.1257665E-1,1.7027031E0,1.533845E3,5.483E-1,1.462421E3,1.482463E3,4.0983606E-2,-3.4191544E-4,1.537935E3,1.500889E3,4.9343333E-2,5.8055E-1,-1.5374566E-3,8.689361E-1,2.3060024E-2,4.705401E-2,4.922802E-2,-6.730155E-3,1.9045394E-2,-5.875824E-3,-3.0397854E-3,-1.7714461E-2,-3.188827E-2,-1.1189597E-2],"split_indices":[5,4,5,10,12,8,8,16,0,10,9,0,12,0,4,0,0,0,0,0,0,0,0,0,0],"split_type":[0,0,0,0,0,0,0,0,0,0,0,0,0,0,0,0,0,0,0,0,0,0,0,0,0],"sum_hessian":[3.9040213E2,1.2308168E2,2.6732043E2,5.9593376E1,6.3488308E1,1.6449205E2,1.02828384E2,5.7188297E1,2.4050775E0,1.320361E1,5.0284695E1,2.2789598E0,1.622131E2,2.9551027E0,9.987328E1,3.4168901E0,5.3771408E1,9.967711E0,3.2358985E0,3.0512087E1,1.977261E1,1.0725441E2,5.4958687E1,9.736664E1,2.506649E0],"tree_param":{"num_deleted":"0","num_feature":"18","num_nodes":"25","size_leaf_vector":"1"}},{"base_weights":[1.8732737E-1,-1.5880209E-1,7.247773E-1,-4.7883043E-1,6.873406E-2,8.685931E-1,5.902296E-1,-6.190446E-1,-3.6522856E-1,5.463572E-1,3.4679387E-2,5.1478004E-1,4.6027917E-2,6.187176E-1,-1.4287581E-2,-1.256561E-2,-3.302747E-2,-1.2510649E-2,-3.0773668E-2,4.517684E-2,1.017974E-3,-3.3517478E-3,1.1174261E-2,8.473649E-3,3.8963314E-2,1.7235102E-2,3.759041E-2],"categories":[],"categories_nodes":[],"categories_segments":[],"categories_sizes":[],"default_left":[0,0,0,0,0,0,0,0,0,0,0,0,0,0,0,0,0,0,0,0,0,0,0,0,0,0,0],"id":21,"left_children":[1,3,5,7,9,11,13,15,17,19,21,23,-1,25,-1,-1,-1,-1,-1,-1,-1,-1,-1,-1,-1,-1,-1],"loss_changes":[7.58124E1,1.8115976E1,2.5752716E0,1.4196205E0,2.3560176E0,9.0532684E-1,2.3121548E0,5.1781845E-1,1.5589471E0,1.7946403E0,2.652956E0,9.524863E-1,0E0,2.7746696E0,0E0,0E0,0E0,0E0,0E0,0E0,0E0,0E0,0E0,0E0,0E0,0E0,0E0],"parents":[2147483647,0,0,1,1,2,2,3,3,4,4,5,5,6,6,7,7,8,8,9,9,10,10,11,11,13,13],"right_children":[2,4,6,8,10,12,14,16,18,20,22,24,-1,26,-1,-1,-1,-1,-1,-1,-1,-1,-1,-1,-1,-1,-1],"split_conditions":[4.407E-1,-2.128E-1,5.5812347E-1,9.54E-2,1.481338E3,-2.61E0,1.537869E3,1.490778E3,-3.387E-1,2.635E-1,1.501898E3,1.9E-2,4.6027917E-2,1.49362E3,-1.4287581E-2,-1.256561E-2,-3.302747E-2,-1.2510649E-2,-3.0773668E-2,4.517684E-2,1.017974E-3,-3.3517478E-3,1.1174261E-2,8.473649E-3,3.8963314E-2,1.7235102E-2,3.759041E-2],"split_indices":[3,3,4,0,9,11,9,9,3,2,8,2,0,9,0,0,0,0,0,0,0,0,0,0,0,0,0],"split_type":[0,0,0,0,0,0,0,0,0,0,0,0,0,0,0,0,0,0,0,0,0,0,0,0,0,0,0],"sum_hessian":[4.0591516E2,2.473323E2,1.5858286E2,1.0231808E2,1.4501424E2,7.401444E1,8.456842E1,4.38037E1,5.8514378E1,8.650188E0,1.3636404E2,1.0875213E1,6.3139225E1,8.218921E1,2.3792129E0,5.1580873E0,3.8645615E1,4.1459126E1,1.705525E1,4.7243514E0,3.9258366E0,8.904062E1,4.732342E1,5.428566E0,5.446647E0,2.8042812E1,5.4146397E1],"tree_param":{"num_deleted":"0","num_feature":"18","num_nodes":"27","size_leaf_vector":"1"}},{"base_weights":[-1.7451231E-1,-3.540319E-1,-2.8342793E-2,-1.7877777E-1,-4.25931E-1,-5.652265E-2,6.7720884E-1,-5.9971505E-1,7.9590224E-2,-4.6188876E-2,-4.5812148E-1,6.3401383E-1,-7.5881906E-2,4.494656E-2,4.017271E-3,-6.6011273E-3,-3.2337517E-2,-2.9454563E-2,1.07043525E-2,-2.7594924E-2,1.8063148E-2,-2.7920127E-2,-1.7227601E-2,4.743706E-3,4.852745E-2,-2.4100734E-2,-2.141287E-3],"categories":[],"categories_nodes":[],"categories_segments":[],"categories_sizes":[],"default_left":[0,0,0,0,0,0,0,0,0,0,0,0,0,0,0,0,0,0,0,0,0,0,0,0,0,0,0],"id":22,"left_children":[1,3,5,7,9,11,13,15,17,19,21,23,25,-1,-1,-1,-1,-1,-1,-1,-1,-1,-1,-1,-1,-1,-1],"loss_changes":[9.749756E0,2.0261326E0,4.136019E0,5.513678E0,1.4161587E0,2.709828E0,9.854908E-1,3.3769274E-1,3.0063856E0,2.3218217E0,1.0407963E0,9.1248727E-1,2.5915017E0,0E0,0E0,0E0,0E0,0E0,0E0,0E0,0E0,0E0,0E0,0E0,0E0,0E0,0E0],"parents":[2147483647,0,0,1,1,2,2,3,3,4,4,5,5,6,6,7,7,8,8,9,9,10,10,11,11,12,12],"right_children":[2,4,6,8,10,12,14,16,18,20,22,24,26,-1,-1,-1,-1,-1,-1,-1,-1,-1,-1,-1,-1,-1,-1],"split_conditions":[2.182E-1,1.49362E3,1.538625E3,9.71E-2,6.4E1,-5.477E-1,1.542626E3,1.481355E3,1.469557E3,5.2131456E-1,1.121E-1,-6.049E-1,-3.0392E1,4.494656E-2,4.017271E-3,-6.6011273E-3,-3.2337517E-2,-2.9454563E-2,1.07043525E-2,-2.7594924E-2,1.8063148E-2,-2.7920127E-2,-1.7227601E-2,4.743706E-3,4.852745E-2,-2.4100734E-2,-2.141287E-3],"split_indices":[1,9,10,1,15,3,8,10,9,4,14,3,11,0,0,0,0,0,0,0,0,0,0,0,0,0,0],"split_type":[0,0,0,0,0,0,0,0,0,0,0,0,0,0,0,0,0,0,0,0,0,0,0,0,0,0,0],"sum_hessian":[3.7093906E2,1.6583952E2,2.0509953E2,4.9258472E1,1.1658105E2,1.98107E2,6.992539E0,1.8232546E1,3.1025925E1,9.300498E0,1.0728055E2,4.5366526E0,1.9357034E2,4.729527E0,2.263012E0,2.0139403E0,1.6218605E1,4.6294746E0,2.639645E1,3.9916914E0,5.308807E0,5.4893307E1,5.238724E1,2.2361636E0,2.3004892E0,1.3547097E1,1.8002325E2],"tree_param":{"num_deleted":"0","num_feature":"18","num_nodes":"27","size_leaf_vector":"1"}},{"base_weights":[-2.644612E-2,-3.317412E-1,4.677881E-1,-1.4517307E-1,-6.3561803E-1,8.2904285E-1,2.6785693E-1,1.6585613E-2,-3.1721067E-1,-7.948479E-3,-3.2254007E-2,-2.080974E-3,8.727115E-1,-2.8256002E-1,3.409244E-1,-6.883702E-3,9.962132E-3,-2.0744858E-2,-6.6553466E-3,4.5018356E-2,1.6350618E-2,-2.6089296E-2,4.095322E-3,1.3643347E-2,4.3014355E-2],"categories":[],"categories_nodes":[],"categories_segments":[],"categories_sizes":[],"default_left":[0,0,0,0,0,0,0,0,0,0,0,0,0,0,0,0,0,0,0,0,0,0,0,0,0],"id":23,"left_children":[1,3,5,7,9,11,13,15,17,-1,-1,-1,19,21,23,-1,-1,-1,-1,-1,-1,-1,-1,-1,-1],"loss_changes":[5.838458E1,1.3465454E1,1.0451023E1,4.1646767E0,3.0639267E-1,2.0198326E0,3.9815154E0,2.2247677E0,1.2483087E0,0E0,0E0,0E0,4.5597076E-1,1.0775106E0,2.7957287E0,0E0,0E0,0E0,0E0,0E0,0E0,0E0,0E0,0E0,0E0],"parents":[2147483647,0,0,1,1,2,2,3,3,4,4,5,5,6,6,7,7,8,8,12,12,13,13,14,14],"right_children":[2,4,6,8,10,12,14,16,18,-1,-1,-1,20,22,24,-1,-1,-1,-1,-1,-1,-1,-1,-1,-1],"split_conditions":[3.855E-1,1.9943557E0,7.532083E-1,1.499832E3,1.482463E3,4.0983606E-2,8.5E1,-9.09E-2,2.526E-1,-7.948479E-3,-3.2254007E-2,-2.080974E-3,1.508234E3,2.702E-1,3.145E-1,-6.883702E-3,9.962132E-3,-2.0744858E-2,-6.6553466E-3,4.5018356E-2,1.6350618E-2,-2.6089296E-2,4.095322E-3,1.3643347E-2,4.3014355E-2],"split_indices":[2,5,4,8,8,16,15,14,2,0,0,0,8,1,1,0,0,0,0,0,0,0,0,0,0],"split_type":[0,0,0,0,0,0,0,0,0,0,0,0,0,0,0,0,0,0,0,0,0,0,0,0,0],"sum_hessian":[3.8491318E2,2.381398E2,1.4677338E2,1.4846562E2,8.967419E1,5.1169243E1,9.560413E1,7.698444E1,7.148117E1,2.0919762E0,8.7582214E1,2.4460945E0,4.872315E1,1.086805E1,8.4736084E1,4.1870094E1,3.511435E1,4.588221E1,2.559896E1,4.5754417E1,2.9687297E0,6.3007593E0,4.5672903E0,7.6267365E1,8.468718E0],"tree_param":{"num_deleted":"0","num_feature":"18","num_nodes":"25","size_leaf_vector":"1"}},{"base_weights":[1.7761043E-1,-2.5932404E-1,5.3259933E-1,9.2960365E-2,-3.8516155E-1,7.387993E-1,3.2224166E-1,-8.113154E-2,5.331697E-1,-6.282547E-1,-3.0507734E-1,7.7762747E-1,3.521114E-1,9.451624E-1,2.53531E-1,3.193682E-2,-8.579567E-3,4.9014237E-2,7.786745E-4,-1.2385867E-2,-3.2833915E-2,-2.5367389E-2,-1.0049025E-2,3.5909742E-2,4.992559E-2,-1.6669905E-2,2.8308315E-2,5.3994376E-2,1.656099E-2,-2.727426E-2,1.6044345E-2],"categories":[],"categories_nodes":[],"categories_segments":[],"categories_sizes":[],"default_left":[0,0,0,0,0,0,0,0,0,0,0,0,0,0,0,0,0,0,0,0,0,0,0,0,0,0,0,0,0,0,0],"id":24,"left_children":[1,3,5,7,9,11,13,15,17,19,21,23,25,27,29,-1,-1,-1,-1,-1,-1,-1,-1,-1,-1,-1,-1,-1,-1,-1,-1],"loss_changes":[6.1627087E1,7.9433537E0,9.263512E0,3.702881E0,2.3707771E0,1.375454E0,4.4773645E0,2.394478E0,3.1471858E0,1.799097E-1,2.023633E0,5.824585E-1,1.9277203E0,5.1759434E-1,5.5905085E0,0E0,0E0,0E0,0E0,0E0,0E0,0E0,0E0,0E0,0E0,0E0,0E0,0E0,0E0,0E0,0E0],"parents":[2147483647,0,0,1,1,2,2,3,3,4,4,5,5,6,6,7,7,8,8,9,9,10,10,11,11,12,12,13,13,14,14],"right_children":[2,4,6,8,10,12,14,16,18,20,22,24,26,28,30,-1,-1,-1,-1,-1,-1,-1,-1,-1,-1,-1,-1,-1,-1,-1,-1],"split_conditions":[1.469E-1,4.149E-1,8.057053E-1,1.50206E3,9.55E-2,9.3442625E-1,4.503E-1,1.48701E3,1.0918474E0,4.0983606E-2,1.123E-1,2.339E-1,4.92E2,6.17E2,2.205E-1,3.193682E-2,-8.579567E-3,4.9014237E-2,7.786745E-4,-1.2385867E-2,-3.2833915E-2,-2.5367389E-2,-1.0049025E-2,3.5909742E-2,4.992559E-2,-1.6669905E-2,2.8308315E-2,5.3994376E-2,1.656099E-2,-2.727426E-2,1.6044345E-2],"split_indices":[3,6,4,10,13,16,6,10,4,16,0,13,15,15,3,0,0,0,0,0,0,0,0,0,0,0,0,0,0,0,0],"split_type":[0,0,0,0,0,0,0,0,0,0,0,0,0,0,0,0,0,0,0,0,0,0,0,0,0,0,0,0,0,0,0],"sum_hessian":[3.9542963E2,1.7737675E2,2.1805287E2,4.6752777E1,1.3062398E2,1.0884606E2,1.0920681E2,3.408765E1,1.2665126E1,3.0672777E1,9.99512E1,9.799516E1,1.0850903E1,9.582009E0,9.96248E1,3.1287162E0,3.0958937E1,6.3156023E0,6.3495235E0,2.8070452E0,2.7865732E1,3.264499E1,6.730621E1,8.056835E1,1.7426807E1,2.449347E0,8.401556E0,7.235331E0,2.3466778E0,7.1934276E0,9.243137E1],"tree_param":{"num_deleted":"0","num_feature":"18","num_nodes":"31","size_leaf_vector":"1"}},{"base_weights":[-2.0417345E-1,-3.8019115E-1,-6.0829554E-2,-1.8438627E-1,-4.5733458E-1,-8.639304E-2,5.168844E-1,-5.922519E-1,7.6255575E-2,-4.7019142E-1,9.704899E-3,-5.721253E-2,-5.8000386E-1,7.9580563E-1,-1.08819585E-2,-8.7834895E-3,-3.1964418E-2,1.35404095E-2,-2.5118887E-2,-3.0246362E-2,-1.913909E-2,-4.399694E-3,2.0344637E-2,-8.67994E-3,-3.2897066E-2,4.8241287E-2,1.6820718E-2],"categories":[],"categories_nodes":[],"categories_segments":[],"categories_sizes":[],"default_left":[0,0,0,0,0,0,0,0,0,0,0,0,0,0,0,0,0,0,0,0,0,0,0,0,0,0,0],"id":25,"left_children":[1,3,5,7,9,11,13,15,17,19,-1,21,23,25,-1,-1,-1,-1,-1,-1,-1,-1,-1,-1,-1,-1,-1],"loss_changes":[9.418358E0,2.449812E0,3.1081061E0,5.2639503E0,1.0935936E0,2.8403773E0,2.00335E0,2.6497555E-1,3.6075656E0,1.1540585E0,0E0,2.7425888E0,2.3502254E-1,1.948142E-1,0E0,0E0,0E0,0E0,0E0,0E0,0E0,0E0,0E0,0E0,0E0,0E0,0E0],"parents":[2147483647,0,0,1,1,2,2,3,3,4,4,5,5,6,6,7,7,8,8,9,9,11,11,12,12,13,13],"right_children":[2,4,6,8,10,12,14,16,18,20,-1,22,24,26,-1,-1,-1,-1,-1,-1,-1,-1,-1,-1,-1,-1,-1],"split_conditions":[2.182E-1,1.49362E3,1.537935E3,9.71E-2,9.972678E-1,8.84E2,5.34E-1,1.4480874E-1,3.755E1,1.500434E3,9.704899E-3,8.55E2,1.459721E3,2.839E-1,-1.08819585E-2,-8.7834895E-3,-3.1964418E-2,1.35404095E-2,-2.5118887E-2,-3.0246362E-2,-1.913909E-2,-4.399694E-3,2.0344637E-2,-8.67994E-3,-3.2897066E-2,4.8241287E-2,1.6820718E-2],"split_indices":[1,9,10,1,16,15,11,16,11,9,0,15,8,1,0,0,0,0,0,0,0,0,0,0,0,0,0],"split_type":[0,0,0,0,0,0,0,0,0,0,0,0,0,0,0,0,0,0,0,0,0,0,0,0,0,0,0],"sum_hessian":[3.7320074E2,1.6676768E2,2.0643304E2,4.809174E1,1.1867595E2,1.985E2,7.933048E0,1.8254261E1,2.9837479E1,1.1665189E2,2.0240536E0,1.88474E2,1.0026006E1,5.6892376E0,2.2438104E0,2.3323505E0,1.5921909E1,2.272776E1,7.109719E0,4.357046E1,7.308143E1,1.7751114E2,1.0962856E1,2.1326602E0,7.8933454E0,3.3547323E0,2.3345053E0],"tree_param":{"num_deleted":"0","num_feature":"18","num_nodes":"27","size_leaf_vector":"1"}},{"base_weights":[-2.7937092E-2,5.012731E-1,-3.1484306E-1,7.318562E-1,2.633171E-1,-5.895797E-1,-1.14144236E-1,8.1336486E-1,4.476722E-1,3.4857893E-1,-3.41584E-1,-7.51777E-3,-6.0488045E-1,-4.972664E-4,-2.5233763E-1,1.2390729E-2,4.183832E-2,3.675249E-2,-9.124797E-3,1.0671412E-2,3.5450332E-2,-3.2184806E-2,1.18203815E-2,-1.8024437E-2,-3.1835195E-2,4.0098578E-2,-2.6923988E-3,3.284896E-2,-1.5453537E-2],"categories":[],"categories_nodes":[],"categories_segments":[],"categories_sizes":[],"default_left":[0,0,0,0,0,0,0,0,0,0,0,0,0,0,0,0,0,0,0,0,0,0,0,0,0,0,0,0,0],"id":26,"left_children":[1,3,5,7,9,11,13,15,17,19,21,-1,23,25,27,-1,-1,-1,-1,-1,-1,-1,-1,-1,-1,-1,-1,-1,-1],"loss_changes":[5.715421E1,7.069336E0,1.3388569E1,1.179863E0,3.558982E0,5.9975433E-1,2.2340786E0,4.6198654E-1,3.2274506E0,2.720378E0,1.6791708E0,0E0,5.403137E-1,3.4280927E0,3.5147352E0,0E0,0E0,0E0,0E0,0E0,0E0,0E0,0E0,0E0,0E0,0E0,0E0,0E0,0E0],"parents":[2147483647,0,0,1,1,2,2,3,3,4,4,5,5,6,6,7,7,8,8,9,9,10,10,12,12,13,13,14,14],"right_children":[2,4,6,8,10,12,14,16,18,20,22,-1,24,26,28,-1,-1,-1,-1,-1,-1,-1,-1,-1,-1,-1,-1,-1,-1],"split_conditions":[-1.523E-1,2.163E-1,1.26E-1,-8.78E-1,1.514014E3,1.482463E3,5.34E-1,1.490209E3,1.181E-1,7.95082E-1,1.521123E3,-7.51777E-3,1.8796519E0,2.072E-1,-3.0795E-1,1.2390729E-2,4.183832E-2,3.675249E-2,-9.124797E-3,1.0671412E-2,3.5450332E-2,-3.2184806E-2,1.18203815E-2,-1.8024437E-2,-3.1835195E-2,4.0098578E-2,-2.6923988E-3,3.284896E-2,-1.5453537E-2],"split_indices":[3,1,2,11,8,8,11,9,0,16,8,0,5,1,14,0,0,0,0,0,0,0,0,0,0,0,0,0,0],"split_type":[0,0,0,0,0,0,0,0,0,0,0,0,0,0,0,0,0,0,0,0,0,0,0,0,0,0,0,0,0],"sum_hessian":[3.7438727E2,1.3135333E2,2.4303394E2,6.5656006E1,6.569733E1,1.01775635E2,1.412583E2,4.957499E1,1.608102E1,5.795256E1,7.7447696E0,3.79055E0,9.7985085E1,7.806396E1,6.3194347E1,2.4303303E0,4.7144657E1,1.09300995E1,5.150921E0,4.330609E1,1.464647E1,5.011577E0,2.7331924E0,1.2709411E1,8.527568E1,3.991667E0,7.407229E1,3.0898678E0,6.0104477E1],"tree_param":{"num_deleted":"0","num_feature":"18","num_nodes":"29","size_leaf_vector":"1"}},{"base_weights":[1.7583165E-1,-2.3883569E-1,5.0674415E-1,1.1456259E-1,-3.6094385E-1,6.5761477E-1,2.6869175E-1,2.6110694E-1,-1.2184118E-1,-6.072798E-1,-2.549942E-1,5.955216E-1,4.755991E-2,7.8067255E-1,1.8858191E-1,-2.1891952E-3,2.1019658E-2,1.933786E-2,-1.2579175E-2,-1.4204221E-2,-3.1396706E-2,-1.4498661E-2,2.2393908E-2,5.9873094E-3,3.1003704E-2,9.150324E-3,5.2414566E-2,3.2710135E-2,4.491991E-3],"categories":[],"categories_nodes":[],"categories_segments":[],"categories_sizes":[],"default_left":[0,0,0,0,0,0,0,0,0,0,0,0,0,0,0,0,0,0,0,0,0,0,0,0,0,0,0,0,0],"id":27,"left_children":[1,3,5,7,9,11,13,15,17,19,21,23,-1,25,27,-1,-1,-1,-1,-1,-1,-1,-1,-1,-1,-1,-1,-1,-1],"loss_changes":[5.4956413E1,7.7244596E0,7.8171616E0,1.6420541E0,3.304964E0,1.9044456E0,3.4634027E0,1.4273496E0,1.3159825E0,8.2920074E-2,2.4512453E0,1.2639198E0,0E0,1.662302E0,3.5016432E0,0E0,0E0,0E0,0E0,0E0,0E0,0E0,0E0,0E0,0E0,0E0,0E0,0E0,0E0],"parents":[2147483647,0,0,1,1,2,2,3,3,4,4,5,5,6,6,7,7,8,8,9,9,10,10,11,11,13,13,14,14],"right_children":[2,4,6,8,10,12,14,16,18,20,22,24,-1,26,28,-1,-1,-1,-1,-1,-1,-1,-1,-1,-1,-1,-1,-1,-1],"split_conditions":[1.469E-1,4.149E-1,1.26E-1,-2.0415E-1,1.12E-1,9.435E-1,4.503E-1,1.496442E3,2.473E-1,4.0983606E-2,1.515312E3,9.84E-2,4.755991E-2,1.491331E3,1.9125684E-1,-2.1891952E-3,2.1019658E-2,1.933786E-2,-1.2579175E-2,-1.4204221E-2,-3.1396706E-2,-1.4498661E-2,2.2393908E-2,5.9873094E-3,3.1003704E-2,9.150324E-3,5.2414566E-2,3.2710135E-2,4.491991E-3],"split_indices":[3,6,2,14,13,6,0,9,1,16,9,13,0,9,16,0,0,0,0,0,0,0,0,0,0,0,0,0,0],"split_type":[0,0,0,0,0,0,0,0,0,0,0,0,0,0,0,0,0,0,0,0,0,0,0,0,0,0,0,0,0],"sum_hessian":[3.9862057E2,1.7704424E2,2.2157634E2,4.5480118E1,1.3156412E2,1.3454391E2,8.7032425E1,2.8011545E1,1.7468573E1,3.8144733E1,9.341938E1,1.1355533E2,2.098858E1,1.059228E1,7.644015E1,9.861228E0,1.8150318E1,3.1478462E0,1.4320727E1,3.1775262E0,3.496721E1,8.9550285E1,3.8690953E0,5.860875E0,1.0769445E2,3.7968051E0,6.7954755E0,1.23899E1,6.405025E1],"tree_param":{"num_deleted":"0","num_feature":"18","num_nodes":"29","size_leaf_vector":"1"}},{"base_weights":[-1.7930046E-1,-1.2876855E-1,-4.6466312E-1,-7.183149E-2,-4.5022026E-1,9.8730475E-3,-4.9391168E-1,-4.394792E-2,-4.0170297E-1,4.3447465E-3,-4.981837E-1,-7.456754E-2,-5.3719944E-1,-3.2645098E-3,4.0503405E-2,-5.838658E-3,-3.265755E-2,-1.4363897E-2,-3.0730411E-2,2.0491503E-2,-2.4726626E-2,-2.8381065E-2,-9.803462E-3],"categories":[],"categories_nodes":[],"categories_segments":[],"categories_sizes":[],"default_left":[0,0,0,0,0,0,0,0,0,0,0,0,0,0,0,0,0,0,0,0,0,0,0],"id":28,"left_children":[1,3,5,7,9,-1,11,13,15,-1,17,19,21,-1,-1,-1,-1,-1,-1,-1,-1,-1,-1],"loss_changes":[5.1981993E0,5.6627493E0,1.1524525E0,2.424712E0,1.2446117E0,0E0,9.1210556E-1,4.5359073E0,1.3976724E0,0E0,8.782425E-1,1.4373301E0,3.8045406E-1,0E0,0E0,0E0,0E0,0E0,0E0,0E0,0E0,0E0,0E0],"parents":[2147483647,0,0,1,1,2,2,3,3,4,4,6,6,7,7,8,8,10,10,11,11,12,12],"right_children":[2,4,6,8,10,-1,12,14,16,-1,18,20,22,-1,-1,-1,-1,-1,-1,-1,-1,-1,-1],"split_conditions":[2.9886982E0,6.98E-1,-2.047E1,8.94E2,6.4E1,9.8730475E-3,2E0,1.537935E3,1.0502E1,4.3447465E-3,-2.1568E1,1.74E-2,9.535519E-1,-3.2645098E-3,4.0503405E-2,-5.838658E-3,-3.265755E-2,-1.4363897E-2,-3.0730411E-2,2.0491503E-2,-2.4726626E-2,-2.8381065E-2,-9.803462E-3],"split_indices":[5,2,11,15,15,0,17,10,11,0,11,2,16,0,0,0,0,0,0,0,0,0,0],"split_type":[0,0,0,0,0,0,0,0,0,0,0,0,0,0,0,0,0,0,0,0,0,0,0],"sum_hessian":[3.6363675E2,3.1016425E2,5.347252E1,2.6453244E2,4.563179E1,2.0188563E0,5.1453663E1,2.4495958E2,1.9572859E1,3.6742516E0,4.195754E1,5.069192E0,4.638447E1,2.3988821E2,5.071374E0,9.862037E0,9.710822E0,1.6156736E1,2.5800802E1,2.3652217E0,2.7039704E0,4.197704E1,4.4074326E0],"tree_param":{"num_deleted":"0","num_feature":"18","num_nodes":"23","size_leaf_vector":"1"}},{"base_weights":[-2.4701688E-2,-3.335551E-1,4.4396934E-1,-5.700959E-1,-1.4302492E-1,7.446754E-1,2.3489831E-1,-1.0372052E-3,-5.862781E-1,3.0843353E-1,-1.8878068E-1,7.6338595E-1,1.0788165E-2,5.9165967E-1,1.1428289E-1,-1.7531682E-2,-3.0839711E-2,2.596941E-2,-2.3880487E-2,2.6289254E-2,-1.0524189E-2,2.0592432E-2,3.940792E-2,4.349205E-2,1.2074081E-2,-1.8384984E-2,9.323533E-3],"categories":[],"categories_nodes":[],"categories_segments":[],"categories_sizes":[],"default_left":[0,0,0,0,0,0,0,0,0,0,0,0,0,0,0,0,0,0,0,0,0,0,0,0,0,0,0],"id":29,"left_children":[1,3,5,7,9,11,13,-1,15,17,19,21,-1,23,25,-1,-1,-1,-1,-1,-1,-1,-1,-1,-1,-1,-1],"loss_changes":[5.4420795E1,1.0129751E1,9.215485E0,8.8344955E-1,2.6780717E0,4.369545E-1,3.7865672E0,0E0,4.8720932E-1,2.2463303E0,1.9061618E0,1.8331909E-1,0E0,1.971129E0,2.440654E0,0E0,0E0,0E0,0E0,0E0,0E0,0E0,0E0,0E0,0E0,0E0,0E0],"parents":[2147483647,0,0,1,1,2,2,3,3,4,4,5,5,6,6,8,8,9,9,10,10,11,11,13,13,14,14],"right_children":[2,4,6,8,10,12,14,-1,16,18,20,22,-1,24,26,-1,-1,-1,-1,-1,-1,-1,-1,-1,-1,-1,-1],"split_conditions":[3.855E-1,1.26E-1,8.1257665E-1,1.482463E3,5.44E-1,1.516737E3,1.5300547E-1,-1.0372052E-3,1.9194149E0,1.533845E3,1.47386E3,6.4E1,1.0788165E-2,1.497151E3,2.5956285E-1,-1.7531682E-2,-3.0839711E-2,2.596941E-2,-2.3880487E-2,2.6289254E-2,-1.0524189E-2,2.0592432E-2,3.940792E-2,4.349205E-2,1.2074081E-2,-1.8384984E-2,9.323533E-3],"split_indices":[2,2,4,8,12,8,16,0,5,10,8,15,0,8,16,0,0,0,0,0,0,0,0,0,0,0,0],"split_type":[0,0,0,0,0,0,0,0,0,0,0,0,0,0,0,0,0,0,0,0,0,0,0,0,0,0,0],"sum_hessian":[3.739393E2,2.2557442E2,1.4836487E2,9.974729E1,1.2582713E2,5.9797104E1,8.8567764E1,2.9194627E0,9.682783E1,1.1050846E1,1.1477628E2,5.732585E1,2.4712524E0,2.1391056E1,6.7176704E1,1.2533643E1,8.429418E1,8.980057E0,2.0707889E0,2.6986313E0,1.1207765E2,4.9340234E0,5.239183E1,1.1093995E1,1.0297061E1,8.217374E0,5.8959335E1],"tree_param":{"num_deleted":"0","num_feature":"18","num_nodes":"27","size_leaf_vector":"1"}},{"base_weights":[1.9601727E-1,-2.4035574E-1,5.281079E-1,-4.2254663E-1,-1.0815664E-2,2.2698504E-1,6.5672356E-1,-5.654633E-1,-3.2538462E-1,5.5513497E-2,-4.6762797E-1,-1.1452472E-1,4.1252053E-1,7.560921E-1,5.1686114E-1,-1.6029326E-2,-3.0350724E-2,-1.8802112E-2,4.8224865E-3,1.7755318E-2,-1.129093E-3,-3.141036E-2,-4.8651146E-3,4.7633585E-2,-1.7860228E-2,1.0631953E-4,2.7015815E-2,1.2936181E-2,3.851622E-2,3.734438E-2,9.175152E-3],"categories":[],"categories_nodes":[],"categories_segments":[],"categories_sizes":[],"default_left":[0,0,0,0,0,0,0,0,0,0,0,0,0,0,0,0,0,0,0,0,0,0,0,0,0,0,0,0,0,0,0],"id":30,"left_children":[1,3,5,7,9,11,13,15,17,19,21,23,25,27,29,-1,-1,-1,-1,-1,-1,-1,-1,-1,-1,-1,-1,-1,-1,-1,-1],"loss_changes":[5.7217026E1,7.143919E0,8.52705E0,1.1389275E0,2.3488967E0,4.392297E0,1.7834702E0,1.8391705E-1,1.2985096E0,1.5952169E0,5.2321863E-1,6.795053E0,2.3406863E0,4.3284225E-1,5.088213E0,0E0,0E0,0E0,0E0,0E0,0E0,0E0,0E0,0E0,0E0,0E0,0E0,0E0,0E0,0E0,0E0],"parents":[2147483647,0,0,1,1,2,2,3,3,4,4,5,5,6,6,7,7,8,8,9,9,10,10,11,11,12,12,13,13,14,14],"right_children":[2,4,6,8,10,12,14,16,18,20,22,24,26,28,30,-1,-1,-1,-1,-1,-1,-1,-1,-1,-1,-1,-1,-1,-1,-1,-1],"split_conditions":[1.469E-1,-2.128E-1,1.3708507E0,-1.1752E1,4.17E-1,-1.238E0,1.635E-1,3E0,1.512347E3,1.51E2,1.500903E3,4.503E-1,2.312E-1,1E0,4.98E2,-1.6029326E-2,-3.0350724E-2,-1.8802112E-2,4.8224865E-3,1.7755318E-2,-1.129093E-3,-3.141036E-2,-4.8651146E-3,4.7633585E-2,-1.7860228E-2,1.0631953E-4,2.7015815E-2,1.2936181E-2,3.851622E-2,3.734438E-2,9.175152E-3],"split_indices":[3,3,5,11,0,11,1,17,8,15,8,0,1,17,15,0,0,0,0,0,0,0,0,0,0,0,0,0,0,0,0],"split_type":[0,0,0,0,0,0,0,0,0,0,0,0,0,0,0,0,0,0,0,0,0,0,0,0,0,0,0,0,0,0,0],"sum_hessian":[3.9295468E2,1.6993427E2,2.230204E2,9.426961E1,7.566465E1,6.757486E1,1.5544554E2,3.6201145E1,5.8068462E1,6.683822E1,8.826435E0,2.392308E1,4.365178E1,8.8302795E1,6.714275E1,6.5159082E0,2.9685238E1,5.1939648E1,6.1288157E0,1.3086835E1,5.375138E1,5.671024E0,3.1554108E0,3.8901825E0,2.00329E1,1.0606728E1,3.304505E1,2.9900317E0,8.531277E1,3.899477E1,2.8147982E1],"tree_param":{"num_deleted":"0","num_feature":"18","num_nodes":"31","size_leaf_vector":"1"}},{"base_weights":[-1.4872591E-1,-3.3716735E-1,1.6817593E-3,-1.30296E-1,-3.816996E-1,-8.605227E-2,1.6698243E-1,-3.272432E-1,4.7500455E-1,-1.6859502E-2,-4.0743417E-1,3.5354018E-1,-1.5058775E-1,5.246095E-1,7.042281E-2,8.958285E-3,-2.645016E-2,7.868546E-3,4.0205725E-2,-2.5768885E-2,1.5765846E-2,-7.433907E-3,-2.2855368E-2,-1.5693227E-2,3.3024766E-2,-1.1673585E-2,4.962243E-3,4.6720453E-2,1.056538E-2,-3.194628E-2,8.584793E-3],"categories":[],"categories_nodes":[],"categories_segments":[],"categories_sizes":[],"default_left":[0,0,0,0,0,0,0,0,0,0,0,0,0,0,0,0,0,0,0,0,0,0,0,0,0,0,0,0,0,0,0],"id":31,"left_children":[1,3,5,7,9,11,13,15,17,19,21,23,25,27,29,-1,-1,-1,-1,-1,-1,-1,-1,-1,-1,-1,-1,-1,-1,-1,-1],"loss_changes":[1.0604045E1,1.480133E0,3.0460727E0,3.8431716E0,1.271265E0,3.946208E0,2.477783E0,2.5399942E0,7.099626E-1,1.8205706E0,1.5659218E0,3.8672705E0,2.5154636E0,1.7703891E0,4.311892E0,0E0,0E0,0E0,0E0,0E0,0E0,0E0,0E0,0E0,0E0,0E0,0E0,0E0,0E0,0E0,0E0],"parents":[2147483647,0,0,1,1,2,2,3,3,4,4,5,5,6,6,7,7,8,8,9,9,10,10,11,11,12,12,13,13,14,14],"right_children":[2,4,6,8,10,12,14,16,18,20,22,24,26,28,30,-1,-1,-1,-1,-1,-1,-1,-1,-1,-1,-1,-1,-1,-1,-1,-1],"split_conditions":[2.182E-1,1.493515E3,5.83E2,8.057053E-1,6.4E1,9.836066E-2,-8.4963703E-1,6.17E2,-2.416E0,5.2131456E-1,-2.047E1,1.66E2,3.1E-1,5.482E-1,2.41E-1,8.958285E-3,-2.645016E-2,7.868546E-3,4.0205725E-2,-2.5768885E-2,1.5765846E-2,-7.433907E-3,-2.2855368E-2,-1.5693227E-2,3.3024766E-2,-1.1673585E-2,4.962243E-3,4.6720453E-2,1.056538E-2,-3.194628E-2,8.584793E-3],"split_indices":[1,10,15,4,15,16,5,15,11,4,11,15,1,2,0,0,0,0,0,0,0,0,0,0,0,0,0,0,0,0,0],"split_type":[0,0,0,0,0,0,0,0,0,0,0,0,0,0,0,0,0,0,0,0,0,0,0,0,0,0,0,0,0,0,0],"sum_hessian":[3.7311224E2,1.6506517E2,2.0804707E2,2.993415E1,1.3513103E2,1.3622467E2,7.18224E1,2.2932087E1,7.0020633E0,9.012702E0,1.26118324E2,1.6865402E1,1.1935927E2,1.4326913E1,5.7495487E1,6.5653443E0,1.6366743E1,4.315357E0,2.6867063E0,3.3834405E0,5.6292615E0,2.0954716E1,1.05163605E2,5.3060603E0,1.1559342E1,8.967453E1,2.9684742E1,5.3485465E0,8.978366E0,6.519801E0,5.0975685E1],"tree_param":{"num_deleted":"0","num_feature":"18","num_nodes":"31","size_leaf_vector":"1"}},{"base_weights":[-3.45716E-2,-3.250038E-1,4.246641E-1,-1.4586672E-1,-6.0143495E-1,7.279821E-1,2.1922766E-1,-2.5731623E-3,-2.6034755E-1,-4.8287547E-1,-3.2035086E-2,1.2893366E-2,7.576126E-1,1.6454108E-1,7.3499966E-1,2.4320396E-2,-3.1520221E-3,-1.4917398E-2,1.2652858E-2,-2.7172774E-2,-3.7941136E-3,3.8949203E-2,1.0906533E-2,1.5369276E-2,-1.2323804E-2,4.9692303E-2,9.0497425E-3],"categories":[],"categories_nodes":[],"categories_segments":[],"categories_sizes":[],"default_left":[0,0,0,0,0,0,0,0,0,0,0,0,0,0,0,0,0,0,0,0,0,0,0,0,0,0,0],"id":32,"left_children":[1,3,5,7,9,11,13,15,17,19,-1,-1,21,23,25,-1,-1,-1,-1,-1,-1,-1,-1,-1,-1,-1,-1],"loss_changes":[5.0103798E1,1.1304331E1,8.911076E0,2.3109195E0,1.1026764E-1,6.1742973E-1,2.3673124E0,1.9108882E0,1.6035252E0,6.117997E-1,0E0,0E0,4.5698357E-1,4.834282E0,9.914961E-1,0E0,0E0,0E0,0E0,0E0,0E0,0E0,0E0,0E0,0E0,0E0,0E0],"parents":[2147483647,0,0,1,1,2,2,3,3,4,4,5,5,6,6,7,7,8,8,9,9,12,12,13,13,14,14],"right_children":[2,4,6,8,10,12,14,16,18,20,-1,-1,22,24,26,-1,-1,-1,-1,-1,-1,-1,-1,-1,-1,-1,-1],"split_conditions":[3.855E-1,1.9943557E0,-5.909E-1,-8.78E-1,1.88E0,4.0983606E-2,3.286E-1,2.089E-1,9.05E2,8.9E-1,-3.2035086E-2,1.2893366E-2,2.024E-1,2.868E-1,3.467E-1,2.4320396E-2,-3.1520221E-3,-1.4917398E-2,1.2652858E-2,-2.7172774E-2,-3.7941136E-3,3.8949203E-2,1.0906533E-2,1.5369276E-2,-1.2323804E-2,4.9692303E-2,9.0497425E-3],"split_indices":[2,5,3,11,11,16,1,1,15,11,0,0,1,1,1,0,0,0,0,0,0,0,0,0,0,0,0],"split_type":[0,0,0,0,0,0,0,0,0,0,0,0,0,0,0,0,0,0,0,0,0,0,0,0,0,0,0],"sum_hessian":[3.7362112E2,2.2905396E2,1.4456718E2,1.3991307E2,8.914089E1,5.734952E1,8.721765E1,6.259124E1,7.732183E1,2.548636E1,6.365453E1,3.9756107E0,5.3373913E1,8.004917E1,7.1684804E0,6.1130066E0,5.6478233E1,7.238317E1,4.938663E0,2.189243E1,3.5939312E0,5.0913055E1,2.4608557E0,5.959109E1,2.0458084E1,4.3446226E0,2.823858E0],"tree_param":{"num_deleted":"0","num_feature":"18","num_nodes":"27","size_leaf_vector":"1"}},{"base_weights":[1.5739053E-1,-2.465293E-1,4.5566607E-1,-3.997433E-1,-3.6221813E-2,6.444586E-1,2.6074523E-1,-5.583382E-1,-2.9115283E-1,-4.9151155E-1,8.749645E-2,6.960614E-1,2.7212733E-1,2.8546476E-1,-2.1751082E-2,2.3957703E-3,-3.0211726E-2,-9.109434E-3,-2.7030123E-2,-3.139217E-2,-1.4022039E-2,-2.4691722E-4,2.462154E-2,1.1520587E-2,3.586607E-2,-1.4897237E-2,2.2771688E-2,8.904614E-3,2.3477726E-2],"categories":[],"categories_nodes":[],"categories_segments":[],"categories_sizes":[],"default_left":[0,0,0,0,0,0,0,0,0,0,0,0,0,0,0,0,0,0,0,0,0,0,0,0,0,0,0,0,0],"id":33,"left_children":[1,3,5,7,9,11,13,15,17,19,21,23,25,27,-1,-1,-1,-1,-1,-1,-1,-1,-1,-1,-1,-1,-1,-1,-1],"loss_changes":[4.876318E1,5.5334425E0,8.392746E0,1.5511913E0,4.1925344E0,2.068039E0,2.1216478E0,1.1239557E0,1.563808E0,2.8122687E-1,2.2024117E0,8.4994507E-1,1.8017833E0,2.1451569E0,0E0,0E0,0E0,0E0,0E0,0E0,0E0,0E0,0E0,0E0,0E0,0E0,0E0,0E0,0E0],"parents":[2147483647,0,0,1,1,2,2,3,3,4,4,5,5,6,6,7,7,8,8,9,9,10,10,11,11,12,12,13,13],"right_children":[2,4,6,8,10,12,14,16,18,20,22,24,26,28,-1,-1,-1,-1,-1,-1,-1,-1,-1,-1,-1,-1,-1,-1,-1],"split_conditions":[1.469E-1,-2.128E-1,8.057053E-1,-2.0681317E0,1.7213115E-1,9.2076504E-1,5.68E-1,4.0983606E-2,-3.387E-1,1.0838007E0,1.508823E3,-2.047E1,4.88E2,4.407E-1,-2.1751082E-2,2.3957703E-3,-3.0211726E-2,-9.109434E-3,-2.7030123E-2,-3.139217E-2,-1.4022039E-2,-2.4691722E-4,2.462154E-2,1.1520587E-2,3.586607E-2,-1.4897237E-2,2.2771688E-2,8.904614E-3,2.3477726E-2],"split_indices":[3,3,4,5,16,16,3,16,3,4,8,11,15,3,0,0,0,0,0,0,0,0,0,0,0,0,0,0,0],"split_type":[0,0,0,0,0,0,0,0,0,0,0,0,0,0,0,0,0,0,0,0,0,0,0,0,0,0,0,0,0],"sum_hessian":[4.0281046E2,1.7117778E2,2.3163266E2,9.8510086E1,7.26677E1,1.1649451E2,1.1513816E2,3.8353546E1,6.015654E1,1.4891898E1,5.7775803E1,1.0155075E2,1.4943758E1,1.1175731E2,3.3808558E0,2.6961067E0,3.565744E1,4.307218E1,1.7084358E1,7.8481636E0,7.0437346E0,4.784254E1,9.933262E0,4.950908E0,9.659984E1,3.4838383E0,1.1459919E1,7.18294E1,3.992791E1],"tree_param":{"num_deleted":"0","num_feature":"18","num_nodes":"29","size_leaf_vector":"1"}},{"base_weights":[-1.3894574E-1,-3.089243E-1,-8.836813E-3,-1.04605496E-1,-3.6244023E-1,-3.4274682E-2,6.337804E-1,-3.0214557E-2,1.03926785E-1,-1.3037881E-1,-4.1049287E-1,-6.0004517E-2,4.4428053E-1,4.1085914E-2,4.824601E-3,1.884346E-2,-1.9721592E-2,3.404547E-2,-1.8486673E-2,-2.9536832E-2,-1.7566523E-2,-2.164348E-2,-1.3509562E-3,-3.789273E-4,4.571149E-2],"categories":[],"categories_nodes":[],"categories_segments":[],"categories_sizes":[],"default_left":[0,0,0,0,0,0,0,0,0,0,0,0,0,0,0,0,0,0,0,0,0,0,0,0,0],"id":34,"left_children":[1,3,5,7,9,11,13,-1,15,17,19,21,23,-1,-1,-1,-1,-1,-1,-1,-1,-1,-1,-1,-1],"loss_changes":[8.190294E0,1.7180471E0,3.4687738E0,3.6825175E0,1.3610439E0,2.5359454E0,7.36675E-1,0E0,3.598571E0,4.7620554E0,9.0816116E-1,2.3776805E0,2.240181E0,0E0,0E0,0E0,0E0,0E0,0E0,0E0,0E0,0E0,0E0,0E0,0E0],"parents":[2147483647,0,0,1,1,2,2,3,3,4,4,5,5,6,6,8,8,9,9,10,10,11,11,12,12],"right_children":[2,4,6,8,10,12,14,-1,16,18,20,22,24,-1,-1,-1,-1,-1,-1,-1,-1,-1,-1,-1,-1],"split_conditions":[2.182E-1,1.493885E3,1.537935E3,1.261E-1,-2.047E1,6.32E-1,1.542626E3,-3.0214557E-2,8.348E-1,1.516553E3,6.34E-2,-3.0392E1,2.321E-1,4.1085914E-2,4.824601E-3,1.884346E-2,-1.9721592E-2,3.404547E-2,-1.8486673E-2,-2.9536832E-2,-1.7566523E-2,-2.164348E-2,-1.3509562E-3,-3.789273E-4,4.571149E-2],"split_indices":[1,10,10,0,11,2,8,0,0,9,1,11,1,0,0,0,0,0,0,0,0,0,0,0,0],"split_type":[0,0,0,0,0,0,0,0,0,0,0,0,0,0,0,0,0,0,0,0,0,0,0,0,0],"sum_hessian":[3.6946146E2,1.5959155E2,2.0986992E2,3.3737953E1,1.2585359E2,2.0278922E2,7.080705E0,9.375213E0,2.4362741E1,2.2226753E1,1.0362684E2,1.932724E2,9.516805E0,4.8535895E0,2.2271156E0,1.5898944E1,8.4637985E0,4.6433682E0,1.7583385E1,2.3388037E1,8.023881E1,1.4722866E1,1.7854955E2,5.353375E0,4.1634293E0],"tree_param":{"num_deleted":"0","num_feature":"18","num_nodes":"25","size_leaf_vector":"1"}},{"base_weights":[-1.5254556E-2,-3.9929512E-1,3.312139E-1,-5.9218705E-1,-2.2896867E-1,7.2468054E-1,1.8264E-1,-4.568268E-1,-3.169317E-2,-3.2881804E-2,-1.6056196E-1,7.80639E-3,7.596038E-1,8.920311E-2,4.0812904E-1,2.5873673E-3,-2.6181886E-2,4.4400794E-3,-1.478371E-2,3.903594E-2,2.0168593E-2,1.9127963E-2,-2.6964785E-3,2.6417006E-2,-1.2973425E-2],"categories":[],"categories_nodes":[],"categories_segments":[],"categories_sizes":[],"default_left":[0,0,0,0,0,0,0,0,0,0,0,0,0,0,0,0,0,0,0,0,0,0,0,0,0],"id":35,"left_children":[1,3,5,7,9,11,13,15,-1,-1,17,-1,19,21,23,-1,-1,-1,-1,-1,-1,-1,-1,-1,-1],"loss_changes":[5.1765923E1,5.926119E0,1.18255825E1,1.9496346E-1,2.8154068E0,9.879875E-1,3.1201873E0,8.3576727E-1,0E0,0E0,2.9651027E0,0E0,7.807732E-2,4.522156E0,3.6372347E0,0E0,0E0,0E0,0E0,0E0,0E0,0E0,0E0,0E0,0E0],"parents":[2147483647,0,0,1,1,2,2,3,3,4,4,5,5,6,6,7,7,10,10,12,12,13,13,14,14],"right_children":[2,4,6,8,10,12,14,16,-1,-1,18,-1,20,22,24,-1,-1,-1,-1,-1,-1,-1,-1,-1,-1],"split_conditions":[2.819E-1,9.56E-2,7.532083E-1,1.88E0,4.527E-1,4.0983606E-2,7.95082E-1,1.492915E3,-3.169317E-2,-3.2881804E-2,1.497254E3,7.80639E-3,1.508234E3,1.7213115E-1,1.51403E3,2.5873673E-3,-2.6181886E-2,4.4400794E-3,-1.478371E-2,3.903594E-2,2.0168593E-2,1.9127963E-2,-2.6964785E-3,2.6417006E-2,-1.2973425E-2],"split_indices":[2,2,4,11,6,16,16,10,0,0,8,0,8,16,10,0,0,0,0,0,0,0,0,0,0],"split_type":[0,0,0,0,0,0,0,0,0,0,0,0,0,0,0,0,0,0,0,0,0,0,0,0,0],"sum_hessian":[3.8705408E2,1.8350108E2,2.03553E2,8.4888954E1,9.861213E1,5.4731243E1,1.4882175E2,2.279962E1,6.2089333E1,1.238548E1,8.622665E1,3.48389E0,5.1247353E1,1.0620763E2,4.2614124E1,2.6735606E0,2.012606E1,3.0422167E1,5.5804478E1,4.725481E1,3.9925401E0,3.42789E1,7.192873E1,3.6288437E1,6.325689E0],"tree_param":{"num_deleted":"0","num_feature":"18","num_nodes":"25","size_leaf_vector":"1"}},{"base_weights":[1.547182E-1,-1.2192107E-1,5.734958E-1,-3.9930004E-1,7.192682E-2,6.1366993E-1,2.2677878E-1,-5.910912E-1,-3.150604E-1,-1.8525787E-1,1.2746932E-1,6.3318074E-1,-1.7476222E-2,4.773729E-1,-2.3492676E-1,-1.1071684E-2,-3.1042157E-2,-1.7371563E-2,2.5667435E-2,-2.4908805E-2,1.6848756E-2,1.2351828E-2,-5.952592E-3,2.2902496E-2,3.672135E-2,3.4113392E-2,-9.969972E-4,-3.3429414E-2,1.2662383E-2],"categories":[],"categories_nodes":[],"categories_segments":[],"categories_sizes":[],"default_left":[0,0,0,0,0,0,0,0,0,0,0,0,0,0,0,0,0,0,0,0,0,0,0,0,0,0,0,0,0],"id":36,"left_children":[1,3,5,7,9,11,13,15,17,19,21,23,-1,25,27,-1,-1,-1,-1,-1,-1,-1,-1,-1,-1,-1,-1,-1,-1],"loss_changes":[4.5526783E1,1.2778071E1,2.0374413E0,1.3921404E0,2.0294542E0,2.8419762E0,2.173047E0,1.7786789E-1,2.056038E0,4.30998E0,3.4507298E0,2.0934677E0,0E0,1.2236903E0,1.637844E0,0E0,0E0,0E0,0E0,0E0,0E0,0E0,0E0,0E0,0E0,0E0,0E0,0E0,0E0],"parents":[2147483647,0,0,1,1,2,2,3,3,4,4,5,5,6,6,7,7,8,8,9,9,10,10,11,11,13,13,14,14],"right_children":[2,4,6,8,10,12,14,16,18,20,22,24,-1,26,28,-1,-1,-1,-1,-1,-1,-1,-1,-1,-1,-1,-1,-1,-1],"split_conditions":[4.407E-1,-2.128E-1,9.3715847E-1,-2.047E1,1.5300547E-1,1.537869E3,1.3318E1,4.0983606E-2,1.51922E3,4.7934142E-1,4.88E-1,1.500681E3,-1.7476222E-2,9.945355E-1,8.066E-1,-1.1071684E-2,-3.1042157E-2,-1.7371563E-2,2.5667435E-2,-2.4908805E-2,1.6848756E-2,1.2351828E-2,-5.952592E-3,2.2902496E-2,3.672135E-2,3.4113392E-2,-9.969972E-4,-3.3429414E-2,1.2662383E-2],"split_indices":[7,7,16,11,16,9,11,16,9,5,6,8,0,16,0,0,0,0,0,0,0,0,0,0,0,0,0,0,0],"split_type":[0,0,0,0,0,0,0,0,0,0,0,0,0,0,0,0,0,0,0,0,0,0,0,0,0,0,0,0,0],"sum_hessian":[3.9137576E2,2.3611198E2,1.5526378E2,9.669304E1,1.3941895E2,1.3845145E2,1.6812336E1,2.7672764E1,6.902027E1,2.4346975E1,1.1507197E2,1.3603844E2,2.4130197E0,1.0875593E1,5.936743E0,2.6902313E0,2.4982533E1,6.698344E1,2.0368347E0,1.52533455E1,9.093629E0,7.748718E1,3.758478E1,5.1859127E1,8.4179306E1,7.4388485E0,3.4367442E0,2.948195E0,2.988548E0],"tree_param":{"num_deleted":"0","num_feature":"18","num_nodes":"29","size_leaf_vector":"1"}},{"base_weights":[-1.3904473E-1,-2.9571027E-1,1.5317869E-2,-5.341316E-1,-2.6072207E-1,1.0105356E-1,-1.7766114E-1,-3.0941585E-2,7.164746E-3,-2.3302066E-1,-3.218045E-2,2.1878164E-1,-5.505039E-2,-2.513904E-1,4.52305E-1,-1.3039871E-2,3.5426315E-2,-2.0046104E-2,1.3151893E-2,-6.4619826E-3,2.3330986E-2,-1.6950587E-2,1.7232558E-2,-8.747306E-3,4.06733E-2],"categories":[],"categories_nodes":[],"categories_segments":[],"categories_sizes":[],"default_left":[0,0,0,0,0,0,0,0,0,0,0,0,0,0,0,0,0,0,0,0,0,0,0,0,0],"id":37,"left_children":[1,3,5,7,9,11,13,-1,-1,15,-1,17,19,21,23,-1,-1,-1,-1,-1,-1,-1,-1,-1,-1],"loss_changes":[8.805132E0,1.3677778E0,3.0664735E0,1.3604722E0,1.5416889E0,2.3683195E0,2.763093E0,0E0,0E0,4.11559E0,0E0,2.1155367E0,2.2245908E0,2.8173127E0,1.5771402E0,0E0,0E0,0E0,0E0,0E0,0E0,0E0,0E0,0E0,0E0],"parents":[2147483647,0,0,1,1,2,2,3,3,4,4,5,5,6,6,9,9,11,11,12,12,13,13,14,14],"right_children":[2,4,6,8,10,12,14,-1,-1,16,-1,18,20,22,24,-1,-1,-1,-1,-1,-1,-1,-1,-1,-1],"split_conditions":[9.141895E-1,4.58E-2,7.95082E-1,1.536765E3,2.537E-1,1.500295E3,1.523577E3,-3.0941585E-2,7.164746E-3,2.448E-1,-3.218045E-2,1.479685E3,7.295082E-1,2.1354E1,-6.554E1,-1.3039871E-2,3.5426315E-2,-2.0046104E-2,1.3151893E-2,-6.4619826E-3,2.3330986E-2,-1.6950587E-2,1.7232558E-2,-8.747306E-3,4.06733E-2],"split_indices":[4,1,16,9,1,10,9,0,0,1,0,10,16,11,11,0,0,0,0,0,0,0,0,0,0],"split_type":[0,0,0,0,0,0,0,0,0,0,0,0,0,0,0,0,0,0,0,0,0,0,0,0,0],"sum_hessian":[3.6291238E2,1.7965819E2,1.8325418E2,2.1165209E1,1.5849298E2,1.2721301E2,5.6041176E1,1.8889866E1,2.2753441E0,1.492999E2,9.193085E0,7.229168E1,5.4921337E1,5.0707478E1,5.3336983E0,1.4572388E2,3.5760133E0,4.2814207E0,6.8010254E1,4.8741787E1,6.1795497E0,4.4584538E1,6.122939E0,2.1373057E0,3.1963925E0],"tree_param":{"num_deleted":"0","num_feature":"18","num_nodes":"25","size_leaf_vector":"1"}},{"base_weights":[-2.899097E-2,3.7732667E-1,-3.3168188E-1,6.981885E-1,2.0497032E-1,-5.6700045E-1,-1.4188914E-1,7.461935E-3,7.3243505E-1,5.5841035E-1,8.3470516E-2,-6.060984E-3,-5.8356446E-1,4.2949576E-2,-2.9263258E-1,3.767197E-2,1.9279595E-2,-2.2446767E-3,3.1022385E-2,-2.3377107E-2,7.824185E-3,-2.1507993E-2,-3.0295765E-2,3.1945847E-2,-1.1970178E-3,1.6281042E-2,-1.6137563E-2],"categories":[],"categories_nodes":[],"categories_segments":[],"categories_sizes":[],"default_left":[0,0,0,0,0,0,0,0,0,0,0,0,0,0,0,0,0,0,0,0,0,0,0,0,0,0,0],"id":38,"left_children":[1,3,5,7,9,11,13,-1,15,17,19,-1,21,23,25,-1,-1,-1,-1,-1,-1,-1,-1,-1,-1,-1,-1],"loss_changes":[4.5693584E1,8.630428E0,9.42639E0,9.251194E-1,4.4461775E0,6.2851715E-1,3.3328407E0,0E0,8.493805E-2,1.0230074E0,3.2527738E0,0E0,5.152893E-2,2.183914E0,1.3296685E0,0E0,0E0,0E0,0E0,0E0,0E0,0E0,0E0,0E0,0E0,0E0,0E0],"parents":[2147483647,0,0,1,1,2,2,3,3,4,4,5,5,6,6,8,8,9,9,10,10,12,12,13,13,14,14],"right_children":[2,4,6,8,10,12,14,-1,16,18,20,-1,22,24,26,-1,-1,-1,-1,-1,-1,-1,-1,-1,-1,-1,-1],"split_conditions":[-5.62E-2,7.532083E-1,1.26E-1,4.0983606E-2,1.7213115E-1,1.482463E3,-1.238E0,7.461935E-3,1.507876E3,-5.9648E1,2.568306E-1,-6.060984E-3,6.848E-1,2.089E-1,3.6E-1,3.767197E-2,1.9279595E-2,-2.2446767E-3,3.1022385E-2,-2.3377107E-2,7.824185E-3,-2.1507993E-2,-3.0295765E-2,3.1945847E-2,-1.1970178E-3,1.6281042E-2,-1.6137563E-2],"split_indices":[7,4,2,16,16,8,11,0,8,11,16,0,0,1,6,0,0,0,0,0,0,0,0,0,0,0,0],"split_type":[0,0,0,0,0,0,0,0,0,0,0,0,0,0,0,0,0,0,0,0,0,0,0,0,0,0,0],"sum_hessian":[3.6950925E2,1.5764612E2,2.1186311E2,5.4023724E1,1.036224E2,9.369986E1,1.1816325E2,3.4870112E0,5.0536713E1,2.5588903E1,7.80335E1,3.6549115E0,9.0044945E1,5.3400124E1,6.476313E1,4.6545692E1,3.991021E0,2.411711E0,2.3177193E1,8.497957E0,6.953554E1,1.4025686E1,7.601926E1,4.525716E0,4.887441E1,2.5526671E0,6.2210464E1],"tree_param":{"num_deleted":"0","num_feature":"18","num_nodes":"27","size_leaf_vector":"1"}},{"base_weights":[1.6073258E-1,-1.9315574E-1,4.751911E-1,5.784835E-2,-3.596484E-1,2.6685065E-1,6.2499946E-1,-3.2311398E-1,1.6552514E-1,-5.220877E-1,-2.6283464E-1,5.566339E-1,1.03565134E-1,7.0865786E-1,2.2475797E-1,-2.680627E-2,6.185709E-4,-1.0331273E-2,1.4130962E-2,6.844924E-3,-2.8331285E-2,2.2835976E-2,-1.4678097E-2,3.132782E-2,-3.6788469E-3,2.6025161E-2,-5.2425155E-4,3.5861644E-3,3.6388323E-2,-1.4067322E-2,2.8036702E-2],"categories":[],"categories_nodes":[],"categories_segments":[],"categories_sizes":[],"default_left":[0,0,0,0,0,0,0,0,0,0,0,0,0,0,0,0,0,0,0,0,0,0,0,0,0,0,0,0,0,0,0],"id":39,"left_children":[1,3,5,7,9,11,13,15,17,19,21,23,25,27,29,-1,-1,-1,-1,-1,-1,-1,-1,-1,-1,-1,-1,-1,-1,-1,-1],"loss_changes":[4.2407803E1,7.5272617E0,6.1264305E0,3.0271819E0,1.5632591E0,4.015688E0,3.7431679E0,1.1724118E0,2.5500753E0,1.2329388E0,1.6765556E0,1.4031773E0,2.6820984E0,1.1154099E0,3.8329356E0,0E0,0E0,0E0,0E0,0E0,0E0,0E0,0E0,0E0,0E0,0E0,0E0,0E0,0E0,0E0,0E0],"parents":[2147483647,0,0,1,1,2,2,3,3,4,4,5,5,6,6,7,7,8,8,9,9,10,10,11,11,12,12,13,13,14,14],"right_children":[2,4,6,8,10,12,14,16,18,20,22,24,26,28,30,-1,-1,-1,-1,-1,-1,-1,-1,-1,-1,-1,-1,-1,-1,-1,-1],"split_conditions":[6.31514E-1,4.503E-1,1.500681E3,1.5846995E-1,9.54E-2,6.32E-2,8.661202E-1,3.2E-3,1.495305E3,4.0983606E-2,1.013E-1,1.500002E3,4E0,-1.124E1,1.50195E3,-2.680627E-2,6.185709E-4,-1.0331273E-2,1.4130962E-2,6.844924E-3,-2.8331285E-2,2.2835976E-2,-1.4678097E-2,3.132782E-2,-3.6788469E-3,2.6025161E-2,-5.2425155E-4,3.5861644E-3,3.6388323E-2,-1.4067322E-2,2.8036702E-2],"split_indices":[5,6,8,16,0,2,16,3,10,16,0,8,17,11,10,0,0,0,0,0,0,0,0,0,0,0,0,0,0,0,0],"split_type":[0,0,0,0,0,0,0,0,0,0,0,0,0,0,0,0,0,0,0,0,0,0,0,0,0,0,0,0,0,0,0],"sum_hessian":[3.7925522E2,1.7862183E2,2.0063339E2,7.1492455E1,1.0712937E2,8.508537E1,1.1554802E2,1.5313225E1,5.617923E1,3.8365307E1,6.876407E1,2.9796495E1,5.5288876E1,9.4934296E1,2.0613722E1,9.00046E0,6.3127656E0,1.326274E1,4.291649E1,2.2975097E0,3.60678E1,2.2484114E0,6.6515656E1,2.682593E1,2.9705656E0,1.1109948E1,4.417893E1,2.9036088E0,9.2030685E1,8.289406E0,1.2324316E1],"tree_param":{"num_deleted":"0","num_feature":"18","num_nodes":"31","size_leaf_vector":"1"}},{"base_weights":[-1.5513156E-1,-3.4602204E-1,-1.3044034E-2,-1.1671131E-1,-4.04652E-1,-3.5550985E-2,5.798789E-1,-4.312273E-1,1.8237196E-1,-4.3457755E-1,-6.0042735E-2,1.03354454E-1,-1.0417226E-1,1.1074397E-2,4.29532E-2,-5.4637394E-3,-2.5983322E-2,-1.7307607E-2,1.7532405E-2,-1.7165931E-2,-2.5355099E-2,-2.5490135E-2,1.0233316E-2,1.0921281E-2,-1.303525E-2,-3.1031502E-2,-3.767681E-3],"categories":[],"categories_nodes":[],"categories_segments":[],"categories_sizes":[],"default_left":[0,0,0,0,0,0,0,0,0,0,0,0,0,0,0,0,0,0,0,0,0,0,0,0,0,0,0],"id":40,"left_children":[1,3,5,7,9,11,13,15,17,19,21,23,25,-1,-1,-1,-1,-1,-1,-1,-1,-1,-1,-1,-1,-1,-1],"loss_changes":[9.731044E0,2.0114765E0,2.7805066E0,3.143766E0,1.2273216E0,1.9189653E0,5.7227826E-1,4.0390325E-1,1.6693318E0,5.649929E-1,1.3986609E0,2.8510964E0,1.9549855E0,0E0,0E0,0E0,0E0,0E0,0E0,0E0,0E0,0E0,0E0,0E0,0E0,0E0,0E0],"parents":[2147483647,0,0,1,1,2,2,3,3,4,4,5,5,6,6,7,7,8,8,9,9,10,10,11,11,12,12],"right_children":[2,4,6,8,10,12,14,16,18,20,22,24,26,-1,-1,-1,-1,-1,-1,-1,-1,-1,-1,-1,-1,-1,-1],"split_conditions":[2.182E-1,1.490375E3,1.537935E3,5.5812347E-1,1.539052E3,2.895E-1,3.96E-1,7.518E0,1.481355E3,9.04E-2,-6.554E1,7.95082E-1,-3.0392E1,1.1074397E-2,4.29532E-2,-5.4637394E-3,-2.5983322E-2,-1.7307607E-2,1.7532405E-2,-1.7165931E-2,-2.5355099E-2,-2.5490135E-2,1.0233316E-2,1.0921281E-2,-1.303525E-2,-3.1031502E-2,-3.767681E-3],"split_indices":[1,9,10,4,9,0,2,11,10,2,11,16,11,0,0,0,0,0,0,0,0,0,0,0,0,0,0],"split_type":[0,0,0,0,0,0,0,0,0,0,0,0,0,0,0,0,0,0,0,0,0,0,0,0,0,0,0],"sum_hessian":[3.5793896E2,1.5212636E2,2.058126E2,3.1584639E1,1.2054172E2,1.9919148E2,6.621132E0,1.5179766E1,1.6404873E1,1.10670135E2,9.871576E0,6.5697754E1,1.3349373E2,3.6845706E0,2.9365613E0,3.7529993E0,1.1426767E1,3.7064745E0,1.2698399E1,5.1544487E1,5.9125652E1,3.3143523E0,6.5572243E0,5.0223305E1,1.5474452E1,5.9699917E0,1.27523735E2],"tree_param":{"num_deleted":"0","num_feature":"18","num_nodes":"27","size_leaf_vector":"1"}},{"base_weights":[-4.5003958E-2,-3.2308492E-1,4.005897E-1,-5.853114E-1,-1.8859513E-1,6.645715E-1,2.3842163E-1,-4.62474E-1,-3.1008363E-2,-9.504143E-3,-2.6175427E-1,1.5553812E-3,3.510056E-2,5.051285E-1,1.5380104E-1,-2.7383098E-2,3.7535129E-3,-4.4561583E-3,2.4444185E-2,-1.4515455E-2,1.5230817E-2,5.0784545E-3,3.349949E-2,-2.2608584E-2,1.1083584E-2],"categories":[],"categories_nodes":[],"categories_segments":[],"categories_sizes":[],"default_left":[0,0,0,0,0,0,0,0,0,0,0,0,0,0,0,0,0,0,0,0,0,0,0,0,0],"id":41,"left_children":[1,3,5,7,9,11,13,15,-1,17,19,-1,-1,21,23,-1,-1,-1,-1,-1,-1,-1,-1,-1,-1],"loss_changes":[4.516199E1,7.800972E0,5.8390484E0,3.6764145E-2,1.9596243E0,1.2292995E0,1.9161363E0,9.861398E-1,0E0,1.8082143E0,1.8073316E0,0E0,0E0,1.318511E0,2.9176192E0,0E0,0E0,0E0,0E0,0E0,0E0,0E0,0E0,0E0,0E0],"parents":[2147483647,0,0,1,1,2,2,3,3,4,4,5,5,6,6,7,7,9,9,10,10,13,13,14,14],"right_children":[2,4,6,8,10,12,14,16,-1,18,20,-1,-1,22,24,-1,-1,-1,-1,-1,-1,-1,-1,-1,-1],"split_conditions":[4.146E-1,9.56E-2,7.532083E-1,5.788E-1,5.6855E-1,4.0983606E-2,1.490173E3,5.773E-1,-3.1008363E-2,5.667E-1,9.699454E-1,1.5553812E-3,3.510056E-2,1.490375E3,1.492607E3,-2.7383098E-2,3.7535129E-3,-4.4561583E-3,2.4444185E-2,-1.4515455E-2,1.5230817E-2,5.0784545E-3,3.349949E-2,-2.2608584E-2,1.1083584E-2],"split_indices":[2,2,4,12,12,16,8,12,0,12,16,0,0,9,8,0,0,0,0,0,0,0,0,0,0],"split_type":[0,0,0,0,0,0,0,0,0,0,0,0,0,0,0,0,0,0,0,0,0,0,0,0,0],"sum_hessian":[3.624264E2,2.2332884E2,1.3909755E2,7.457375E1,1.4875508E2,5.175357E1,8.734398E1,1.9637241E1,5.4936516E1,4.3470566E1,1.05284515E2,2.9902756E0,4.8763298E1,1.9840727E1,6.750325E1,1.6934677E1,2.7025642E0,3.8190666E1,5.279902E0,1.0069516E2,4.5893493E0,6.223204E0,1.3617522E1,6.2287307E0,6.127452E1],"tree_param":{"num_deleted":"0","num_feature":"18","num_nodes":"25","size_leaf_vector":"1"}},{"base_weights":[1.6968879E-1,4.6941733E-1,-2.0532659E-1,5.694468E-1,2.9372194E-1,-3.597243E-1,-3.3902388E-2,-8.320943E-3,5.866878E-1,1.170811E-2,4.4342428E-1,-1.0172573E-1,-4.5322505E-1,-4.064371E-1,6.816421E-2,1.6900875E-2,3.16555E-2,2.5477653E-2,-4.6291915E-3,2.7046386E-2,-6.1433954E-4,-1.3805917E-2,1.903649E-2,-1.3206144E-2,-2.5772924E-2,-1.8244345E-3,-2.5563994E-2,-3.0121773E-3,1.7695656E-2],"categories":[],"categories_nodes":[],"categories_segments":[],"categories_sizes":[],"default_left":[0,0,0,0,0,0,0,0,0,0,0,0,0,0,0,0,0,0,0,0,0,0,0,0,0,0,0,0,0],"id":42,"left_children":[1,3,5,7,9,11,13,-1,15,17,19,21,23,25,27,-1,-1,-1,-1,-1,-1,-1,-1,-1,-1,-1,-1,-1,-1],"loss_changes":[4.3949398E1,3.6489296E0,4.5931726E0,1.8395615E0,3.407771E0,2.1597748E0,3.2048628E0,0E0,1.337223E0,1.5559907E0,2.3519087E0,2.2601752E0,6.5033054E-1,6.838989E-1,2.4593337E0,0E0,0E0,0E0,0E0,0E0,0E0,0E0,0E0,0E0,0E0,0E0,0E0,0E0,0E0],"parents":[2147483647,0,0,1,1,2,2,3,3,4,4,5,5,6,6,8,8,9,9,10,10,11,11,12,12,13,13,14,14],"right_children":[2,4,6,8,10,12,14,-1,16,18,20,22,24,26,28,-1,-1,-1,-1,-1,-1,-1,-1,-1,-1,-1,-1,-1,-1],"split_conditions":[2.635E-1,1.26E-1,-2.128E-1,-1.2E-2,-1.238E0,1.497799E3,1.7213115E-1,-8.320943E-3,1.493885E3,2.683E-1,3.2326E1,1.49577E3,5.741E-1,3.134E-1,1.50255E3,1.6900875E-2,3.16555E-2,2.5477653E-2,-4.6291915E-3,2.7046386E-2,-6.1433954E-4,-1.3805917E-2,1.903649E-2,-1.3206144E-2,-2.5772924E-2,-1.8244345E-3,-2.5563994E-2,-3.0121773E-3,1.7695656E-2],"split_indices":[2,2,3,14,11,9,16,0,10,3,11,10,2,2,10,0,0,0,0,0,0,0,0,0,0,0,0,0,0],"split_type":[0,0,0,0,0,0,0,0,0,0,0,0,0,0,0,0,0,0,0,0,0,0,0,0,0,0,0,0,0],"sum_hessian":[3.891416E2,2.1614078E2,1.7300082E2,1.3629959E2,7.9841194E1,9.044273E1,8.255808E1,2.922238E0,1.3337735E2,2.805969E1,5.17815E1,2.4613667E1,6.582906E1,1.711342E1,6.5444664E1,2.2284906E1,1.11092445E2,4.1869855E0,2.3872705E1,4.250103E1,9.280471E0,1.8392893E1,6.2207747E0,1.759848E1,4.8230587E1,4.0766344E0,1.3036786E1,4.569828E1,1.9746384E1],"tree_param":{"num_deleted":"0","num_feature":"18","num_nodes":"29","size_leaf_vector":"1"}},{"base_weights":[-1.362283E-1,-2.9680225E-1,-1.2909192E-2,-4.1598606E-1,-1.9324078E-1,-3.8583748E-2,4.8314318E-1,-3.6147806E-1,-2.9878272E-2,1.4300887E-1,-3.2898262E-1,-3.3472678E-1,2.0878564E-3,8.3709605E-2,5.0166275E-2,2.8790268E-3,-2.166406E-2,-2.6679808E-2,1.4401886E-2,-2.2412842E-2,-7.8444806E-4,-3.2031156E-2,-3.362658E-3,-2.2485962E-2,9.771097E-4,-2.4946017E-2,2.2979323E-2],"categories":[],"categories_nodes":[],"categories_segments":[],"categories_sizes":[],"default_left":[0,0,0,0,0,0,0,0,0,0,0,0,0,0,0,0,0,0,0,0,0,0,0,0,0,0,0],"id":43,"left_children":[1,3,5,7,9,11,13,15,-1,17,19,21,23,25,-1,-1,-1,-1,-1,-1,-1,-1,-1,-1,-1,-1,-1],"loss_changes":[7.1010046E0,1.8427649E0,2.6165931E0,4.923973E-1,3.937526E0,2.3478787E0,2.0171194E0,1.7575154E0,0E0,2.6275432E0,2.273388E0,1.8827703E0,1.3678284E0,1.7208954E0,0E0,0E0,0E0,0E0,0E0,0E0,0E0,0E0,0E0,0E0,0E0,0E0,0E0],"parents":[2147483647,0,0,1,1,2,2,3,3,4,4,5,5,6,6,7,7,9,9,10,10,11,11,12,12,13,13],"right_children":[2,4,6,8,10,12,14,16,-1,18,20,22,24,26,-1,-1,-1,-1,-1,-1,-1,-1,-1,-1,-1,-1,-1],"split_conditions":[2.187E-1,5.5812347E-1,6.32E-1,9.441E-1,1.492795E3,9.1667277E-1,1.502714E3,1.21E-2,-2.9878272E-2,1.261E-1,6.179E-1,6.277E-1,1.466683E3,-2.772E0,5.0166275E-2,2.8790268E-3,-2.166406E-2,-2.6679808E-2,1.4401886E-2,-2.2412842E-2,-7.8444806E-4,-3.2031156E-2,-3.362658E-3,-2.2485962E-2,9.771097E-4,-2.4946017E-2,2.2979323E-2],"split_indices":[1,4,2,0,9,4,9,2,0,0,3,0,8,11,0,0,0,0,0,0,0,0,0,0,0,0,0],"split_type":[0,0,0,0,0,0,0,0,0,0,0,0,0,0,0,0,0,0,0,0,0,0,0,0,0,0,0],"sum_hessian":[3.5779688E2,1.5481079E2,2.029861E2,7.057393E1,8.423686E1,1.9387384E2,9.112257E0,5.6580013E1,1.3993914E1,2.4210606E1,6.0026253E1,2.2537933E1,1.713359E2,5.811042E0,3.301215E0,8.305488E0,4.827453E1,3.80056E0,2.0410046E1,4.3162895E1,1.6863356E1,9.863009E0,1.2674924E1,5.451737E0,1.6588417E2,2.1504204E0,3.6606216E0],"tree_param":{"num_deleted":"0","num_feature":"18","num_nodes":"27","size_leaf_vector":"1"}},{"base_weights":[-2.7682995E-2,3.5957482E-1,-3.218733E-1,6.3031495E-1,1.7667279E-1,-1.6886947E-1,-2.9588467E-2,3.757525E-3,6.6198313E-1,1.3041188E-1,7.032622E-1,-2.0492806E-1,3.3550018E-1,1.1051304E-2,3.451526E-2,1.024577E-2,-7.6213726E-3,1.436259E-2,5.101319E-2,-2.4303335E-3,-1.5479189E-2,-7.1927467E-3,3.309491E-2],"categories":[],"categories_nodes":[],"categories_segments":[],"categories_sizes":[],"default_left":[0,0,0,0,0,0,0,0,0,0,0,0,0,0,0,0,0,0,0,0,0,0,0],"id":44,"left_children":[1,3,5,7,9,11,-1,-1,13,15,17,19,21,-1,-1,-1,-1,-1,-1,-1,-1,-1,-1],"loss_changes":[4.0678577E1,7.523466E0,8.277237E0,1.0362968E0,2.1837091E0,2.448791E0,0E0,0E0,5.756779E-1,1.8664579E0,6.7165613E-1,1.9932132E0,1.5207068E0,0E0,0E0,0E0,0E0,0E0,0E0,0E0,0E0,0E0,0E0],"parents":[2147483647,0,0,1,1,2,2,3,3,4,4,5,5,8,8,9,9,10,10,11,11,12,12],"right_children":[2,4,6,8,10,12,-1,-1,14,16,18,20,22,-1,-1,-1,-1,-1,-1,-1,-1,-1,-1],"split_conditions":[-5.62E-2,2.024E-1,1.9943557E0,6.4E1,-8.83E-2,9.7540987E-1,-2.9588467E-2,3.757525E-3,4.0983606E-2,1.0638976E0,1.504135E3,-1.888E0,-7.426E0,1.1051304E-2,3.451526E-2,1.024577E-2,-7.6213726E-3,1.436259E-2,5.101319E-2,-2.4303335E-3,-1.5479189E-2,-7.1927467E-3,3.309491E-2],"split_indices":[3,1,5,15,3,16,0,0,16,4,10,11,11,0,0,0,0,0,0,0,0,0,0],"split_type":[0,0,0,0,0,0,0,0,0,0,0,0,0,0,0,0,0,0,0,0,0,0,0],"sum_hessian":[3.5504083E2,1.5317995E2,2.0186089E2,6.07737E1,9.2406235E1,1.2986577E2,7.199512E1,3.461656E0,5.7312046E1,8.609081E1,6.3154273E0,1.2175491E2,8.110856E0,3.990263E0,5.3321785E1,6.8359535E1,1.7731277E1,3.5555406E0,2.7598867E0,4.94128E1,7.234211E1,3.5121305E0,4.5987253E0],"tree_param":{"num_deleted":"0","num_feature":"18","num_nodes":"23","size_leaf_vector":"1"}},{"base_weights":[1.265997E-1,-1.24007486E-1,4.9433818E-1,-4.308073E-1,2.401567E-2,3.8725224E-1,6.2248737E-1,-7.5943735E-3,-4.9850303E-1,-7.794142E-2,2.0478092E-1,4.4411153E-1,-2.5725436E-1,6.5299636E-1,4.049057E-3,-2.5083337E-2,1.5637038E-2,-2.6517538E-2,5.4692436E-4,-1.4382762E-2,1.7399791E-3,3.9507564E-2,4.413773E-3,2.5265222E-2,-7.586104E-3,1.3726321E-2,-2.7224336E-2,4.895283E-2,2.9460995E-2],"categories":[],"categories_nodes":[],"categories_segments":[],"categories_sizes":[],"default_left":[0,0,0,0,0,0,0,0,0,0,0,0,0,0,0,0,0,0,0,0,0,0,0,0,0,0,0,0,0],"id":45,"left_children":[1,3,5,7,9,11,13,15,17,19,21,23,25,27,-1,-1,-1,-1,-1,-1,-1,-1,-1,-1,-1,-1,-1,-1,-1],"loss_changes":[3.599941E1,1.0578755E1,1.9305649E0,2.167591E0,2.926561E0,3.370431E0,1.1100578E0,1.9717425E0,1.065649E0,2.414474E0,3.8330975E0,3.0671043E0,1.3464736E0,8.0591583E-1,0E0,0E0,0E0,0E0,0E0,0E0,0E0,0E0,0E0,0E0,0E0,0E0,0E0,0E0,0E0],"parents":[2147483647,0,0,1,1,2,2,3,3,4,4,5,5,6,6,7,7,8,8,9,9,10,10,11,11,12,12,13,13],"right_children":[2,4,6,8,10,12,14,16,18,20,22,24,26,28,-1,-1,-1,-1,-1,-1,-1,-1,-1,-1,-1,-1,-1,-1,-1],"split_conditions":[4.327E-1,9.66599E-1,1.50184E3,1.48994E3,1.469E-1,9.1003174E-1,1.537869E3,4.38E-2,2.4624E1,1.498075E3,4.503E-1,1.501807E3,1.494209E3,6.277E-1,4.049057E-3,-2.5083337E-2,1.5637038E-2,-2.6517538E-2,5.4692436E-4,-1.4382762E-2,1.7399791E-3,3.9507564E-2,4.413773E-3,2.5265222E-2,-7.586104E-3,1.3726321E-2,-2.7224336E-2,4.895283E-2,2.9460995E-2],"split_indices":[3,4,10,10,3,4,9,0,11,10,0,9,8,0,0,0,0,0,0,0,0,0,0,0,0,0,0,0,0],"split_type":[0,0,0,0,0,0,0,0,0,0,0,0,0,0,0,0,0,0,0,0,0,0,0,0,0,0,0,0,0],"sum_hessian":[3.8896228E2,2.3171527E2,1.5724702E2,7.479051E1,1.5692476E2,8.785455E1,6.939246E1,1.0466896E1,6.4323616E1,1.00697266E2,5.622749E1,8.101796E1,6.8365917E0,6.5496445E1,3.8960238E0,3.8943439E0,6.572552E0,6.050039E1,3.8232248E0,3.466469E1,6.603258E1,8.37351E0,4.785398E1,7.361005E1,7.407913E0,2.4131434E0,4.423448E0,8.36723E0,5.712921E1],"tree_param":{"num_deleted":"0","num_feature":"18","num_nodes":"29","size_leaf_vector":"1"}},{"base_weights":[-1.3874362E-1,-3.419491E-1,-4.200938E-2,-3.0263695E-1,-2.9523194E-2,3.0225137E-1,-7.211778E-2,-4.2458498E-1,-2.0744811E-1,1.1507852E-1,5.516996E-2,-3.0180696E-2,-5.6141373E-2,-2.2950947E-2,6.571175E-3,3.5492943E-3,-1.8381905E-2,-7.112668E-3,3.7333947E-2,6.385771E-3,-6.32163E-3],"categories":[],"categories_nodes":[],"categories_segments":[],"categories_sizes":[],"default_left":[0,0,0,0,0,0,0,0,0,0,0,0,0,0,0,0,0,0,0,0,0],"id":46,"left_children":[1,3,5,7,-1,9,11,13,15,17,-1,-1,19,-1,-1,-1,-1,-1,-1,-1,-1],"loss_changes":[6.989822E0,9.426441E-1,2.535796E0,1.0861111E0,0E0,2.8269563E0,1.8668655E0,8.9101696E-1,2.647137E0,2.8830237E0,0E0,0E0,2.8388345E0,0E0,0E0,0E0,0E0,0E0,0E0,0E0,0E0],"parents":[2147483647,0,0,1,1,2,2,3,3,5,5,6,6,7,7,8,8,9,9,12,12],"right_children":[2,4,6,8,-1,10,12,14,16,18,-1,-1,20,-1,-1,-1,-1,-1,-1,-1,-1],"split_conditions":[7.532083E-1,9.441E-1,6.284153E-2,1.433E-1,-2.9523194E-2,1.509355E3,1.47404E3,1.5323E3,1.500418E3,5.7377048E-2,5.516996E-2,-3.0180696E-2,1.494225E3,-2.2950947E-2,6.571175E-3,3.5492943E-3,-1.8381905E-2,-7.112668E-3,3.7333947E-2,6.385771E-3,-6.32163E-3],"split_indices":[4,0,16,14,0,10,10,10,8,16,0,0,9,0,0,0,0,0,0,0,0],"split_type":[0,0,0,0,0,0,0,0,0,0,0,0,0,0,0,0,0,0,0,0,0],"sum_hessian":[3.5532153E2,1.13778015E2,2.4154353E2,1.00152794E2,1.3625224E1,1.869905E1,2.2284448E2,4.2388157E1,5.7764637E1,1.608479E1,2.6142614E0,5.429711E0,2.1741476E2,4.008039E1,2.307767E0,2.129961E1,3.6465027E1,1.1978985E1,4.1058044E0,5.990574E1,1.5750903E2],"tree_param":{"num_deleted":"0","num_feature":"18","num_nodes":"21","size_leaf_vector":"1"}},{"base_weights":[-1.525494E-2,3.5591495E-1,-2.8269598E-1,5.767404E-1,1.6258153E-1,-1.2489468E-1,-5.612316E-1,2.5810305E-5,6.019665E-1,-3.3207323E-2,2.2125898E-1,2.8076276E-2,-3.0379248E-1,-4.2366606E-1,-3.0397901E-2,3.1352576E-2,2.176438E-3,4.240911E-2,9.016859E-3,-1.0093476E-2,9.019922E-3,-1.8742021E-2,-3.2721383E-3,-2.4999447E-2,8.9510325E-3],"categories":[],"categories_nodes":[],"categories_segments":[],"categories_sizes":[],"default_left":[0,0,0,0,0,0,0,0,0,0,0,0,0,0,0,0,0,0,0,0,0,0,0,0,0],"id":47,"left_children":[1,3,5,7,9,11,13,-1,15,-1,17,19,21,23,-1,-1,-1,-1,-1,-1,-1,-1,-1,-1,-1],"loss_changes":[3.5805878E1,6.35614E0,9.143209E0,1.0191154E0,4.1221333E0,3.705547E0,2.2787666E-1,0E0,9.1391754E-1,0E0,1.8292518E0,2.6192107E0,1.0314007E0,1.1220427E0,0E0,0E0,0E0,0E0,0E0,0E0,0E0,0E0,0E0,0E0,0E0],"parents":[2147483647,0,0,1,1,2,2,3,3,4,4,5,5,6,6,8,8,10,10,11,11,12,12,13,13],"right_children":[2,4,6,8,10,12,14,-1,16,-1,18,20,22,24,-1,-1,-1,-1,-1,-1,-1,-1,-1,-1,-1],"split_conditions":[-5.62E-2,2.187E-1,1.9943557E0,4.2E1,2.242E-1,1.499832E3,1.88E0,2.5810305E-5,1.533845E3,-3.3207323E-2,1.472295E3,1.49476E3,8.06E2,6.98E-1,-3.0397901E-2,3.1352576E-2,2.176438E-3,4.240911E-2,9.016859E-3,-1.0093476E-2,9.019922E-3,-1.8742021E-2,-3.2721383E-3,-2.4999447E-2,8.9510325E-3],"split_indices":[3,1,5,15,1,8,11,0,10,0,8,10,15,11,0,0,0,0,0,0,0,0,0,0,0],"split_type":[0,0,0,0,0,0,0,0,0,0,0,0,0,0,0,0,0,0,0,0,0,0,0,0,0],"sum_hessian":[3.5869254E2,1.500767E2,2.0861581E2,6.913154E1,8.0945175E1,1.3409447E2,7.4521355E1,2.942324E0,6.618921E1,4.680554E0,7.6264626E1,7.273967E1,6.1354786E1,2.1446985E1,5.3074368E1,6.3226227E1,2.962986E0,3.4643142E0,7.280031E1,2.8854937E1,4.388474E1,4.682455E1,1.4530237E1,1.9187521E1,2.2594647E0],"tree_param":{"num_deleted":"0","num_feature":"18","num_nodes":"25","size_leaf_vector":"1"}},{"base_weights":[1.22839294E-1,-1.287635E-1,4.8920897E-1,-3.4987044E-1,2.3527196E-2,4.411965E-1,3.9001115E-2,-4.1155082E-1,-4.4186372E-2,5.3441737E-2,-3.1976487E-2,7.578738E-1,3.8924828E-1,-1.6419716E-2,-3.1012818E-2,-2.36384E-2,1.7660739E-2,-1.22970445E-2,6.0901656E-3,4.667411E-2,8.55913E-3,-1.7596198E-2,2.2217188E-2],"categories":[],"categories_nodes":[],"categories_segments":[],"categories_sizes":[],"default_left":[0,0,0,0,0,0,0,0,0,0,0,0,0,0,0,0,0,0,0,0,0,0,0],"id":48,"left_children":[1,3,5,7,9,11,-1,13,15,17,-1,19,21,-1,-1,-1,-1,-1,-1,-1,-1,-1,-1],"loss_changes":[3.5563187E1,7.723039E0,1.8480911E0,1.7448606E0,2.7437608E0,1.9597626E0,0E0,1.1445847E0,3.0317624E0,2.7239656E0,0E0,1.7214146E0,5.048498E0,0E0,0E0,0E0,0E0,0E0,0E0,0E0,0E0,0E0,0E0],"parents":[2147483647,0,0,1,1,2,2,3,3,4,4,5,5,7,7,8,8,9,9,11,11,12,12],"right_children":[2,4,6,8,10,12,-1,14,16,18,-1,20,22,-1,-1,-1,-1,-1,-1,-1,-1,-1,-1],"split_conditions":[4.327E-1,-2.128E-1,9.435E-1,2.878E-1,-3E-4,6.273E-1,3.9001115E-2,6E0,4.955E-1,1.5300547E-1,-3.1976487E-2,1.4638E1,6.41E-1,-1.6419716E-2,-3.1012818E-2,-2.36384E-2,1.7660739E-2,-1.22970445E-2,6.0901656E-3,4.667411E-2,8.55913E-3,-1.7596198E-2,2.2217188E-2],"split_indices":[3,3,6,1,14,6,0,17,6,16,0,11,6,0,0,0,0,0,0,0,0,0,0],"split_type":[0,0,0,0,0,0,0,0,0,0,0,0,0,0,0,0,0,0,0,0,0,0,0],"sum_hessian":[3.8411975E2,2.2811281E2,1.5600694E2,9.250694E1,1.3560587E2,1.360608E2,1.9946142E1,7.668688E1,1.5820065E1,1.3063167E2,4.9741907E0,1.7259232E1,1.1880157E2,5.6677727E1,2.0009155E1,7.5201874E0,8.299877E0,2.3800804E1,1.06830864E2,1.2828353E1,4.43088E0,7.847359E0,1.1095421E2],"tree_param":{"num_deleted":"0","num_feature":"18","num_nodes":"23","size_leaf_vector":"1"}},{"base_weights":[-1.6093597E-1,-2.8917098E-1,-3.6827516E-2,-2.4746728E-1,-5.584003E-1,-6.641708E-2,7.360802E-1,-5.7820666E-1,-2.10891E-1,-6.447596E-3,-2.985544E-2,1.2965224E-2,-2.4626379E-1,1.567762E-2,4.4417214E-2,-3.195226E-2,-6.5913047E-3,-1.2062363E-2,2.190514E-2,6.22854E-3,-9.006141E-3,-2.5323996E-2,3.0889208E-4],"categories":[],"categories_nodes":[],"categories_segments":[],"categories_sizes":[],"default_left":[0,0,0,0,0,0,0,0,0,0,0,0,0,0,0,0,0,0,0,0,0,0,0],"id":49,"left_children":[1,3,5,7,9,11,13,15,17,-1,-1,19,21,-1,-1,-1,-1,-1,-1,-1,-1,-1,-1],"loss_changes":[5.627388E0,1.8164339E0,4.1922855E0,1.7232904E0,2.979145E-1,2.507442E0,1.5655422E-1,3.1264973E-1,2.8425293E0,0E0,0E0,2.6653857E0,3.5348856E0,0E0,0E0,0E0,0E0,0E0,0E0,0E0,0E0,0E0,0E0],"parents":[2147483647,0,0,1,1,2,2,3,3,4,4,5,5,6,6,7,7,8,8,11,11,12,12],"right_children":[2,4,6,8,10,12,14,16,18,-1,-1,20,22,-1,-1,-1,-1,-1,-1,-1,-1,-1,-1],"split_conditions":[9.186317E-1,9.435E-1,1.537935E3,6.33E-1,-3.7544E1,7.95082E-1,1.2021858E-1,5.69E-2,2.448E-1,-6.447596E-3,-2.985544E-2,1.469E-1,7.26E-2,1.567762E-2,4.4417214E-2,-3.195226E-2,-6.5913047E-3,-1.2062363E-2,2.190514E-2,6.22854E-3,-9.006141E-3,-2.5323996E-2,3.0889208E-4],"split_indices":[4,6,10,6,11,16,16,14,1,0,0,7,7,0,0,0,0,0,0,0,0,0,0],"split_type":[0,0,0,0,0,0,0,0,0,0,0,0,0,0,0,0,0,0,0,0,0,0,0],"sum_hessian":[3.5325827E2,1.7308661E2,1.8017168E2,1.5153322E2,2.1553385E1,1.7440877E2,5.7628994E0,1.3614697E1,1.3791852E2,2.1402235E0,1.941316E1,1.2164427E2,5.27645E1,2.3370175E0,3.4258819E0,1.1601834E1,2.0128632E0,1.3235593E2,5.5625896E0,7.7312325E1,4.433195E1,2.548663E1,2.7277872E1],"tree_param":{"num_deleted":"0","num_feature":"18","num_nodes":"23","size_leaf_vector":"1"}},{"base_weights":[-3.1727925E-2,-2.9544556E-1,3.3598688E-1,-1.4203502E-1,-5.696748E-1,5.653003E-1,1.3574202E-1,-3.874841E-1,-6.958721E-2,-6.7578317E-3,-2.9039387E-2,9.893251E-3,5.8424735E-1,1.8623777E-1,-3.9935803E-1,-2.1777606E-2,9.946275E-3,3.04801E-2,-4.9099224E-3,2.9796645E-2,1.2562464E-2,7.0328005E-3,3.0637864E-2,-3.0795468E-2,2.7343375E-3],"categories":[],"categories_nodes":[],"categories_segments":[],"categories_sizes":[],"default_left":[0,0,0,0,0,0,0,0,0,0,0,0,0,0,0,0,0,0,0,0,0,0,0,0,0],"id":50,"left_children":[1,3,5,7,9,11,13,15,17,-1,-1,-1,19,21,23,-1,-1,-1,-1,-1,-1,-1,-1,-1,-1],"loss_changes":[3.486038E1,8.723534E0,6.819336E0,2.3831925E0,2.8243065E-1,3.6958313E-1,2.2761817E0,9.511447E-1,2.117127E0,0E0,0E0,0E0,1.0617447E-1,1.3746958E0,7.558371E-1,0E0,0E0,0E0,0E0,0E0,0E0,0E0,0E0,0E0,0E0],"parents":[2147483647,0,0,1,1,2,2,3,3,4,4,5,5,6,6,7,7,8,8,12,12,13,13,14,14],"right_children":[2,4,6,8,10,12,14,16,18,-1,-1,-1,20,22,24,-1,-1,-1,-1,-1,-1,-1,-1,-1,-1],"split_conditions":[3.796E-1,1.9194149E0,2.182E-1,5E0,1.483755E3,4.2E1,1.514628E3,1.516737E3,1.13E-1,-6.7578317E-3,-2.9039387E-2,9.893251E-3,1.5926E1,-9.4E-2,1.522384E3,-2.1777606E-2,9.946275E-3,3.04801E-2,-4.9099224E-3,2.9796645E-2,1.2562464E-2,7.0328005E-3,3.0637864E-2,-3.0795468E-2,2.7343375E-3],"split_indices":[2,5,1,17,8,15,8,8,2,0,0,0,11,3,8,0,0,0,0,0,0,0,0,0,0],"split_type":[0,0,0,0,0,0,0,0,0,0,0,0,0,0,0,0,0,0,0,0,0,0,0,0,0],"sum_hessian":[3.5746222E2,2.0828264E2,1.4917957E2,1.3453719E2,7.374545E1,6.869239E1,8.048718E1,2.9669651E1,1.0486753E2,2.1672568E0,7.157819E1,3.929604E0,6.476279E1,7.414253E1,6.3446465E0,2.7659645E1,2.0100064E0,3.4181945E0,1.0144933E2,6.1804348E1,2.9584365E0,6.8185394E1,5.9571357E0,4.054436E0,2.2902102E0],