{"learner":{"attributes":{"best_iteration":"54","best_score":"0.9152169524133206","scikit_learn":"{\"_estimator_type\": \"classifier\"}"},"feature_names":[],"feature_types":[],"gradient_booster":{"model":{"gbtree_model_param":{"num_parallel_tree":"1","num_trees":"285"},"iteration_indptr":[0,3,6,9,12,15,18,21,24,27,30,33,36,39,42,45,48,51,54,57,60,63,66,69,72,75,78,81,84,87,90,93,96,99,102,105,108,111,114,117,120,123,126,129,132,135,138,141,144,147,150,153,156,159,162,165,168,171,174,177,180,183,186,189,192,195,198,201,204,207,210,213,216,219,222,225,228,231,234,237,240,243,246,249,252,255,258,261,264,267,270,273,276,279,282,285],"tree_info":[0,1,2,0,1,2,0,1,2,0,1,2,0,1,2,0,1,2,0,1,2,0,1,2,0,1,2,0,1,2,0,1,2,0,1,2,0,1,2,0,1,2,0,1,2,0,1,2,0,1,2,0,1,2,0,1,2,0,1,2,0,1,2,0,1,2,0,1,2,0,1,2,0,1,2,0,1,2,0,1,2,0,1,2,0,1,2,0,1,2,0,1,2,0,1,2,0,1,2,0,1,2,0,1,2,0,1,2,0,1,2,0,1,2,0,1,2,0,1,2,0,1,2,0,1,2,0,1,2,0,1,2,0,1,2,0,1,2,0,1,2,0,1,2,0,1,2,0,1,2,0,1,2,0,1,2,0,1,2,0,1,2,0,1,2,0,1,2,0,1,2,0,1,2,0,1,2,0,1,2,0,1,2,0,1,2,0,1,2,0,1,2,0,1,2,0,1,2,0,1,2,0,1,2,0,1,2,0,1,2,0,1,2,0,1,2,0,1,2,0,1,2,0,1,2,0,1,2,0,1,2,0,1,2,0,1,2,0,1,2,0,1,2,0,1,2,0,1,2,0,1,2,0,1,2,0,1,2,0,1,2,0,1,2,0,1,2,0,1,2,0,1,2,0,1,2,0,1,2,0,1,2,0,1,2],"trees":[{"base_weights":[3.002544E-1,-2.5808224E-1,8.907612E-1,9.748888E-2,-4.6413144E-1,1.16977E0,5.691554E-1,-4.630873E-1,2.513966E-1,-6.530613E-1,-3.4344834E-1,3.0612242E-1,1.2061856E0,-5.3097386E-2,6.6058904E-1,-3.415842E-2,-1.8822521E-9,3.022668E-3,3.7248325E-2,-4.054056E-3,-3.4503635E-2,-3.5106387E-2,-1.2647557E-2,-1.0344829E-2,3.6206897E-2,6.248455E-2,2.8767122E-2,-1.7647061E-2,3.2432433E-2,2.355658E-2,4.619377E-2],"categories":[],"categories_nodes":[],"categories_segments":[],"categories_sizes":[],"default_left":[0,0,0,0,0,0,0,0,0,0,0,0,0,0,0,0,0,0,0,0,0,0,0,0,0,0,0,0,0,0,0],"id":0,"left_children":[1,3,5,7,9,11,13,15,17,19,21,23,25,27,29,-1,-1,-1,-1,-1,-1,-1,-1,-1,-1,-1,-1,-1,-1,-1,-1],"loss_changes":[1.2980258E2,1.4901791E1,1.6492752E1,6.606366E0,2.7068558E0,2.8212128E0,5.1998634E0,1.6872885E0,5.5781784E0,9.813671E-1,2.4371872E0,1.3173822E0,1.9431763E0,2.8708022E0,3.5164528E0,0E0,0E0,0E0,0E0,0E0,0E0,0E0,0E0,0E0,0E0,0E0,0E0,0E0,0E0,0E0,0E0],"parents":[2147483647,0,0,1,1,2,2,3,3,4,4,5,5,6,6,7,7,8,8,9,9,10,10,11,11,12,12,13,13,14,14],"right_children":[2,4,6,8,10,12,14,16,18,20,22,24,26,28,30,-1,-1,-1,-1,-1,-1,-1,-1,-1,-1,-1,-1,-1,-1,-1,-1],"split_conditions":[6.31514E-1,4.503E-1,8.56E-2,1.5846995E-1,-2.0681317E0,9.84E-2,1.14E-1,3.649E-1,1.50206E3,4.0983606E-2,8.29E-2,1.515896E3,9.699454E-1,7.92E2,1.50159E3,-3.415842E-2,-1.8822521E-9,3.022668E-3,3.7248325E-2,-4.054056E-3,-3.4503635E-2,-3.5106387E-2,-1.2647557E-2,-1.0344829E-2,3.6206897E-2,6.248455E-2,2.8767122E-2,-1.7647061E-2,3.2432433E-2,2.355658E-2,4.619377E-2],"split_indices":[5,6,2,16,5,13,13,0,10,16,13,9,16,15,10,0,0,0,0,0,0,0,0,0,0,0,0,0,0,0,0],"split_type":[0,0,0,0,0,0,0,0,0,0,0,0,0,0,0,0,0,0,0,0,0,0,0,0,0,0,0,0,0,0,0],"sum_hessian":[3.9199997E2,2.0177777E2,1.9022221E2,7.422222E1,1.2755555E2,1.00444435E2,8.977777E1,1.5555554E1,5.8666664E1,4.7999996E1,7.955555E1,4.444444E0,9.599999E1,1.1555555E1,7.822221E1,1.0222221E1,5.333333E0,4.3111107E1,1.5555554E1,3.111111E0,4.4888885E1,1.4666666E1,6.4888885E1,2.222222E0,2.222222E0,8.8888885E1,7.1111107E0,8.444444E0,3.111111E0,4.7111107E1,3.1111109E1],"tree_param":{"num_deleted":"0","num_feature":"18","num_nodes":"31","size_leaf_vector":"1"}},{"base_weights":[-2.453211E-1,-4.9263164E-1,-7.2921775E-2,-5.790109E-1,-3.669422E-1,-1.03395894E-1,5.8064514E-1,-3.8709682E-1,-6.3768125E-1,1.7647055E-1,-4.4801518E-1,-2.3223128E-2,-3.0481288E-1,-1.6255813E-9,7.826087E-1,-2.4365485E-2,2.0689655E-2,-1.5789477E-2,-3.2984298E-2,-2.5862072E-2,2.3076922E-2,-2.5984256E-2,-1.2420385E-2,-1.4699334E-2,5.04587E-3,-2.0000022E-3,-2.3478264E-2,1.3636363E-2,5E-2],"categories":[],"categories_nodes":[],"categories_segments":[],"categories_sizes":[],"default_left":[0,0,0,0,0,0,0,0,0,0,0,0,0,0,0,0,0,0,0,0,0,0,0,0,0,0,0,0,0],"id":1,"left_children":[1,3,5,7,9,11,13,15,17,19,21,23,25,-1,27,-1,-1,-1,-1,-1,-1,-1,-1,-1,-1,-1,-1,-1,-1],"loss_changes":[1.6416899E1,1.5065575E0,4.6121473E0,7.9029465E-1,3.0406094E0,3.5329564E0,1.2117817E0,2.136791E0,2.8041267E-1,2.106413E0,7.117729E-1,5.3367443E0,2.7007294E0,0E0,5.7707405E-1,0E0,0E0,0E0,0E0,0E0,0E0,0E0,0E0,0E0,0E0,0E0,0E0,0E0,0E0],"parents":[2147483647,0,0,1,1,2,2,3,3,4,4,5,5,6,6,7,7,8,8,9,9,10,10,11,11,12,12,14,14],"right_children":[2,4,6,8,10,12,14,16,18,20,22,24,26,-1,28,-1,-1,-1,-1,-1,-1,-1,-1,-1,-1,-1,-1,-1,-1],"split_conditions":[8.1257665E-1,5.5812347E-1,1.53564E3,5.6125E-1,1.484945E3,8.0054647E-1,9.186317E-1,9.289E-1,2E0,1.458598E3,6.837E-1,2.125E-1,1.496664E3,-1.6255813E-9,2.308E-1,-2.4365485E-2,2.0689655E-2,-1.5789477E-2,-3.2984298E-2,-2.5862072E-2,2.3076922E-2,-2.5984256E-2,-1.2420385E-2,-1.4699334E-2,5.04587E-3,-2.0000022E-3,-2.3478264E-2,1.3636363E-2,5E-2],"split_indices":[4,4,10,12,9,16,4,0,17,9,3,2,9,0,0,0,0,0,0,0,0,0,0,0,0,0,0,0,0],"split_type":[0,0,0,0,0,0,0,0,0,0,0,0,0,0,0,0,0,0,0,0,0,0,0,0,0,0,0,0,0],"sum_hessian":[3.8488885E2,1.5733333E2,2.2755554E2,9.111111E1,6.622222E1,2.1822221E2,9.333333E0,2.311111E1,6.799999E1,8.444444E0,5.7777775E1,1.5688889E2,6.133333E1,2.6666665E0,6.666666E0,2.0888887E1,2.222222E0,5.333333E0,6.2666664E1,2.222222E0,6.222222E0,4.1333332E1,1.6444443E1,4.8888885E1,1.0799999E2,2.3999998E1,3.7333332E1,2.6666665E0,3.9999998E0],"tree_param":{"num_deleted":"0","num_feature":"18","num_nodes":"29","size_leaf_vector":"1"}},{"base_weights":[-4.3552566E-2,-4.37302E-1,6.1919266E-1,-2.3022714E-1,-3.57067E-2,1.1369606E0,2.6235738E-1,5.1502105E-2,-2.9059833E-1,1.196319E0,3.9622638E-1,-4.5283023E-1,3.100671E-1,1.3636363E-2,-2.1428576E-2,-4.270465E-3,-1.8053781E-2,6.108742E-2,2.0689655E-2,5.1724136E-2,-1.36363655E-2,-2.727273E-2,-1.0344829E-2,1.1944868E-2,3.7128713E-2],"categories":[],"categories_nodes":[],"categories_segments":[],"categories_sizes":[],"default_left":[0,0,0,0,0,0,0,0,0,0,0,0,0,0,0,0,0,0,0,0,0,0,0,0,0],"id":2,"left_children":[1,3,5,7,-1,9,11,13,15,17,19,21,23,-1,-1,-1,-1,-1,-1,-1,-1,-1,-1,-1,-1],"loss_changes":[1.02130424E2,1.390567E1,2.6655834E1,2.4282594E0,0E0,2.129921E0,3.1317158E0,2.8663955E0,1.6611176E0,5.756378E-1,2.7964747E0,2.1292925E-2,2.3706183E0,0E0,0E0,0E0,0E0,0E0,0E0,0E0,0E0,0E0,0E0,0E0,0E0],"parents":[2147483647,0,0,1,1,2,2,3,3,5,5,6,6,7,7,8,8,9,9,10,10,11,11,12,12],"right_children":[2,4,6,8,-1,10,12,14,16,18,20,22,24,-1,-1,-1,-1,-1,-1,-1,-1,-1,-1,-1,-1],"split_conditions":[3.709E-1,1.9194149E0,8.466817E-1,6.35E-2,-3.57067E-2,2.134E-1,2.6E1,3.542E-1,2.262E-1,1.567415E3,6.31E-2,2.146E-1,3.222E-1,1.3636363E-2,-2.1428576E-2,-4.270465E-3,-1.8053781E-2,6.108742E-2,2.0689655E-2,5.1724136E-2,-1.36363655E-2,-2.727273E-2,-1.0344829E-2,1.1944868E-2,3.7128713E-2],"split_indices":[2,5,4,3,0,1,15,2,1,9,0,0,1,0,0,0,0,0,0,0,0,0,0,0,0],"split_type":[0,0,0,0,0,0,0,0,0,0,0,0,0,0,0,0,0,0,0,0,0,0,0,0,0],"sum_hessian":[3.893333E2,2.4444443E2,1.4488889E2,1.4088889E2,1.0355555E2,5.8222218E1,8.6666664E1,2.4888887E1,1.1599999E2,5.333333E1,4.8888884E0,4.8888884E0,8.177777E1,1.7333332E1,7.5555553E0,3.0222221E1,8.577777E1,5.1111107E1,2.222222E0,2.222222E0,2.6666665E0,2.6666665E0,2.222222E0,7.155555E1,1.0222221E1],"tree_param":{"num_deleted":"0","num_feature":"18","num_nodes":"25","size_leaf_vector":"1"}},{"base_weights":[2.4115872E-1,7.8156555E-1,-2.5898486E-1,1.0634091E0,4.8344573E-1,9.467293E-2,-4.5288303E-1,9.730446E-1,6.715973E-2,8.736283E-2,6.508934E-1,1.7934929E-1,-2.4369282E-1,-6.4872456E-1,-3.250382E-1,1.33874295E-2,5.0203193E-2,-1.8303689E-2,1.9413179E-2,2.045743E-2,4.0319316E-2,3.933977E-3,4.0350143E-2,-2.7190646E-2,6.0091754E-3,-3.322607E-2,-1.0116483E-2,-2.9094294E-2,-1.0912137E-2],"categories":[],"categories_nodes":[],"categories_segments":[],"categories_sizes":[],"default_left":[0,0,0,0,0,0,0,0,0,0,0,0,0,0,0,0,0,0,0,0,0,0,0,0,0,0,0,0,0],"id":3,"left_children":[1,3,5,7,9,11,13,15,-1,17,19,21,23,25,27,-1,-1,-1,-1,-1,-1,-1,-1,-1,-1,-1,-1,-1,-1],"loss_changes":[1.0748339E2,1.5536957E1,1.4230227E1,1.1546097E0,6.2218666E0,2.166528E0,3.1391697E0,1.4206161E0,0E0,4.1377525E0,2.165409E0,3.7173424E0,1.7311985E0,2.3112106E-1,2.1485796E0,0E0,0E0,0E0,0E0,0E0,0E0,0E0,0E0,0E0,0E0,0E0,0E0,0E0,0E0],"parents":[2147483647,0,0,1,1,2,2,3,3,4,4,5,5,6,6,7,7,9,9,10,10,11,11,12,12,13,13,14,14],"right_children":[2,4,6,8,10,12,14,16,-1,18,20,22,24,26,28,-1,-1,-1,-1,-1,-1,-1,-1,-1,-1,-1,-1,-1,-1],"split_conditions":[2.41E-1,8.56E-2,4.146E-1,9.322E-1,-1.238E0,4.503E-1,-1.1752E1,1.488046E3,6.715973E-2,1.2546554E0,1.49362E3,1.469E-1,4.803E-1,-2.482E-1,-5.909E-1,1.33874295E-2,5.0203193E-2,-1.8303689E-2,1.9413179E-2,2.045743E-2,4.0319316E-2,3.933977E-3,4.0350143E-2,-2.7190646E-2,6.0091754E-3,-3.322607E-2,-1.0116483E-2,-2.9094294E-2,-1.0912137E-2],"split_indices":[2,2,2,7,11,6,11,8,0,5,9,7,0,14,7,0,0,0,0,0,0,0,0,0,0,0,0,0,0],"split_type":[0,0,0,0,0,0,0,0,0,0,0,0,0,0,0,0,0,0,0,0,0,0,0,0,0,0,0,0,0],"sum_hessian":[3.9592386E2,1.9003151E2,2.0589235E2,9.6362755E1,9.3668755E1,7.3090935E1,1.3280142E2,7.622241E1,2.0140343E1,2.8284937E1,6.538382E1,5.8836895E1,1.4254034E1,5.084273E1,8.1958694E1,3.616838E0,7.260557E1,1.1196297E1,1.7088638E1,2.7014956E1,3.8368862E1,5.1674194E1,7.1627016E0,7.5403557E0,6.713679E0,4.8633087E1,2.2096424E0,2.2763325E1,5.9195366E1],"tree_param":{"num_deleted":"0","num_feature":"18","num_nodes":"29","size_leaf_vector":"1"}},{"base_weights":[-2.368196E-1,-4.5313585E-1,-4.682668E-2,-4.0407857E-1,-3.5633165E-2,-8.053108E-2,6.4006007E-1,-5.80559E-1,-3.35555E-1,-2.320376E-2,-4.537695E-1,3.6392498E-3,9.470995E-1,-2.1838292E-2,-3.3450447E-2,3.6099453E-2,-1.8145962E-2,-2.7534866E-3,3.5738233E-2,-2.7504956E-2,2.0893112E-2,5.6620996E-2,2.0793509E-2],"categories":[],"categories_nodes":[],"categories_segments":[],"categories_sizes":[],"default_left":[0,0,0,0,0,0,0,0,0,0,0,0,0,0,0,0,0,0,0,0,0,0,0],"id":4,"left_children":[1,3,5,7,-1,9,11,13,15,17,19,-1,21,-1,-1,-1,-1,-1,-1,-1,-1,-1,-1],"loss_changes":[1.6031519E1,2.0359192E0,4.891594E0,1.6895313E0,0E0,4.2725253E0,1.6537232E0,2.4465656E-1,3.5786896E0,4.144683E0,2.4631386E0,0E0,1.526103E-1,0E0,0E0,0E0,0E0,0E0,0E0,0E0,0E0,0E0,0E0],"parents":[2147483647,0,0,1,1,2,2,3,3,5,5,6,6,7,7,8,8,9,9,10,10,12,12],"right_children":[2,4,6,8,-1,10,12,14,16,18,20,-1,22,-1,-1,-1,-1,-1,-1,-1,-1,-1,-1],"split_conditions":[2.182E-1,9.435E-1,6.32E-1,-5.477E-1,-3.5633165E-2,6.066E-1,1.498595E3,4.63E2,-5.332E-1,1.537935E3,8.56E2,3.6392498E-3,6.666667E-1,-2.1838292E-2,-3.3450447E-2,3.6099453E-2,-1.8145962E-2,-2.7534866E-3,3.5738233E-2,-2.7504956E-2,2.0893112E-2,5.6620996E-2,2.0793509E-2],"split_indices":[1,6,2,7,0,6,10,15,7,10,15,0,16,0,0,0,0,0,0,0,0,0,0],"split_type":[0,0,0,0,0,0,0,0,0,0,0,0,0,0,0,0,0,0,0,0,0,0,0],"sum_hessian":[3.8959128E2,1.8152788E2,2.080634E2,1.5481996E2,2.6707914E1,1.9917307E2,8.890336E0,4.1210693E1,1.13609276E2,1.7357507E2,2.5597988E1,3.5565104E0,5.3338256E0,1.7956604E1,2.3254087E1,2.2252648E0,1.1138401E2,1.672773E2,6.2977686E0,2.33827E1,2.2152874E0,3.1153374E0,2.2184882E0],"tree_param":{"num_deleted":"0","num_feature":"18","num_nodes":"23","size_leaf_vector":"1"}},{"base_weights":[-3.7661575E-2,7.6241636E-1,-3.9515564E-1,1.0599514E0,3.8120812E-1,-1.9993345E-1,-6.8562865E-1,2.2483874E-2,1.0959129E0,2.1502921E-1,7.461905E-1,8.760801E-3,-3.4003744E-1,-6.7202495E-3,-3.5116937E-2,2.394486E-2,5.6236383E-2,-2.7407909E-2,1.4228741E-2,5.6219757E-2,9.662655E-3,2.8309582E-2,-2.1540555E-3,-4.5175697E-3,-2.2770792E-2],"categories":[],"categories_nodes":[],"categories_segments":[],"categories_sizes":[],"default_left":[0,0,0,0,0,0,0,0,0,0,0,0,0,0,0,0,0,0,0,0,0,0,0,0,0],"id":5,"left_children":[1,3,5,7,9,11,13,-1,15,17,19,21,23,-1,-1,-1,-1,-1,-1,-1,-1,-1,-1,-1,-1],"loss_changes":[1.1515312E2,1.3700256E1,1.5638508E1,1.0276108E0,3.2404852E0,4.908926E0,9.3177414E-1,0E0,6.12175E-1,2.2755733E0,3.3666735E0,2.0002105E0,2.8516989E0,0E0,0E0,0E0,0E0,0E0,0E0,0E0,0E0,0E0,0E0,0E0,0E0],"parents":[2147483647,0,0,1,1,2,2,3,3,4,4,5,5,6,6,8,8,9,9,10,10,11,11,12,12],"right_children":[2,4,6,8,10,12,14,-1,16,18,20,22,24,-1,-1,-1,-1,-1,-1,-1,-1,-1,-1,-1,-1],"split_conditions":[-1.806E-1,2.202E-1,1.9194149E0,6.4E1,-8.72586E-1,1.469E-1,1.482463E3,2.2483874E-2,4.0983606E-2,2.242E-1,1.49974E3,2.089E-1,3.2312152E-1,-6.7202495E-3,-3.5116937E-2,2.394486E-2,5.6236383E-2,-2.7407909E-2,1.4228741E-2,5.6219757E-2,9.662655E-3,2.8309582E-2,-2.1540555E-3,-4.5175697E-3,-2.2770792E-2],"split_indices":[3,1,5,15,5,13,8,0,16,1,10,1,5,0,0,0,0,0,0,0,0,0,0,0,0],"split_type":[0,0,0,0,0,0,0,0,0,0,0,0,0,0,0,0,0,0,0,0,0,0,0,0,0],"sum_hessian":[4.0054745E2,1.2335165E2,2.771958E2,6.827901E1,5.5072636E1,1.6678836E2,1.1040743E2,4.551057E0,6.372795E1,3.89346E1,1.6138035E1,6.737149E1,9.941687E1,3.5145552E0,1.0689288E2,3.6294518E0,6.00985E1,2.676869E0,3.6257732E1,8.969484E0,7.1685495E0,4.888315E0,6.2483173E1,3.198419E1,6.7432686E1],"tree_param":{"num_deleted":"0","num_feature":"18","num_nodes":"25","size_leaf_vector":"1"}},{"base_weights":[2.3162554E-1,-3.181381E-1,7.152199E-1,-1.848826E-2,-4.7988793E-1,9.4729865E-1,3.6301035E-1,-4.192708E-1,9.2944056E-2,-2.6452383E-1,-5.6995595E-1,6.035739E-3,9.677452E-1,-1.1675084E-1,4.6068734E-1,-9.490534E-3,-3.1749234E-2,-1.3884191E-2,9.928911E-3,-2.098726E-2,1.1994658E-3,-3.2170426E-2,-1.4858215E-2,4.9216628E-2,3.1590124E-3,2.6538966E-2,-1.4856406E-2,1.8386243E-2,4.6901487E-2],"categories":[],"categories_nodes":[],"categories_segments":[],"categories_sizes":[],"default_left":[0,0,0,0,0,0,0,0,0,0,0,0,0,0,0,0,0,0,0,0,0,0,0,0,0,0,0,0,0],"id":6,"left_children":[1,3,5,7,9,11,13,15,17,19,21,-1,23,25,27,-1,-1,-1,-1,-1,-1,-1,-1,-1,-1,-1,-1,-1,-1],"loss_changes":[1.0586766E2,9.037479E0,1.6960869E1,3.0075657E0,2.1996899E0,2.02948E0,4.0702906E0,6.04228E-1,2.1234353E0,1.6938658E0,1.503458E0,0E0,1.7951355E0,1.9442941E0,2.8240433E0,0E0,0E0,0E0,0E0,0E0,0E0,0E0,0E0,0E0,0E0,0E0,0E0,0E0,0E0],"parents":[2147483647,0,0,1,1,2,2,3,3,4,4,5,5,6,6,7,7,8,8,9,9,10,10,12,12,13,13,14,14],"right_children":[2,4,6,8,10,12,14,16,18,20,22,-1,24,26,28,-1,-1,-1,-1,-1,-1,-1,-1,-1,-1,-1,-1,-1,-1],"split_conditions":[1.469E-1,4.499E-1,1.26E-1,1.3661203E-1,1.499133E3,-1.2E-2,-1.3564E1,4.13E-1,1.494059E3,1.495683E3,2.537E-1,6.035739E-3,1.537869E3,1.875E-1,1.506102E3,-9.490534E-3,-3.1749234E-2,-1.3884191E-2,9.928911E-3,-2.098726E-2,1.1994658E-3,-3.2170426E-2,-1.4858215E-2,4.9216628E-2,3.1590124E-3,2.6538966E-2,-1.4856406E-2,1.8386243E-2,4.6901487E-2],"split_indices":[3,6,2,16,9,14,11,6,9,9,1,0,9,3,9,0,0,0,0,0,0,0,0,0,0,0,0,0,0],"split_type":[0,0,0,0,0,0,0,0,0,0,0,0,0,0,0,0,0,0,0,0,0,0,0,0,0,0,0,0,0],"sum_hessian":[3.963486E2,1.8564467E2,2.1070392E2,6.5470856E1,1.20173805E2,1.2599404E2,8.4709885E1,1.3642187E1,5.182867E1,3.659867E1,8.3575134E1,3.2080338E0,1.22786E2,1.4296136E1,7.041375E1,7.5214033E0,6.120784E0,1.1134266E1,4.0694405E1,2.3500463E1,1.3098209E1,6.477503E1,1.8800098E1,1.2048838E2,2.2976243E0,2.6914794E0,1.1604656E1,6.0417747E1,9.996004E0],"tree_param":{"num_deleted":"0","num_feature":"18","num_nodes":"29","size_leaf_vector":"1"}},{"base_weights":[-2.0195295E-1,-4.4273603E-1,-6.954923E-2,-5.146605E-1,-3.1316036E-1,-9.789227E-2,5.357455E-1,-5.317394E-1,1.3440613E-3,-5.905677E-1,-1.778847E-2,-4.5294236E-2,-3.3291292E-1,-3.8297556E-3,7.7411306E-1,-2.7490823E-2,1.1657414E-3,-3.4551747E-2,-1.713598E-2,-8.01717E-3,3.0955303E-2,1.5560137E-3,-1.1227581E-2,-2.4658298E-2,-2.8025554E-3,5.110079E-2,4.050068E-3],"categories":[],"categories_nodes":[],"categories_segments":[],"categories_sizes":[],"default_left":[0,0,0,0,0,0,0,0,0,0,0,0,0,0,0,0,0,0,0,0,0,0,0,0,0,0,0],"id":7,"left_children":[1,3,5,7,9,11,13,15,-1,17,19,21,23,-1,25,-1,-1,-1,-1,-1,-1,-1,-1,-1,-1,-1,-1],"loss_changes":[1.2301435E1,1.1161499E0,4.3546185E0,8.15073E-1,4.2073298E0,2.9566293E0,1.7191126E0,8.5546494E-1,0E0,4.2338467E-1,2.4563942E0,2.7135875E0,1.9158983E0,0E0,1.3391147E0,0E0,0E0,0E0,0E0,0E0,0E0,0E0,0E0,0E0,0E0,0E0,0E0],"parents":[2147483647,0,0,1,1,2,2,3,3,4,4,5,5,6,6,7,7,9,9,10,10,11,11,12,12,14,14],"right_children":[2,4,6,8,10,12,14,16,-1,18,20,22,24,-1,26,-1,-1,-1,-1,-1,-1,-1,-1,-1,-1,-1,-1],"split_conditions":[7.532083E-1,5.5812347E-1,1.53564E3,1.533845E3,6.837E-1,4.425E-1,9.2161286E-1,9.945355E-1,1.3440613E-3,7.757E-1,8.146E-1,7.95082E-1,1.661E-1,-3.8297556E-3,1.55263E3,-2.7490823E-2,1.1657414E-3,-3.4551747E-2,-1.713598E-2,-8.01717E-3,3.0955303E-2,1.5560137E-3,-1.1227581E-2,-2.4658298E-2,-2.8025554E-3,5.110079E-2,4.050068E-3],"split_indices":[4,4,10,10,3,3,4,16,0,2,6,16,13,0,10,0,0,0,0,0,0,0,0,0,0,0,0],"split_type":[0,0,0,0,0,0,0,0,0,0,0,0,0,0,0,0,0,0,0,0,0,0,0,0,0,0,0],"sum_hessian":[3.858258E2,1.3605637E2,2.4976944E2,8.558064E1,5.047572E1,2.3939787E2,1.0371575E1,8.29817E1,2.5989432E0,2.551404E1,2.496168E1,1.9659279E2,4.2805084E1,3.0962665E0,7.2753086E0,8.0373535E1,2.6081672E0,1.6882462E1,8.631578E0,2.1007786E1,3.9538922E0,1.3841507E2,5.8177708E1,2.6617239E1,1.6187847E1,5.009166E0,2.266143E0],"tree_param":{"num_deleted":"0","num_feature":"18","num_nodes":"27","size_leaf_vector":"1"}},{"base_weights":[-2.2953859E-2,7.029958E-1,-3.7281418E-1,1.1103667E0,4.1637558E-1,-1.8489258E-1,-6.880538E-1,1.7478934E-2,5.763903E-2,8.641281E-1,3.1871217E-1,5.216819E-2,-2.0734535E-1,-1.2955564E-2,-3.4848105E-2,3.0395144E-3,5.132587E-2,2.3111438E-2,4.063293E-3,-3.8241793E-4,-1.4757097E-2],"categories":[],"categories_nodes":[],"categories_segments":[],"categories_sizes":[],"default_left":[0,0,0,0,0,0,0,0,0,0,0,0,0,0,0,0,0,0,0,0,0],"id":8,"left_children":[1,3,5,7,9,11,13,-1,-1,15,17,-1,19,-1,-1,-1,-1,-1,-1,-1,-1],"loss_changes":[1.0109007E2,1.4652386E1,1.5781181E1,1.302803E0,3.1173954E0,4.8938723E0,2.0124435E-1,0E0,0E0,1.6737442E0,2.1869607E0,0E0,2.932753E0,0E0,0E0,0E0,0E0,0E0,0E0,0E0,0E0],"parents":[2147483647,0,0,1,1,2,2,3,3,4,4,5,5,6,6,9,9,10,10,12,12],"right_children":[2,4,6,8,10,12,14,-1,-1,16,18,-1,20,-1,-1,-1,-1,-1,-1,-1,-1],"split_conditions":[-1.782E-1,7.532083E-1,1.9943557E0,4.0983606E-2,-2.899E1,1.462421E3,1.482463E3,1.7478934E-2,5.763903E-2,1.261E-1,1.49977E3,5.216819E-2,1.9201289E-1,-1.2955564E-2,-3.4848105E-2,3.0395144E-3,5.132587E-2,2.3111438E-2,4.063293E-3,-3.8241793E-4,-1.4757097E-2],"split_indices":[3,4,5,16,11,8,8,0,0,0,10,0,5,0,0,0,0,0,0,0,0],"split_type":[0,0,0,0,0,0,0,0,0,0,0,0,0,0,0,0,0,0,0,0,0],"sum_hessian":[3.959903E2,1.2845035E2,2.6753995E2,5.186337E1,7.658698E1,1.6861261E2,9.892735E1,3.226731E0,4.8636635E1,1.2308553E1,6.427843E1,2.210673E0,1.6640193E2,2.624852E0,9.63025E1,2.3008122E0,1.0007741E1,3.947338E1,2.4805046E1,5.1148857E1,1.1525308E2],"tree_param":{"num_deleted":"0","num_feature":"18","num_nodes":"21","size_leaf_vector":"1"}},{"base_weights":[2.5309822E-1,-2.7851456E-1,6.979878E-1,1.270446E-1,-4.1015258E-1,9.783493E-1,4.168819E-1,6.513355E-2,4.030822E-2,-6.111479E-1,-2.8669015E-1,5.996478E-1,1.0478195E0,5.2624773E-2,3.5150775E-1,-2.9215584E-2,6.968021E-3,-3.199428E-2,-1.3997698E-2,-2.8419493E-2,-8.586657E-3,3.7678078E-2,-7.3742704E-4,1.6958257E-2,5.3529155E-2,2.0111745E-2,-3.0592361E-2],"categories":[],"categories_nodes":[],"categories_segments":[],"categories_sizes":[],"default_left":[0,0,0,0,0,0,0,0,0,0,0,0,0,0,0,0,0,0,0,0,0,0,0,0,0,0,0],"id":9,"left_children":[1,3,5,7,9,11,13,15,-1,17,19,21,23,-1,25,-1,-1,-1,-1,-1,-1,-1,-1,-1,-1,-1,-1],"loss_changes":[9.3879166E1,9.724917E0,1.6610046E1,1.8463132E0,3.2250214E0,2.1963348E0,4.1827793E0,2.129059E0,0E0,3.0869865E-1,2.7121491E0,1.8060045E0,1.0788345E0,0E0,5.1744127E0,0E0,0E0,0E0,0E0,0E0,0E0,0E0,0E0,0E0,0E0,0E0,0E0],"parents":[2147483647,0,0,1,1,2,2,3,3,4,4,5,5,6,6,7,7,9,9,10,10,11,11,12,12,14,14],"right_children":[2,4,6,8,10,12,14,16,-1,18,20,22,24,-1,26,-1,-1,-1,-1,-1,-1,-1,-1,-1,-1,-1,-1],"split_conditions":[1.469E-1,4.149E-1,8.057053E-1,1.2904E1,-1.0584E1,1.493885E3,4.503E-1,-3.013E-1,4.030822E-2,3.027E-1,-5.909E-1,1.492085E3,-2.047E1,5.2624773E-2,1.0600259E0,-2.9215584E-2,6.968021E-3,-3.199428E-2,-1.3997698E-2,-2.8419493E-2,-8.586657E-3,3.7678078E-2,-7.3742704E-4,1.6958257E-2,5.3529155E-2,2.0111745E-2,-3.0592361E-2],"split_indices":[7,6,4,11,11,10,6,14,0,0,7,10,11,0,4,0,0,0,0,0,0,0,0,0,0,0,0],"split_type":[0,0,0,0,0,0,0,0,0,0,0,0,0,0,0,0,0,0,0,0,0,0,0,0,0,0,0],"sum_hessian":[3.9511508E2,1.8018283E2,2.1493227E2,4.4161633E1,1.360212E2,1.06366776E2,1.0856548E2,4.14764E1,2.6852324E0,5.0255615E1,8.576559E1,1.798069E1,8.8386086E1,8.716636E0,9.9848854E1,3.5493677E0,3.7927032E1,4.5385468E1,4.870145E0,2.3713001E1,6.205258E1,1.4197529E1,3.7831602E0,3.24564E0,8.514045E1,9.540747E1,4.441383E0],"tree_param":{"num_deleted":"0","num_feature":"18","num_nodes":"27","size_leaf_vector":"1"}},{"base_weights":[-2.0970324E-1,-4.1705656E-1,-3.3713955E-2,-5.19203E-1,-3.1675148E-1,4.2364523E-2,-2.0714238E-1,-5.3533995E-1,-2.5769833E-3,-3.5552126E-1,2.5912747E-2,1.5734972E-1,-1.3641797E-1,-3.8277406E-1,9.405264E-2,-2.971738E-2,-2.1142144E-2,-2.334842E-2,-9.826719E-3,5.121232E-3,4.09829E-2,-2.2345653E-2,-1.1525122E-3,-3.0374145E-2,-7.4685104E-3,2.855791E-2,-2.5734247E-3],"categories":[],"categories_nodes":[],"categories_segments":[],"categories_sizes":[],"default_left":[0,0,0,0,0,0,0,0,0,0,0,0,0,0,0,0,0,0,0,0,0,0,0,0,0,0,0],"id":10,"left_children":[1,3,5,7,9,11,13,15,-1,17,-1,19,21,23,25,-1,-1,-1,-1,-1,-1,-1,-1,-1,-1,-1,-1],"loss_changes":[1.4269257E1,1.6757412E0,2.8165607E0,6.3214684E-1,3.2008944E0,3.0793223E0,3.4774916E0,3.0893898E-1,0E0,1.4965658E0,0E0,3.226018E0,2.057979E0,2.074924E0,1.7488453E0,0E0,0E0,0E0,0E0,0E0,0E0,0E0,0E0,0E0,0E0,0E0,0E0],"parents":[2147483647,0,0,1,1,2,2,3,3,4,4,5,5,6,6,7,7,9,9,11,11,12,12,13,13,14,14],"right_children":[2,4,6,8,10,12,14,16,-1,18,-1,20,22,24,26,-1,-1,-1,-1,-1,-1,-1,-1,-1,-1,-1,-1],"split_conditions":[8.7706405E-1,5.5812347E-1,7.95082E-1,1.567415E3,8.14E-1,1.469E-1,8.13E2,1.501487E3,-2.5769833E-3,6.612022E-1,2.5912747E-2,2.9907224E-1,4.955E-1,7.26E-2,-8.4963703E-1,-2.971738E-2,-2.1142144E-2,-2.334842E-2,-9.826719E-3,5.121232E-3,4.09829E-2,-2.2345653E-2,-1.1525122E-3,-3.0374145E-2,-7.4685104E-3,2.855791E-2,-2.5734247E-3],"split_indices":[4,4,16,9,0,3,15,9,0,16,0,5,6,3,5,0,0,0,0,0,0,0,0,0,0,0,0],"split_type":[0,0,0,0,0,0,0,0,0,0,0,0,0,0,0,0,0,0,0,0,0,0,0,0,0,0,0],"sum_hessian":[3.9040997E2,1.7860501E2,2.1180498E2,8.642112E1,9.218388E1,1.477477E2,6.405729E1,8.33987E1,3.0224218E0,8.86424E1,3.5414844E0,8.998992E1,5.7757763E1,4.02917E1,2.3765589E1,5.189513E1,3.1503569E1,5.0973606E1,3.7668797E1,8.41648E1,5.8251224E0,1.4661161E1,4.3096603E1,1.9711653E1,2.0580046E1,4.8709097E0,1.889468E1],"tree_param":{"num_deleted":"0","num_feature":"18","num_nodes":"27","size_leaf_vector":"1"}},{"base_weights":[-2.8689677E-2,-3.712581E-1,5.947563E-1,-1.3432047E-1,-6.275475E-1,9.664118E-1,2.5237975E-1,5.394145E-1,-1.6999328E-1,-3.861995E-1,-6.69095E-1,5.2188642E-2,5.30228E-1,1.2953609E-1,7.3056275E-1,-1.0178714E-2,4.7189903E-2,-3.3571687E-2,-6.0011665E-3,-2.5118575E-2,9.66907E-3,-2.4698777E-2,-3.4783266E-2,3.9469644E-2,-6.13993E-3,1.79252E-2,-7.4289106E-3,4.4473037E-2,6.3011283E-3],"categories":[],"categories_nodes":[],"categories_segments":[],"categories_sizes":[],"default_left":[0,0,0,0,0,0,0,0,0,0,0,0,0,0,0,0,0,0,0,0,0,0,0,0,0,0,0,0,0],"id":11,"left_children":[1,3,5,7,9,11,13,15,17,19,21,-1,23,25,27,-1,-1,-1,-1,-1,-1,-1,-1,-1,-1,-1,-1,-1,-1],"loss_changes":[8.2061806E1,1.4970837E1,1.7096523E1,3.218483E0,9.331169E-1,1.6395531E0,4.151499E0,2.2297015E0,3.0344095E0,1.4314232E0,1.217041E-1,0E0,2.0978184E0,3.792894E0,1.2864227E0,0E0,0E0,0E0,0E0,0E0,0E0,0E0,0E0,0E0,0E0,0E0,0E0,0E0,0E0],"parents":[2147483647,0,0,1,1,2,2,3,3,4,4,5,5,6,6,7,7,8,8,9,9,10,10,12,12,13,13,14,14],"right_children":[2,4,6,8,10,12,14,16,18,20,22,-1,24,26,28,-1,-1,-1,-1,-1,-1,-1,-1,-1,-1,-1,-1,-1,-1],"split_conditions":[4.146E-1,1.5443853E0,2.129E-1,1.477792E3,5.712E-1,5.77E-1,-2.96E-1,3E0,1.48994E3,5.689E-1,1.3661203E-1,5.2188642E-2,-1.7509722E0,1.49977E3,8.28E2,-1.0178714E-2,4.7189903E-2,-3.3571687E-2,-6.0011665E-3,-2.5118575E-2,9.66907E-3,-2.4698777E-2,-3.4783266E-2,3.9469644E-2,-6.13993E-3,1.79252E-2,-7.4289106E-3,4.4473037E-2,6.3011283E-3],"split_indices":[2,5,1,8,12,12,14,17,10,12,16,0,5,10,15,0,0,0,0,0,0,0,0,0,0,0,0,0,0],"split_type":[0,0,0,0,0,0,0,0,0,0,0,0,0,0,0,0,0,0,0,0,0,0,0,0,0,0,0,0,0],"sum_hessian":[3.8219937E2,2.4692473E2,1.3527464E2,1.2909836E2,1.1782637E2,6.398988E1,7.128476E1,5.781666E0,1.23316696E2,1.8816614E1,9.900976E1,5.316724E1,1.082264E1,5.7726025E1,1.3558734E1,2.2127252E0,3.5689406E0,1.0048168E1,1.13268524E2,1.5785719E1,3.0308955E0,1.5624331E1,8.338542E1,7.5983014E0,3.2243388E0,3.1501884E1,2.622414E1,1.0363483E1,3.1952503E0],"tree_param":{"num_deleted":"0","num_feature":"18","num_nodes":"29","size_leaf_vector":"1"}},{"base_weights":[2.3131667E-1,6.518457E-1,-2.5270146E-1,8.986392E-1,3.9539808E-1,-5.3307915E-1,-6.427934E-2,9.466074E-1,4.6826145E-1,7.3680973E-1,2.9757655E-1,-2.7668095E-1,-6.254874E-1,-3.9255473E-1,2.9412495E-2,2.8968174E-2,5.016589E-2,-1.3862218E-2,3.306329E-2,4.6529815E-2,7.992696E-3,2.7734661E-2,4.652775E-3,-2.5092049E-2,1.7914905E-3,-3.2047756E-2,-7.986681E-3,7.6127513E-3,-2.3802424E-2,-1.629982E-2,6.034375E-3],"categories":[],"categories_nodes":[],"categories_segments":[],"categories_sizes":[],"default_left":[0,0,0,0,0,0,0,0,0,0,0,0,0,0,0,0,0,0,0,0,0,0,0,0,0,0,0,0,0,0,0],"id":12,"left_children":[1,3,5,7,9,11,13,15,17,19,21,23,25,27,29,-1,-1,-1,-1,-1,-1,-1,-1,-1,-1,-1,-1,-1,-1,-1,-1],"loss_changes":[8.241971E1,1.3348076E1,9.92913E0,1.8183594E0,3.3866043E0,1.6196709E0,3.51571E0,1.451088E0,2.0487502E0,2.4639435E0,4.449734E0,1.5546591E0,2.925911E-1,1.226362E0,2.9448285E0,0E0,0E0,0E0,0E0,0E0,0E0,0E0,0E0,0E0,0E0,0E0,0E0,0E0,0E0,0E0,0E0],"parents":[2147483647,0,0,1,1,2,2,3,3,4,4,5,5,6,6,7,7,8,8,9,9,10,10,11,11,12,12,13,13,14,14],"right_children":[2,4,6,8,10,12,14,16,18,20,22,24,26,28,30,-1,-1,-1,-1,-1,-1,-1,-1,-1,-1,-1,-1,-1,-1,-1,-1],"split_conditions":[2.635E-1,8.56E-2,9.650464E-1,9.3715847E-1,4E0,1.498836E3,1.7213115E-1,1.492915E3,1.6375E-1,1.1432E1,4.28E2,8.5731864E-1,1.529108E3,1.489186E3,1.494059E3,2.8968174E-2,5.016589E-2,-1.3862218E-2,3.306329E-2,4.6529815E-2,7.992696E-3,2.7734661E-2,4.652775E-3,-2.5092049E-2,1.7914905E-3,-3.2047756E-2,-7.986681E-3,7.6127513E-3,-2.3802424E-2,-1.629982E-2,6.034375E-3],"split_indices":[2,2,4,16,17,9,16,10,14,11,15,4,8,9,9,0,0,0,0,0,0,0,0,0,0,0,0,0,0,0,0],"split_type":[0,0,0,0,0,0,0,0,0,0,0,0,0,0,0,0,0,0,0,0,0,0,0,0,0,0,0,0,0,0,0],"sum_hessian":[4.0311465E2,2.1551886E2,1.875958E2,1.0855056E2,1.069683E2,7.4664154E1,1.1293164E2,9.658598E1,1.1964571E1,2.2368109E1,8.460019E1,2.08387E1,5.382546E1,2.4366608E1,8.856503E1,1.4420203E1,8.216579E1,2.3707507E0,9.593821E0,1.6285297E1,6.082811E0,3.672219E1,4.7878002E1,1.1759961E1,9.078738E0,5.173129E1,2.0941687E0,3.1285806E0,2.1238028E1,1.7571829E1,7.09932E1],"tree_param":{"num_deleted":"0","num_feature":"18","num_nodes":"31","size_leaf_vector":"1"}},{"base_weights":[-2.0367429E-1,-4.2523673E-1,-1.7533142E-2,-1.9606858E-1,-4.725445E-1,-4.620803E-2,5.1280934E-1,-3.227025E-2,1.7790226E-2,-4.9024904E-1,-5.6282002E-2,-4.0616482E-1,9.705823E-3,-9.962929E-3,7.1739155E-1,1.0397303E-2,-2.940008E-2,-2.0738922E-3,-2.4991665E-2,-1.8753104E-2,2.2751745E-2,-2.9166097E-2,-2.0983035E-4,-9.798376E-4,3.341207E-2,1.4227531E-2,4.832843E-2],"categories":[],"categories_nodes":[],"categories_segments":[],"categories_sizes":[],"default_left":[0,0,0,0,0,0,0,0,0,0,0,0,0,0,0,0,0,0,0,0,0,0,0,0,0,0,0],"id":13,"left_children":[1,3,5,7,9,11,13,-1,15,17,19,21,23,-1,25,-1,-1,-1,-1,-1,-1,-1,-1,-1,-1,-1,-1],"loss_changes":[1.5830825E1,1.8077564E0,3.2133546E0,3.057993E0,1.037983E0,4.0272617E0,1.7222862E0,0E0,2.7087622E0,5.7523346E-1,1.3162885E0,1.9131451E0,3.3707526E0,0E0,6.567316E-1,0E0,0E0,0E0,0E0,0E0,0E0,0E0,0E0,0E0,0E0,0E0,0E0],"parents":[2147483647,0,0,1,1,2,2,3,3,4,4,5,5,6,6,8,8,9,9,10,10,11,11,12,12,14,14],"right_children":[2,4,6,8,10,12,14,-1,16,18,20,22,24,-1,26,-1,-1,-1,-1,-1,-1,-1,-1,-1,-1,-1,-1],"split_conditions":[2.163E-1,1.493515E3,6.32E-1,1.377E-1,1.533845E3,9.186317E-1,1.49648E3,-3.227025E-2,2.8275E-1,9E0,6E0,5.8305E-1,1.537935E3,-9.962929E-3,2.247E-1,1.0397303E-2,-2.940008E-2,-2.0738922E-3,-2.4991665E-2,-1.8753104E-2,2.2751745E-2,-2.9166097E-2,-2.0983035E-4,-9.798376E-4,3.341207E-2,1.4227531E-2,4.832843E-2],"split_indices":[1,10,2,0,10,4,10,0,14,15,17,12,10,0,1,0,0,0,0,0,0,0,0,0,0,0,0],"split_type":[0,0,0,0,0,0,0,0,0,0,0,0,0,0,0,0,0,0,0,0,0,0,0,0,0,0,0],"sum_hessian":[3.8303378E2,1.7429144E2,2.0874232E2,3.0703262E1,1.4358818E2,1.989009E2,9.841426E0,9.2500925E0,2.145317E1,1.3755972E2,6.028458E0,2.5900036E1,1.7300087E2,2.2022629E0,7.6391635E0,1.6827742E1,4.6254296E0,2.98779E0,1.3457193E2,3.8775077E0,2.1509504E0,1.7663944E1,8.236092E0,1.6655977E2,6.441097E0,3.573559E0,4.065604E0],"tree_param":{"num_deleted":"0","num_feature":"18","num_nodes":"27","size_leaf_vector":"1"}},{"base_weights":[-4.7247473E-2,4.9265137E-1,-3.7951708E-1,9.6204305E-1,1.973812E-1,-6.455305E-1,-1.9589466E-1,9.853138E-1,1.53023945E-2,6.472516E-1,2.0276643E-2,-5.62413E-3,-3.3195984E-2,3.1512257E-2,-3.5263425E-1,3.2876424E-2,5.2684367E-2,1.280978E-2,4.939369E-2,-6.7715705E-3,2.321152E-2,2.8460866E-2,-1.3711735E-3,-1.9212617E-2,1.215329E-2],"categories":[],"categories_nodes":[],"categories_segments":[],"categories_sizes":[],"default_left":[0,0,0,0,0,0,0,0,0,0,0,0,0,0,0,0,0,0,0,0,0,0,0,0,0],"id":14,"left_children":[1,3,5,7,9,11,13,15,-1,17,19,-1,-1,21,23,-1,-1,-1,-1,-1,-1,-1,-1,-1,-1],"loss_changes":[6.9116005E1,2.0158665E1,1.1519382E1,5.5994415E-1,7.2677317E0,8.7545395E-1,5.0899496E0,5.185547E-1,0E0,3.1810055E0,4.6668744E0,0E0,0E0,1.8871114E0,1.6836805E0,0E0,0E0,0E0,0E0,0E0,0E0,0E0,0E0,0E0,0E0],"parents":[2147483647,0,0,1,1,2,2,3,3,4,4,5,5,6,6,7,7,9,9,10,10,13,13,14,14],"right_children":[2,4,6,8,10,12,14,16,-1,18,20,-1,-1,22,24,-1,-1,-1,-1,-1,-1,-1,-1,-1,-1],"split_conditions":[-6.53E-2,8.1257665E-1,8.057053E-1,1.5314E3,1.7213115E-1,1.482463E3,-2.088E0,1.92E2,1.53023945E-2,5.54E2,8.442623E-1,-5.62413E-3,-3.3195984E-2,2.089E-1,9.05E2,3.2876424E-2,5.2684367E-2,1.280978E-2,4.939369E-2,-6.7715705E-3,2.321152E-2,2.8460866E-2,-1.3711735E-3,-1.9212617E-2,1.215329E-2],"split_indices":[7,4,4,10,16,8,11,15,0,15,16,0,0,1,15,0,0,0,0,0,0,0,0,0,0],"split_type":[0,0,0,0,0,0,0,0,0,0,0,0,0,0,0,0,0,0,0,0,0,0,0,0,0],"sum_hessian":[3.83237E2,1.4581773E2,2.3741927E2,5.543477E1,9.0382965E1,9.593006E1,1.414892E2,5.305084E1,2.383932E0,2.4781033E1,6.560193E1,3.4363697E0,9.249369E1,5.8056465E1,8.343274E1,1.0988467E1,4.206237E1,1.2352133E1,1.2428899E1,4.908224E1,1.651969E1,4.8795166E0,5.317695E1,7.956463E1,3.8681061E0],"tree_param":{"num_deleted":"0","num_feature":"18","num_nodes":"25","size_leaf_vector":"1"}},{"base_weights":[2.1957448E-1,6.8600214E-1,-2.3685399E-1,4.6487308E-1,8.917078E-1,-5.9423304E-1,-1.3244139E-1,-9.2943884E-2,5.329109E-1,9.1216487E-1,7.2075846E-3,-2.1113923E-1,-6.3109344E-1,-4.075755E-1,-4.944047E-2,-2.143036E-2,2.9061144E-2,2.9794833E-2,-5.981026E-3,1.1867681E-2,4.669261E-2,9.449019E-3,-2.5041793E-2,-7.761027E-3,-3.2625563E-2,3.827871E-2,-2.6274059E-2,-1.0054065E-2,7.029403E-3],"categories":[],"categories_nodes":[],"categories_segments":[],"categories_sizes":[],"default_left":[0,0,0,0,0,0,0,0,0,0,0,0,0,0,0,0,0,0,0,0,0,0,0,0,0,0,0,0,0],"id":15,"left_children":[1,3,5,7,9,11,13,15,17,19,-1,21,23,25,27,-1,-1,-1,-1,-1,-1,-1,-1,-1,-1,-1,-1,-1,-1],"loss_changes":[8.535473E1,8.599869E0,7.4960566E0,3.7535248E0,1.4219208E0,5.108261E-1,3.5967765E0,2.842716E0,3.652504E0,1.2225723E0,0E0,7.328863E-1,3.17667E-1,5.4605436E0,3.5673313E0,0E0,0E0,0E0,0E0,0E0,0E0,0E0,0E0,0E0,0E0,0E0,0E0,0E0,0E0],"parents":[2147483647,0,0,1,1,2,2,3,3,4,4,5,5,6,6,7,7,8,8,9,9,11,11,12,12,13,13,14,14],"right_children":[2,4,6,8,10,12,14,16,18,20,-1,22,24,26,28,-1,-1,-1,-1,-1,-1,-1,-1,-1,-1,-1,-1,-1,-1],"split_conditions":[2.39E-1,7.332E-1,-5.909E-1,-1.4712E1,9.945355E-1,1.490778E3,1.5846995E-1,7.85E2,9.535519E-1,1E0,7.2075846E-3,8.21E2,4.0983606E-2,2.691E-1,1.0700002E0,-2.143036E-2,2.9061144E-2,2.9794833E-2,-5.981026E-3,1.1867681E-2,4.669261E-2,9.449019E-3,-2.5041793E-2,-7.761027E-3,-3.2625563E-2,3.827871E-2,-2.6274059E-2,-1.0054065E-2,7.029403E-3],"split_indices":[2,0,3,11,16,9,16,15,16,17,0,15,16,2,4,0,0,0,0,0,0,0,0,0,0,0,0,0,0],"split_type":[0,0,0,0,0,0,0,0,0,0,0,0,0,0,0,0,0,0,0,0,0,0,0,0,0,0,0,0,0],"sum_hessian":[3.9916864E2,1.9717305E2,2.0199557E2,9.6595215E1,1.00577835E2,4.4611164E1,1.5738441E2,1.0461244E1,8.613397E1,9.768447E1,2.8933606E0,4.506169E0,4.0104996E1,3.5568916E1,1.218155E2,7.227139E0,3.2341046E0,7.86309E1,7.503078E0,3.4135783E0,9.42709E1,2.0384243E0,2.4677446E0,2.0824823E0,3.802251E1,2.746674E0,3.2822243E1,6.771859E1,5.4096905E1],"tree_param":{"num_deleted":"0","num_feature":"18","num_nodes":"29","size_leaf_vector":"1"}},{"base_weights":[-1.8372725E-1,-4.1704443E-1,-5.9724174E-2,-5.792906E-1,-3.6396882E-1,-8.903846E-2,5.6946087E-1,9.263857E-3,-3.3698704E-2,-5.199851E-1,-2.4895164E-1,-2.8075783E-2,-3.4807965E-1,9.2196923E-1,-1.2487025E-3,8.869498E-3,-8.0096E-3,3.1742135E-3,-2.7953893E-2,2.2573784E-2,-1.4160544E-2,2.4732393E-3,-1.1222056E-2,1.465212E-2,-2.329146E-2,5.4167837E-2,2.0140007E-2],"categories":[],"categories_nodes":[],"categories_segments":[],"categories_sizes":[],"default_left":[0,0,0,0,0,0,0,0,0,0,0,0,0,0,0,0,0,0,0,0,0,0,0,0,0,0,0],"id":16,"left_children":[1,3,5,7,9,11,13,15,-1,17,19,21,23,25,-1,-1,-1,-1,-1,-1,-1,-1,-1,-1,-1,-1,-1],"loss_changes":[1.074225E1,8.9987373E-1,4.5541983E0,1.6837931E0,1.6628542E0,3.688123E0,2.3290224E0,1.753727E-1,0E0,9.8133564E-1,1.5535438E0,2.9138827E0,3.497563E0,1.4465475E-1,0E0,0E0,0E0,0E0,0E0,0E0,0E0,0E0,0E0,0E0,0E0,0E0,0E0],"parents":[2147483647,0,0,1,1,2,2,3,3,4,4,5,5,6,6,7,7,9,9,10,10,11,11,12,12,13,13],"right_children":[2,4,6,8,10,12,14,16,-1,18,20,22,24,26,-1,-1,-1,-1,-1,-1,-1,-1,-1,-1,-1,-1,-1],"split_conditions":[7.532083E-1,2.630062E-1,1.53564E3,-2.899E1,6.837E-1,4.425E-1,8.98E2,8.49E2,-3.3698704E-2,6.4E1,2.3080325E0,7.95082E-1,1.48913E3,-5.075E-2,-1.2487025E-3,8.869498E-3,-8.0096E-3,3.1742135E-3,-2.7953893E-2,2.2573784E-2,-1.4160544E-2,2.4732393E-3,-1.1222056E-2,1.465212E-2,-2.329146E-2,5.4167837E-2,2.0140007E-2],"split_indices":[4,4,10,11,3,3,15,15,0,15,5,16,10,14,0,0,0,0,0,0,0,0,0,0,0,0,0],"split_type":[0,0,0,0,0,0,0,0,0,0,0,0,0,0,0,0,0,0,0,0,0,0,0,0,0,0,0],"sum_hessian":[3.7115332E2,1.27983536E2,2.4316977E2,2.910336E1,9.888018E1,2.331649E2,1.0004872E1,4.1581783E0,2.494518E1,4.046715E1,5.841303E1,1.896428E2,4.3522102E1,5.934581E0,4.0702915E0,2.063776E0,2.0944023E0,2.5018904E0,3.796526E1,2.1559792E0,5.625705E1,1.3649277E2,5.315004E1,6.522071E0,3.700003E1,3.6982422E0,2.2363386E0],"tree_param":{"num_deleted":"0","num_feature":"18","num_nodes":"27","size_leaf_vector":"1"}},{"base_weights":[-4.258813E-2,-3.8516745E-1,5.381671E-1,-3.2776665E-2,-2.0620413E-1,9.3801624E-1,2.343851E-1,8.530389E-4,-3.422098E-1,1.32215535E-2,9.8471004E-1,2.9943323E-1,-1.890854E-1,5.9710843E-3,-1.4632436E-2,1.5111059E-2,-1.8632824E-2,1.2776746E-2,5.1315922E-2,2.3323214E-2,5.508526E-3,-2.6489044E-2,1.672323E-2],"categories":[],"categories_nodes":[],"categories_segments":[],"categories_sizes":[],"default_left":[0,0,0,0,0,0,0,0,0,0,0,0,0,0,0,0,0,0,0,0,0,0,0],"id":17,"left_children":[1,3,5,-1,7,9,11,13,15,-1,17,19,21,-1,-1,-1,-1,-1,-1,-1,-1,-1,-1],"loss_changes":[7.6049934E1,1.1494385E1,1.7010662E1,0E0,4.1140723E0,1.6553726E0,2.3138323E0,2.0850463E0,1.842598E0,0E0,1.4547997E0,2.2063756E0,2.2327485E0,0E0,0E0,0E0,0E0,0E0,0E0,0E0,0E0,0E0,0E0],"parents":[2147483647,0,0,1,1,2,2,4,4,5,5,6,6,7,7,8,8,10,10,11,11,12,12],"right_children":[2,4,6,-1,8,10,12,14,16,-1,18,20,22,-1,-1,-1,-1,-1,-1,-1,-1,-1,-1],"split_conditions":[3.855E-1,9.56E-2,2.089E-1,-3.2776665E-2,-1.888E0,4.0983606E-2,6.239E-1,2.981E-1,-3.1505E-1,1.32215535E-2,6.4E1,2.743E-1,6.605E-1,5.9710843E-3,-1.4632436E-2,1.5111059E-2,-1.8632824E-2,1.2776746E-2,5.1315922E-2,2.3323214E-2,5.508526E-3,-2.6489044E-2,1.672323E-2],"split_indices":[2,2,1,0,11,16,6,1,14,0,15,1,2,0,0,0,0,0,0,0,0,0,0],"split_type":[0,0,0,0,0,0,0,0,0,0,0,0,0,0,0,0,0,0,0,0,0,0,0],"sum_hessian":[3.802055E2,2.3935194E2,1.4085355E2,9.427088E1,1.4508107E2,5.9910004E1,8.094355E1,5.7910667E1,8.71704E1,4.315759E0,5.5594242E1,7.041951E1,1.0524038E1,4.1669975E1,1.6240694E1,3.5299375E0,8.3640465E1,3.3865957E0,5.220765E1,3.6628727E1,3.3790783E1,6.368132E0,4.155906E0],"tree_param":{"num_deleted":"0","num_feature":"18","num_nodes":"23","size_leaf_vector":"1"}},{"base_weights":[2.2625762E-1,-2.6644728E-1,6.2652725E-1,-1.263081E-1,-5.268575E-1,2.8924045E-1,7.795113E-1,-4.444337E-1,-2.9268265E-2,-8.362624E-2,-5.763799E-1,8.0604523E-1,1.7939325E-1,4.737576E-1,8.4920216E-1,-3.2657135E-2,-1.2852373E-2,2.3247955E-2,-4.020817E-3,-2.5792781E-2,1.4221738E-2,-3.0801138E-2,-1.4567563E-2,4.915941E-2,1.8851344E-3,-1.0231726E-2,1.9776631E-2,9.524754E-3,3.9512303E-2,4.3227434E-2,7.5287023E-3],"categories":[],"categories_nodes":[],"categories_segments":[],"categories_sizes":[],"default_left":[0,0,0,0,0,0,0,0,0,0,0,0,0,0,0,0,0,0,0,0,0,0,0,0,0,0,0,0,0,0,0],"id":18,"left_children":[1,3,5,7,9,11,13,15,17,19,21,23,25,27,29,-1,-1,-1,-1,-1,-1,-1,-1,-1,-1,-1,-1,-1,-1,-1,-1],"loss_changes":[8.043235E1,6.6166964E0,1.137722E1,3.7031283E0,1.351265E0,3.9289246E0,2.881401E0,9.297552E-1,2.3961725E0,1.3521928E0,4.6661758E-1,1.6359377E0,5.0996256E0,2.6166863E0,1.2018356E0,0E0,0E0,0E0,0E0,0E0,0E0,0E0,0E0,0E0,0E0,0E0,0E0,0E0,0E0,0E0,0E0],"parents":[2147483647,0,0,1,1,2,2,3,3,4,4,5,5,6,6,7,7,8,8,9,9,10,10,11,11,12,12,13,13,14,14],"right_children":[2,4,6,8,10,12,14,16,18,20,22,24,26,28,30,-1,-1,-1,-1,-1,-1,-1,-1,-1,-1,-1,-1,-1,-1,-1,-1],"split_conditions":[1.469E-1,6.23E-1,1.3708507E0,1.5846995E-1,1.490778E3,4.503E-1,1.49424E3,-2.236E0,2.4863388E-1,1.415E-1,1.225E-1,6.18E2,-1.238E0,7.704E-1,9.945355E-1,-3.2657135E-2,-1.2852373E-2,2.3247955E-2,-4.020817E-3,-2.5792781E-2,1.4221738E-2,-3.0801138E-2,-1.4567563E-2,4.915941E-2,1.8851344E-3,-1.0231726E-2,1.9776631E-2,9.524754E-3,3.9512303E-2,4.3227434E-2,7.5287023E-3],"split_indices":[3,2,5,16,9,0,10,11,16,1,0,15,11,3,16,0,0,0,0,0,0,0,0,0,0,0,0,0,0,0,0],"split_type":[0,0,0,0,0,0,0,0,0,0,0,0,0,0,0,0,0,0,0,0,0,0,0,0,0,0,0,0,0,0,0],"sum_hessian":[4.0599484E2,1.8213423E2,2.2386061E2,1.1937687E2,6.2757366E1,7.0755424E1,1.531052E2,2.706612E1,9.231075E1,6.5774093E0,5.6179955E1,1.1291892E1,5.946353E1,2.9867208E1,1.23237976E2,1.1628674E1,1.5437446E1,7.8986073E0,8.441214E1,2.8403356E0,3.7370737E0,4.830082E1,7.879136E0,8.949048E0,2.342844E0,2.1433887E1,3.8029644E1,1.6606245E1,1.3260965E1,1.2035665E2,2.8813295E0],"tree_param":{"num_deleted":"0","num_feature":"18","num_nodes":"31","size_leaf_vector":"1"}},{"base_weights":[-2.0030323E-1,-4.2158875E-1,-1.7440518E-2,-1.4239223E-1,-5.124482E-1,-3.9025027E-2,6.035375E-1,5.3225785E-1,-3.1690192E-1,-4.1938787E-3,-5.2318376E-1,-5.799932E-2,6.4639413E-1,4.2345803E-2,3.426065E-3,1.5515523E-3,4.4485845E-2,-2.8919468E-2,-6.4278035E-3,-8.599964E-3,-2.6683299E-2,-2.1585293E-2,-1.3382098E-3,4.893084E-2,5.254507E-3],"categories":[],"categories_nodes":[],"categories_segments":[],"categories_sizes":[],"default_left":[0,0,0,0,0,0,0,0,0,0,0,0,0,0,0,0,0,0,0,0,0,0,0,0,0],"id":19,"left_children":[1,3,5,7,9,11,13,15,17,-1,19,21,23,-1,-1,-1,-1,-1,-1,-1,-1,-1,-1,-1,-1],"loss_changes":[1.5238521E1,4.2504673E0,2.802597E0,5.258335E0,5.459595E-1,2.6556177E0,8.5676336E-1,1.6310301E0,1.648072E0,0E0,3.6790085E-1,2.2857237E0,8.871558E-1,0E0,0E0,0E0,0E0,0E0,0E0,0E0,0E0,0E0,0E0,0E0,0E0],"parents":[2147483647,0,0,1,1,2,2,3,3,4,4,5,5,6,6,7,7,8,8,10,10,11,11,12,12],"right_children":[2,4,6,8,10,12,14,16,18,-1,20,22,24,-1,-1,-1,-1,-1,-1,-1,-1,-1,-1,-1,-1],"split_conditions":[2.182E-1,1.491833E3,1.537935E3,7.001E-1,1.485045E3,6.556E-1,1.539883E3,1.48913E3,9.71E-2,-4.1938787E-3,8.4E-3,-3.0392E1,6.918E-1,4.2345803E-2,3.426065E-3,1.5515523E-3,4.4485845E-2,-2.8919468E-2,-6.4278035E-3,-8.599964E-3,-2.6683299E-2,-2.1585293E-2,-1.3382098E-3,4.893084E-2,5.254507E-3],"split_indices":[1,9,10,6,10,2,8,10,1,0,0,11,2,0,0,0,0,0,0,0,0,0,0,0,0],"split_type":[0,0,0,0,0,0,0,0,0,0,0,0,0,0,0,0,0,0,0,0,0,0,0,0,0],"sum_hessian":[3.7576816E2,1.6943106E2,2.0633711E2,4.223055E1,1.2720051E2,2.0031166E2,6.0254555E0,8.257446E0,3.3973103E1,3.3238323E0,1.2387667E2,1.9580656E2,4.505085E0,3.7407963E0,2.2846594E0,3.8898842E0,4.367562E0,1.3357503E1,2.06156E1,4.0948815E0,1.1978179E2,1.4114555E1,1.8169202E2,2.2910664E0,2.2140183E0],"tree_param":{"num_deleted":"0","num_feature":"18","num_nodes":"25","size_leaf_vector":"1"}},{"base_weights":[-3.4717947E-2,-3.6402336E-1,5.3482234E-1,-6.097596E-1,-1.6852771E-1,8.8127303E-1,2.86491E-1,-4.947715E-3,-6.2507313E-1,-2.9294066E-2,-4.1252425E-1,9.022159E-1,1.3693492E-2,5.414265E-2,2.2105828E-1,-3.2062266E-2,-1.3088535E-2,-3.930488E-3,4.22647E-2,-3.0187834E-2,-1.631346E-2,4.6609122E-2,1.911941E-2,-1.895882E-2,1.2578152E-2],"categories":[],"categories_nodes":[],"categories_segments":[],"categories_sizes":[],"default_left":[0,0,0,0,0,0,0,0,0,0,0,0,0,0,0,0,0,0,0,0,0,0,0,0,0],"id":20,"left_children":[1,3,5,7,9,11,13,-1,15,17,19,21,-1,-1,23,-1,-1,-1,-1,-1,-1,-1,-1,-1,-1],"loss_changes":[7.363714E1,1.1845642E1,1.212508E1,7.9714966E-1,4.7406645E0,5.108795E-1,4.204512E0,0E0,4.5746994E-1,3.9546318E0,6.4014626E-1,5.34008E-1,0E0,0E0,1.561348E0,0E0,0E0,0E0,0E0,0E0,0E0,0E0,0E0,0E0,0E0],"parents":[2147483647,0,0,1,1,2,2,3,3,4,4,5,5,6,6,8,8,9,9,10,10,11,11,14,14],"right_children":[2,4,6,8,10,12,14,-1,16,18,20,22,-1,-1,24,-1,-1,-1,-1,-1,-1,-1,-1,-1,-1],"split_conditions":[4.146E-1,1.26E-1,-5.909E-1,1.482463E3,2.814E0,1.5323E3,1.472295E3,-4.947715E-3,9.05E2,1.88E0,4.21E2,2.024E-1,1.3693492E-2,5.414265E-2,-5.9648E1,-3.2062266E-2,-1.3088535E-2,-3.930488E-3,4.22647E-2,-3.0187834E-2,-1.631346E-2,4.6609122E-2,1.911941E-2,-1.895882E-2,1.2578152E-2],"split_indices":[2,2,3,8,11,10,8,0,15,11,15,1,0,0,11,0,0,0,0,0,0,0,0,0,0],"split_type":[0,0,0,0,0,0,0,0,0,0,0,0,0,0,0,0,0,0,0,0,0,0,0,0,0],"sum_hessian":[3.9058307E2,2.4771582E2,1.4286725E2,1.08816025E2,1.388998E2,5.8585274E1,8.428197E1,3.384448E0,1.0543158E2,8.914841E1,4.9751385E1,5.616343E1,2.4218438E0,5.218621E0,7.906335E1,1.0020593E2,5.225646E0,8.525143E1,3.8969831E0,1.3599922E1,3.6151463E1,5.2352226E1,3.811203E0,3.270982E0,7.5792366E1],"tree_param":{"num_deleted":"0","num_feature":"18","num_nodes":"25","size_leaf_vector":"1"}},{"base_weights":[1.8774234E-1,-1.5864712E-1,7.25685E-1,-4.7865832E-1,6.891229E-2,5.894309E-1,8.622993E-1,-6.201173E-1,-3.6366376E-1,-6.853379E-2,1.8528242E-1,6.1764175E-1,-1.3321417E-2,5.0932884E-1,9.123466E-1,-1.281706E-2,-3.3062007E-2,-1.2225226E-2,-3.1011684E-2,-6.9057182E-3,3.2939103E-2,3.953852E-2,6.629374E-3,1.7751371E-2,3.7163228E-2,3.885756E-2,8.094486E-3,4.657352E-2,2.1756575E-2],"categories":[],"categories_nodes":[],"categories_segments":[],"categories_sizes":[],"default_left":[0,0,0,0,0,0,0,0,0,0,0,0,0,0,0,0,0,0,0,0,0,0,0,0,0,0,0,0,0],"id":21,"left_children":[1,3,5,7,9,11,13,15,17,19,21,23,-1,25,27,-1,-1,-1,-1,-1,-1,-1,-1,-1,-1,-1,-1,-1,-1],"loss_changes":[7.592562E1,1.8115004E1,2.4614258E0,1.4551411E0,2.347737E0,2.1693916E0,9.0444565E-1,5.0232315E-1,1.6645885E0,3.5152276E0,2.4261322E0,2.3980007E0,0E0,9.804199E-1,2.026329E-1,0E0,0E0,0E0,0E0,0E0,0E0,0E0,0E0,0E0,0E0,0E0,0E0,0E0,0E0],"parents":[2147483647,0,0,1,1,2,2,3,3,4,4,5,5,6,6,7,7,8,8,9,9,10,10,11,11,13,13,14,14],"right_children":[2,4,6,8,10,12,14,16,18,20,22,24,-1,26,28,-1,-1,-1,-1,-1,-1,-1,-1,-1,-1,-1,-1,-1,-1],"split_conditions":[4.407E-1,-2.128E-1,7.704E-1,9.54E-2,5.747E-1,1.537869E3,5.727E-1,1.490778E3,-3.387E-1,9.7540987E-1,1.490173E3,1.49362E3,-1.3321417E-2,8.89E-1,9.863388E-1,-1.281706E-2,-3.3062007E-2,-1.2225226E-2,-3.1011684E-2,-6.9057182E-3,3.2939103E-2,3.953852E-2,6.629374E-3,1.7751371E-2,3.7163228E-2,3.885756E-2,8.094486E-3,4.657352E-2,2.1756575E-2],"split_indices":[3,3,3,0,12,9,12,9,3,16,8,9,0,3,16,0,0,0,0,0,0,0,0,0,0,0,0,0,0],"split_type":[0,0,0,0,0,0,0,0,0,0,0,0,0,0,0,0,0,0,0,0,0,0,0,0,0,0,0,0,0],"sum_hessian":[4.058447E2,2.473058E2,1.5853888E2,1.0231678E2,1.4498901E2,8.203489E1,7.6504E1,4.390952E1,5.840726E1,6.666331E1,7.8325714E1,7.968659E1,2.3482912E0,1.0888333E1,6.561566E1,5.194255E0,3.8715263E1,4.121751E1,1.7189753E1,6.1582005E1,5.0812993E0,5.149471E0,7.317625E1,2.702241E1,5.2664185E1,5.450238E0,5.438095E0,6.21723E1,3.4433646E0],"tree_param":{"num_deleted":"0","num_feature":"18","num_nodes":"29","size_leaf_vector":"1"}},{"base_weights":[-1.7475453E-1,-1.688471E-2,-3.1774163E-1,-5.0701648E-2,7.4877584E-1,-1.0045141E-1,-3.721259E-1,-4.8502702E-1,1.9892657E-3,5.1196825E-2,1.0206826E-2,1.9912197E-1,-4.4718033E-1,-3.3907928E-2,-3.3683467E-1,-1.49002895E-2,-3.2764535E-2,6.2302225E-3,-9.385857E-3,2.6315616E-3,5.341778E-2,-8.955278E-3,-3.1393655E-2,1.0398831E-3,-1.870181E-2],"categories":[],"categories_nodes":[],"categories_segments":[],"categories_sizes":[],"default_left":[0,0,0,0,0,0,0,0,0,0,0,0,0,0,0,0,0,0,0,0,0,0,0,0,0],"id":22,"left_children":[1,3,5,7,9,11,13,15,17,-1,-1,19,21,-1,23,-1,-1,-1,-1,-1,-1,-1,-1,-1,-1],"loss_changes":[8.392522E0,4.643369E0,2.2688446E0,3.9207256E0,9.279928E-1,4.2892637E0,1.4534111E0,3.9493322E-1,3.599649E0,0E0,0E0,2.7942314E0,8.103783E-1,0E0,1.8917961E0,0E0,0E0,0E0,0E0,0E0,0E0,0E0,0E0,0E0,0E0],"parents":[2147483647,0,0,1,1,2,2,3,3,4,4,5,5,6,6,7,7,8,8,11,11,12,12,14,14],"right_children":[2,4,6,8,10,12,14,16,18,-1,-1,20,22,-1,24,-1,-1,-1,-1,-1,-1,-1,-1,-1,-1],"split_conditions":[6.028E-1,1.537935E3,1.490375E3,1.485817E3,8.98E2,8.262E-1,6.273E-1,4.74E-1,1.501807E3,5.1196825E-2,1.0206826E-2,1.489723E3,1.507152E3,-3.3907928E-2,6.545E-1,-1.49002895E-2,-3.2764535E-2,6.2302225E-3,-9.385857E-3,2.6315616E-3,5.341778E-2,-8.955278E-3,-3.1393655E-2,1.0398831E-3,-1.870181E-2],"split_indices":[6,10,9,9,15,6,6,6,9,0,0,9,8,0,6,0,0,0,0,0,0,0,0,0,0],"split_type":[0,0,0,0,0,0,0,0,0,0,0,0,0,0,0,0,0,0,0,0,0,0,0,0,0],"sum_hessian":[3.7102667E2,1.7686778E2,1.9415887E2,1.7028078E2,6.5870123E0,3.943698E1,1.547219E2,1.7535172E1,1.527456E2,3.7914715E0,2.7955408E0,2.138558E1,1.8051401E1,1.4114035E1,1.4060786E2,9.666996E0,7.8681746E0,9.2987236E1,5.9758366E1,1.9208883E1,2.1766975E0,8.070003E0,9.9814E0,1.3289718E1,1.27318146E2],"tree_param":{"num_deleted":"0","num_feature":"18","num_nodes":"25","size_leaf_vector":"1"}},{"base_weights":[-2.6307937E-2,-3.3167636E-1,4.679011E-1,-1.4483865E-1,-6.357539E-1,7.9352075E-1,2.5771493E-1,2.3655478E-2,-3.2223308E-1,-7.5591155E-3,-3.2268237E-2,5.77693E-3,8.277875E-1,-3.5117322E-1,3.4058905E-1,-6.6653825E-3,1.0496854E-2,-2.0938521E-2,-7.010107E-3,1.6772557E-2,4.2944413E-2,8.396079E-5,-2.2920882E-2,1.2957014E-2,4.498603E-2],"categories":[],"categories_nodes":[],"categories_segments":[],"categories_sizes":[],"default_left":[0,0,0,0,0,0,0,0,0,0,0,0,0,0,0,0,0,0,0,0,0,0,0,0,0],"id":23,"left_children":[1,3,5,7,9,11,13,15,17,-1,-1,-1,19,21,23,-1,-1,-1,-1,-1,-1,-1,-1,-1,-1],"loss_changes":[5.8411484E1,1.3496397E1,9.913776E0,4.4745035E0,3.2499695E-1,1.2405357E0,4.7280235E0,2.296274E0,1.2217798E0,0E0,0E0,0E0,5.476837E-1,4.3342483E-1,3.4507532E0,0E0,0E0,0E0,0E0,0E0,0E0,0E0,0E0,0E0,0E0],"parents":[2147483647,0,0,1,1,2,2,3,3,4,4,5,5,6,6,7,7,8,8,12,12,13,13,14,14],"right_children":[2,4,6,8,10,12,14,16,18,-1,-1,-1,20,22,24,-1,-1,-1,-1,-1,-1,-1,-1,-1,-1],"split_conditions":[3.855E-1,1.9943557E0,-5.909E-1,1.499832E3,1.482463E3,4.0983606E-2,9.2E1,-9.09E-2,2.526E-1,-7.5591155E-3,-3.2268237E-2,5.77693E-3,6.4E1,4.239E-1,3.145E-1,-6.6653825E-3,1.0496854E-2,-2.0938521E-2,-7.010107E-3,1.6772557E-2,4.2944413E-2,8.396079E-5,-2.2920882E-2,1.2957014E-2,4.498603E-2],"split_indices":[2,5,3,8,8,16,15,14,2,0,0,0,15,6,1,0,0,0,0,0,0,0,0,0,0],"split_type":[0,0,0,0,0,0,0,0,0,0,0,0,0,0,0,0,0,0,0,0,0,0,0,0,0],"sum_hessian":[3.850184E2,2.3817844E2,1.4683997E2,1.4844443E2,8.973402E1,5.6513756E1,9.032621E1,7.657655E1,7.1867874E1,2.0705137E0,8.76635E1,2.9292443E0,5.358451E1,1.0433361E1,7.989285E1,4.1713024E1,3.4863525E1,4.6112343E1,2.5755533E1,3.884077E0,4.970043E1,2.6613634E0,7.771998E0,7.101199E1,8.880858E0],"tree_param":{"num_deleted":"0","num_feature":"18","num_nodes":"25","size_leaf_vector":"1"}},{"base_weights":[1.7784458E-1,-2.5857264E-1,5.321273E-1,9.7477935E-2,-3.853591E-1,3.2101524E-1,7.427675E-1,-7.716432E-2,5.3911304E-1,-5.677606E-1,-2.7722782E-1,9.5551276E-1,2.5193948E-1,7.912675E-1,2.992642E-1,3.1997908E-2,-8.380303E-3,4.965872E-2,7.922388E-4,-7.990705E-3,-2.9141206E-2,-2.4894966E-2,-8.871892E-3,1.48249185E-2,5.562816E-2,-2.703395E-2,1.5883831E-2,2.5320385E-2,4.160757E-2,-1.7896434E-2,2.500902E-2],"categories":[],"categories_nodes":[],"categories_segments":[],"categories_sizes":[],"default_left":[0,0,0,0,0,0,0,0,0,0,0,0,0,0,0,0,0,0,0,0,0,0,0,0,0,0,0,0,0,0,0],"id":24,"left_children":[1,3,5,7,9,11,13,15,17,19,21,23,25,27,29,-1,-1,-1,-1,-1,-1,-1,-1,-1,-1,-1,-1,-1,-1,-1,-1],"loss_changes":[6.142142E1,8.085036E0,9.5044365E0,3.7135975E0,2.4393635E0,4.6323805E0,2.1058273E0,2.3767817E0,3.219554E0,2.021122E-1,1.7748861E0,7.6286316E-1,5.4670444E0,7.148514E-1,1.8089567E0,0E0,0E0,0E0,0E0,0E0,0E0,0E0,0E0,0E0,0E0,0E0,0E0,0E0,0E0,0E0,0E0],"parents":[2147483647,0,0,1,1,2,2,3,3,4,4,5,5,6,6,7,7,8,8,9,9,10,10,11,11,12,12,13,13,14,14],"right_children":[2,4,6,8,10,12,14,16,18,20,22,24,26,28,30,-1,-1,-1,-1,-1,-1,-1,-1,-1,-1,-1,-1,-1,-1,-1,-1],"split_conditions":[1.469E-1,4.149E-1,1.9943557E0,1.50206E3,-1.1752E1,4.503E-1,9.3442625E-1,1.48701E3,1.0918474E0,1.486956E3,-1.7509722E0,1.491331E3,2.205E-1,1.494209E3,4.92E2,3.1997908E-2,-8.380303E-3,4.965872E-2,7.922388E-4,-7.990705E-3,-2.9141206E-2,-2.4894966E-2,-8.871892E-3,1.48249185E-2,5.562816E-2,-2.703395E-2,1.5883831E-2,2.5320385E-2,4.160757E-2,-1.7896434E-2,2.500902E-2],"split_indices":[7,6,5,10,11,6,16,10,4,9,5,9,7,8,15,0,0,0,0,0,0,0,0,0,0,0,0,0,0,0,0],"split_type":[0,0,0,0,0,0,0,0,0,0,0,0,0,0,0,0,0,0,0,0,0,0,0,0,0,0,0,0,0,0,0],"sum_hessian":[3.9536383E2,1.7726862E2,2.1809521E2,4.6609035E1,1.3065958E2,1.10186195E2,1.0790903E2,3.3992256E1,1.2616779E1,4.7047215E1,8.3612366E1,9.558006E0,1.0062819E2,9.6564896E1,1.1344132E1,3.1264415E0,3.0865814E1,6.274296E0,6.342484E0,2.088781E0,4.4958435E1,2.4794146E1,5.881822E1,2.3951986E0,7.162808E0,7.1532917E0,9.347489E1,1.3799924E1,8.276497E1,2.4731207E0,8.871012E0],"tree_param":{"num_deleted":"0","num_feature":"18","num_nodes":"31","size_leaf_vector":"1"}},{"base_weights":[-2.0454793E-1,-3.8213912E-1,-5.9342247E-2,-1.7913237E-1,-4.6140853E-1,-8.474949E-2,5.126853E-1,-5.94503E-1,8.9891426E-2,-2.7233002E-1,-5.0670266E-1,-5.509445E-2,-5.83395E-1,4.015673E-2,-1.1718363E-2,-9.145299E-3,-3.204447E-2,1.4620359E-2,-2.5242144E-2,-2.6875619E-2,1.3434532E-2,-1.8451152E-2,-3.0295683E-2,-4.3192008E-3,2.0945989E-2,-9.327308E-3,-3.2952037E-2],"categories":[],"categories_nodes":[],"categories_segments":[],"categories_sizes":[],"default_left":[0,0,0,0,0,0,0,0,0,0,0,0,0,0,0,0,0,0,0,0,0,0,0,0,0,0,0],"id":25,"left_children":[1,3,5,7,9,11,13,15,17,19,21,23,25,-1,-1,-1,-1,-1,-1,-1,-1,-1,-1,-1,-1,-1,-1],"loss_changes":[9.631988E0,2.6245918E0,3.0542893E0,5.515319E0,8.927479E-1,2.9136682E0,2.130628E0,2.5211382E-1,3.8251905E0,3.7916117E0,1.086792E0,2.8413577E0,2.0962048E-1,0E0,0E0,0E0,0E0,0E0,0E0,0E0,0E0,0E0,0E0,0E0,0E0,0E0,0E0],"parents":[2147483647,0,0,1,1,2,2,3,3,4,4,5,5,6,6,7,7,8,8,9,9,10,10,11,11,12,12],"right_children":[2,4,6,8,10,12,14,16,18,20,22,24,26,-1,-1,-1,-1,-1,-1,-1,-1,-1,-1,-1,-1,-1,-1],"split_conditions":[2.182E-1,1.49362E3,1.537935E3,9.71E-2,-2.1568E1,8.84E2,1.556448E3,1.46775E3,3.755E1,-3.405E1,2.53E2,8.55E2,1.459721E3,4.015673E-2,-1.1718363E-2,-9.145299E-3,-3.204447E-2,1.4620359E-2,-2.5242144E-2,-2.6875619E-2,1.3434532E-2,-1.8451152E-2,-3.0295683E-2,-4.3192008E-3,2.0945989E-2,-9.327308E-3,-3.2952037E-2],"split_indices":[1,9,10,1,11,15,8,9,11,11,15,15,8,0,0,0,0,0,0,0,0,0,0,0,0,0,0],"split_type":[0,0,0,0,0,0,0,0,0,0,0,0,0,0,0,0,0,0,0,0,0,0,0,0,0,0,0],"sum_hessian":[3.733967E2,1.6723329E2,2.061634E2,4.7878235E1,1.1935506E2,1.9821146E2,7.951941E0,1.8344547E1,2.9533688E1,2.4421412E1,9.493365E1,1.8813344E2,1.0078032E1,5.671736E0,2.2802055E0,2.3586679E0,1.598588E1,2.2410816E1,7.1228724E0,1.639289E1,8.028522E0,4.173526E1,5.3198387E1,1.772509E2,1.0882526E1,2.1683898E0,7.9096417E0],"tree_param":{"num_deleted":"0","num_feature":"18","num_nodes":"27","size_leaf_vector":"1"}},{"base_weights":[-2.7575029E-2,5.0108135E-1,-3.144022E-1,7.5803745E-1,3.076862E-1,-1.3774346E-1,-6.171343E-1,7.957508E-1,-2.428489E-3,3.7867108E-1,-8.870933E-2,2.2746239E-2,-2.2124189E-1,-4.230998E-3,-3.183478E-2,2.231157E-2,4.39455E-2,1.2738304E-2,3.6381E-2,-1.5959205E-2,3.2442436E-2,6.557842E-3,-1.8183416E-2,-2.6579296E-2,-7.288245E-3],"categories":[],"categories_nodes":[],"categories_segments":[],"categories_sizes":[],"default_left":[0,0,0,0,0,0,0,0,0,0,0,0,0,0,0,0,0,0,0,0,0,0,0,0,0],"id":26,"left_children":[1,3,5,7,9,11,13,15,-1,17,19,21,23,-1,-1,-1,-1,-1,-1,-1,-1,-1,-1,-1,-1],"loss_changes":[5.7086174E1,6.3480797E0,1.2964193E1,1.747921E0,2.2071848E0,2.0871139E0,8.797531E-1,1.1697083E0,0E0,2.6554785E0,2.339164E0,2.3131294E0,2.3186135E0,0E0,0E0,0E0,0E0,0E0,0E0,0E0,0E0,0E0,0E0,0E0,0E0],"parents":[2147483647,0,0,1,1,2,2,3,3,4,4,5,5,6,6,7,7,9,9,10,10,11,11,12,12],"right_children":[2,4,6,8,10,12,14,16,-1,18,20,22,24,-1,-1,-1,-1,-1,-1,-1,-1,-1,-1,-1,-1],"split_conditions":[-1.523E-1,8.1257665E-1,1.8796519E0,1.533845E3,1.510473E3,3.2312152E-1,1.482463E3,2.03E2,-2.428489E-3,7.95082E-1,1.529108E3,7.78E2,4.601E-1,-4.230998E-3,-3.183478E-2,2.231157E-2,4.39455E-2,1.2738304E-2,3.6381E-2,-1.5959205E-2,3.2442436E-2,6.557842E-3,-1.8183416E-2,-2.6579296E-2,-7.288245E-3],"split_indices":[3,4,5,10,8,5,8,15,0,16,8,15,6,0,0,0,0,0,0,0,0,0,0,0,0],"split_type":[0,0,0,0,0,0,0,0,0,0,0,0,0,0,0,0,0,0,0,0,0,0,0,0,0],"sum_hessian":[3.7443692E2,1.3143665E2,2.4300027E2,5.5189304E1,7.6247345E1,1.5437186E2,8.862841E1,5.2737015E1,2.4522893E0,6.4704956E1,1.1542384E1,5.3078648E1,1.0129321E2,3.329024E0,8.5299385E1,1.135937E1,4.1377644E1,4.902664E1,1.5678317E1,9.226498E0,2.3158867E0,4.1965572E1,1.1113077E1,1.8633507E1,8.2659706E1],"tree_param":{"num_deleted":"0","num_feature":"18","num_nodes":"25","size_leaf_vector":"1"}},{"base_weights":[1.7594329E-1,-2.3839022E-1,5.06458E-1,1.1887016E-1,-3.614143E-1,3.0483502E-1,6.888253E-1,2.6958215E-1,-1.2312009E-1,-6.0834146E-1,-2.5504214E-1,7.770232E-1,2.450735E-1,7.3380214E-1,3.1936255E-1,6.829262E-3,4.013584E-2,9.880183E-3,-1.966761E-2,-1.4146618E-2,-3.145556E-2,-1.45207215E-2,2.304259E-2,8.030024E-3,5.3066578E-2,-1.0204017E-2,1.5760932E-2,8.945878E-3,3.814171E-2,-3.1010339E-2,2.8180748E-2],"categories":[],"categories_nodes":[],"categories_segments":[],"categories_sizes":[],"default_left":[0,0,0,0,0,0,0,0,0,0,0,0,0,0,0,0,0,0,0,0,0,0,0,0,0,0,0,0,0,0,0],"id":27,"left_children":[1,3,5,7,9,11,13,15,17,19,21,23,25,27,29,-1,-1,-1,-1,-1,-1,-1,-1,-1,-1,-1,-1,-1,-1,-1,-1],"loss_changes":[5.4849163E1,7.8670244E0,7.9759216E0,1.7236443E0,3.3294353E0,2.8438082E0,1.6949463E0,1.937803E0,1.6789607E0,8.708668E-2,2.5254083E0,1.8658619E0,3.117465E0,1.5184555E0,3.6474714E0,0E0,0E0,0E0,0E0,0E0,0E0,0E0,0E0,0E0,0E0,0E0,0E0,0E0,0E0,0E0,0E0],"parents":[2147483647,0,0,1,1,2,2,3,3,4,4,5,5,6,6,7,7,8,8,9,9,10,10,11,11,12,12,13,13,14,14],"right_children":[2,4,6,8,10,12,14,16,18,20,22,24,26,28,30,-1,-1,-1,-1,-1,-1,-1,-1,-1,-1,-1,-1,-1,-1,-1,-1],"split_conditions":[1.469E-1,4.149E-1,1.9943557E0,-2.0415E-1,5.56E-1,4.503E-1,9.3715847E-1,1.507632E3,1.493902E3,4.0983606E-2,1.515312E3,1.491331E3,5.582E-1,5.492E-1,1.6375E-1,6.829262E-3,4.013584E-2,9.880183E-3,-1.966761E-2,-1.4146618E-2,-3.145556E-2,-1.45207215E-2,2.304259E-2,8.030024E-3,5.3066578E-2,-1.0204017E-2,1.5760932E-2,8.945878E-3,3.814171E-2,-3.1010339E-2,2.8180748E-2],"split_indices":[3,6,5,14,12,6,16,8,8,16,9,9,12,12,14,0,0,0,0,0,0,0,0,0,0,0,0,0,0,0,0],"split_type":[0,0,0,0,0,0,0,0,0,0,0,0,0,0,0,0,0,0,0,0,0,0,0,0,0,0,0,0,0,0,0],"sum_hessian":[3.98643E2,1.7701526E2,2.2162776E2,4.5350826E1,1.3166443E2,1.06525795E2,1.1510196E2,2.787574E1,1.7475084E1,3.8221027E1,9.34434E1,1.0619203E1,9.590659E1,1.0173147E2,1.3370488E1,2.3315577E1,4.560162E0,8.113901E0,9.361184E0,3.1704543E0,3.5050575E1,8.961011E1,3.8332968E0,3.8458056E0,6.7733974E0,1.269682E1,8.320978E1,5.414155E0,9.6317314E1,2.4410937E0,1.0929395E1],"tree_param":{"num_deleted":"0","num_feature":"18","num_nodes":"31","size_leaf_vector":"1"}},{"base_weights":[-1.7916371E-1,-4.577592E-2,-3.761605E-1,1.1786343E-1,-1.0583134E-1,-4.766446E-1,-2.58513E-1,-1.8126899E-1,3.0093566E-1,-5.7639454E-2,-4.0184724E-1,-1.537862E-1,-5.1047295E-1,-3.56737E-1,2.1584351E-1,-2.0068644E-2,2.0959774E-2,3.1480442E-3,3.9056417E-2,-4.840124E-3,2.9775543E-2,3.8315863E-3,-2.3259126E-2,2.0791894E-2,-2.1212704E-2,-1.7539099E-2,-2.7605413E-2,-2.7314338E-3,-2.3322498E-2,5.223247E-2,-9.975304E-3],"categories":[],"categories_nodes":[],"categories_segments":[],"categories_sizes":[],"default_left":[0,0,0,0,0,0,0,0,0,0,0,0,0,0,0,0,0,0,0,0,0,0,0,0,0,0,0,0,0,0,0],"id":28,"left_children":[1,3,5,7,9,11,13,15,17,19,21,23,25,27,29,-1,-1,-1,-1,-1,-1,-1,-1,-1,-1,-1,-1,-1,-1,-1,-1],"loss_changes":[9.565115E0,2.1605194E0,1.6156368E0,3.294015E0,2.2653496E0,7.749977E-1,3.3358831E0,3.2189364E0,4.1871724E0,3.616479E0,7.1122694E-1,1.5387601E0,2.7376366E-1,1.9076076E0,4.5533085E0,0E0,0E0,0E0,0E0,0E0,0E0,0E0,0E0,0E0,0E0,0E0,0E0,0E0,0E0,0E0,0E0],"parents":[2147483647,0,0,1,1,2,2,3,3,4,4,5,5,6,6,7,7,8,8,9,9,10,10,11,11,12,12,13,13,14,14],"right_children":[2,4,6,8,10,12,14,16,18,20,22,24,26,28,30,-1,-1,-1,-1,-1,-1,-1,-1,-1,-1,-1,-1,-1,-1,-1,-1],"split_conditions":[6.794E-1,1.494225E3,5.5812347E-1,1.485817E3,5.97E-1,2E0,1.9468E1,5.982E-1,1.0674125E0,-4.05E-3,-2.1568E1,1.74E-2,-1.124E1,1.494209E3,2.978E1,-2.0068644E-2,2.0959774E-2,3.1480442E-3,3.9056417E-2,-4.840124E-3,2.9775543E-2,3.8315863E-3,-2.3259126E-2,2.0791894E-2,-2.1212704E-2,-1.7539099E-2,-2.7605413E-2,-2.7314338E-3,-2.3322498E-2,5.223247E-2,-9.975304E-3],"split_indices":[6,9,4,9,0,17,11,6,4,14,11,2,11,8,11,0,0,0,0,0,0,0,0,0,0,0,0,0,0,0,0],"split_type":[0,0,0,0,0,0,0,0,0,0,0,0,0,0,0,0,0,0,0,0,0,0,0,0,0,0,0,0,0,0,0],"sum_hessian":[3.6366663E2,2.1757655E2,1.4609009E2,5.8154434E1,1.5942212E2,7.714671E1,6.894337E1,2.2082458E1,3.6071976E1,1.3812917E2,2.1292944E1,7.8426256E0,6.9304085E1,5.7321823E1,1.1621548E1,1.640183E1,5.680628E0,2.487533E1,1.1196645E1,1.3111903E2,7.010132E0,2.4644947E0,1.882845E1,2.3518953E0,5.4907303E0,1.6281591E1,5.3022495E1,1.5670123E1,4.16517E1,3.3739398E0,8.247608E0],"tree_param":{"num_deleted":"0","num_feature":"18","num_nodes":"31","size_leaf_vector":"1"}},{"base_weights":[-2.4407946E-2,-3.3327577E-1,4.439004E-1,-5.699751E-1,-1.4259456E-1,7.4827653E-1,2.3269753E-1,-7.738521E-4,-5.862677E-1,3.1596056E-1,-1.888798E-1,7.6876336E-1,9.5062805E-3,5.997635E-1,1.0922597E-1,-1.756754E-2,-3.083663E-2,2.5882378E-2,-1.39782345E-2,2.6951471E-2,-1.05429115E-2,4.3469593E-2,3.2180585E-2,4.4244602E-2,1.2124819E-2,-1.8878428E-2,9.13318E-3],"categories":[],"categories_nodes":[],"categories_segments":[],"categories_sizes":[],"default_left":[0,0,0,0,0,0,0,0,0,0,0,0,0,0,0,0,0,0,0,0,0,0,0,0,0,0,0],"id":29,"left_children":[1,3,5,7,9,11,13,-1,15,17,19,21,-1,23,25,-1,-1,-1,-1,-1,-1,-1,-1,-1,-1,-1,-1],"loss_changes":[5.440654E1,1.0146406E1,9.437021E0,9.0130615E-1,2.7517052E0,5.48996E-1,4.0005536E0,0E0,4.8371124E-1,1.5863816E0,1.9668045E0,1.7482758E-1,0E0,2.0630722E0,2.512611E0,0E0,0E0,0E0,0E0,0E0,0E0,0E0,0E0,0E0,0E0,0E0,0E0],"parents":[2147483647,0,0,1,1,2,2,3,3,4,4,5,5,6,6,8,8,9,9,10,10,11,11,13,13,14,14],"right_children":[2,4,6,8,10,12,14,-1,16,18,20,22,-1,24,26,-1,-1,-1,-1,-1,-1,-1,-1,-1,-1,-1,-1],"split_conditions":[3.855E-1,1.26E-1,8.1257665E-1,1.482463E3,5.44E-1,1.516737E3,1.5300547E-1,-7.738521E-4,1.9194149E0,4.955E-1,1.47386E3,1.269E-1,9.5062805E-3,1.497151E3,2.5956285E-1,-1.756754E-2,-3.083663E-2,2.5882378E-2,-1.39782345E-2,2.6951471E-2,-1.05429115E-2,4.3469593E-2,3.2180585E-2,4.4244602E-2,1.2124819E-2,-1.8878428E-2,9.13318E-3],"split_indices":[2,2,4,8,12,8,16,0,5,0,8,1,0,8,16,0,0,0,0,0,0,0,0,0,0,0,0],"split_type":[0,0,0,0,0,0,0,0,0,0,0,0,0,0,0,0,0,0,0,0,0,0,0,0,0,0,0],"sum_hessian":[3.7411462E2,2.2560655E2,1.4850807E2,9.976973E1,1.2583682E2,5.9793472E1,8.87146E1,2.903491E0,9.6866234E1,1.1002908E1,1.14833916E2,5.7312485E1,2.480988E0,2.1359097E1,6.735551E1,1.2558627E1,8.430761E1,8.316966E0,2.6859422E0,2.6761568E0,1.1215775E2,2.8472445E1,2.8840038E1,1.1057482E1,1.0301614E1,8.286381E0,5.9069122E1],"tree_param":{"num_deleted":"0","num_feature":"18","num_nodes":"27","size_leaf_vector":"1"}},{"base_weights":[1.9647595E-1,-2.3836054E-1,5.267909E-1,-4.217457E-1,-6.874708E-3,6.7088777E-1,2.5965568E-1,-4.4972357E-1,2.5825996E-2,6.147665E-2,-4.7337526E-1,6.831273E-1,-1.8056004E-3,-5.7272E-2,4.3693343E-1,-3.304786E-2,-1.9545784E-2,3.2424435E-2,-2.5570437E-2,1.8413914E-2,-9.174648E-4,-3.1903952E-2,-4.463783E-3,2.9109513E-2,4.095448E-2,4.755577E-2,-1.2336317E-2,2.7228227E-2,8.055543E-3],"categories":[],"categories_nodes":[],"categories_segments":[],"categories_sizes":[],"default_left":[0,0,0,0,0,0,0,0,0,0,0,0,0,0,0,0,0,0,0,0,0,0,0,0,0,0,0,0,0],"id":30,"left_children":[1,3,5,7,9,11,13,15,17,19,21,23,-1,25,27,-1,-1,-1,-1,-1,-1,-1,-1,-1,-1,-1,-1,-1,-1],"loss_changes":[5.667389E1,7.2413015E0,8.450302E0,1.203722E0,2.466723E0,1.2786331E0,4.5276146E0,8.5531616E-1,2.5215793E0,1.6614372E0,5.683627E-1,1.4787064E0,0E0,5.8955207E0,1.4414024E0,0E0,0E0,0E0,0E0,0E0,0E0,0E0,0E0,0E0,0E0,0E0,0E0,0E0,0E0],"parents":[2147483647,0,0,1,1,2,2,3,3,4,4,5,5,6,6,7,7,8,8,9,9,10,10,11,11,13,13,14,14],"right_children":[2,4,6,8,10,12,14,16,18,20,22,24,-1,26,28,-1,-1,-1,-1,-1,-1,-1,-1,-1,-1,-1,-1,-1,-1],"split_conditions":[1.469E-1,-2.128E-1,1.393E-1,1.516737E3,4.17E-1,1.537869E3,-1.238E0,5.428E-1,8.06E2,1.51E2,1.5006E3,1.50184E3,-1.8056004E-3,4.503E-1,2.3626E1,-3.304786E-2,-1.9545784E-2,3.2424435E-2,-2.5570437E-2,1.8413914E-2,-9.174648E-4,-3.1903952E-2,-4.463783E-3,2.9109513E-2,4.095448E-2,4.755577E-2,-1.2336317E-2,2.7228227E-2,8.055543E-3],"split_indices":[3,3,2,8,0,9,11,2,15,15,10,10,0,0,11,0,0,0,0,0,0,0,0,0,0,0,0,0,0],"split_type":[0,0,0,0,0,0,0,0,0,0,0,0,0,0,0,0,0,0,0,0,0,0,0,0,0,0,0,0,0],"sum_hessian":[3.9270004E2,1.6964832E2,2.2305173E2,9.420019E1,7.5448135E1,1.4391197E2,7.9139755E1,8.86536E1,5.5465817E0,6.656351E1,8.8846245E0,1.4149619E2,2.4157991E0,2.8631256E1,5.0508495E1,1.7076576E1,7.157703E1,2.4731174E0,3.0734644E0,1.2997115E1,5.3566395E1,5.7554336E0,3.1291912E0,8.423958E1,5.72566E1,3.892547E0,2.473871E1,3.563048E1,1.4878012E1],"tree_param":{"num_deleted":"0","num_feature":"18","num_nodes":"29","size_leaf_vector":"1"}},{"base_weights":[-1.4890237E-1,-6.3734524E-2,-3.3319312E-1,-4.075102E-1,1.4087701E-2,7.3534206E-2,-3.8851726E-1,-5.3398126E-1,-2.2913136E-1,-1.2946488E-2,4.4883093E-1,4.3814936E-1,-4.461283E-1,-4.8023283E-1,-1.6300647E-1,-2.961509E-2,-1.3259719E-2,1.5510613E-2,-1.9930553E-2,6.1876406E-3,-4.312895E-3,4.1476406E-2,-6.2072166E-4,-1.1904775E-2,6.13863E-2,-7.058944E-3,-2.7475867E-2,-8.657921E-3,-2.5308553E-2,-1.5429136E-2,9.549185E-3],"categories":[],"categories_nodes":[],"categories_segments":[],"categories_sizes":[],"default_left":[0,0,0,0,0,0,0,0,0,0,0,0,0,0,0,0,0,0,0,0,0,0,0,0,0,0,0,0,0,0,0],"id":31,"left_children":[1,3,5,7,9,11,13,15,17,19,21,23,25,27,29,-1,-1,-1,-1,-1,-1,-1,-1,-1,-1,-1,-1,-1,-1,-1,-1],"loss_changes":[5.8528814E0,6.886662E0,2.6849833E0,9.494462E-1,2.482022E0,3.0330863E0,2.0743294E0,2.669201E-1,2.0854013E0,2.0082467E0,2.1810982E0,5.260947E0,1.3273263E-1,4.975624E-1,1.6875863E0,0E0,0E0,0E0,0E0,0E0,0E0,0E0,0E0,0E0,0E0,0E0,0E0,0E0,0E0,0E0,0E0],"parents":[2147483647,0,0,1,1,2,2,3,3,4,4,5,5,6,6,7,7,8,8,9,9,10,10,11,11,12,12,13,13,14,14],"right_children":[2,4,6,8,10,12,14,16,18,20,22,24,26,28,30,-1,-1,-1,-1,-1,-1,-1,-1,-1,-1,-1,-1,-1,-1,-1,-1],"split_conditions":[3.215E-2,-5.909E-1,1.48913E3,1.496529E3,-3E-4,2.8688523E-1,7.95082E-1,6E0,1.49873E3,1.496089E3,1.3469639E0,1.482895E3,1.484713E3,2E0,1.501807E3,-2.961509E-2,-1.3259719E-2,1.5510613E-2,-1.9930553E-2,6.1876406E-3,-4.312895E-3,4.1476406E-2,-6.2072166E-4,-1.1904775E-2,6.13863E-2,-7.058944E-3,-2.7475867E-2,-8.657921E-3,-2.5308553E-2,-1.5429136E-2,9.549185E-3],"split_indices":[14,3,10,8,14,16,16,17,8,9,5,10,8,17,9,0,0,0,0,0,0,0,0,0,0,0,0,0,0,0,0],"split_type":[0,0,0,0,0,0,0,0,0,0,0,0,0,0,0,0,0,0,0,0,0,0,0,0,0,0,0,0,0,0,0],"sum_hessian":[3.7325134E2,2.5619815E2,1.1705319E2,4.6509296E1,2.0968884E2,1.3976055E1,1.0307714E2,2.6047806E1,2.0461489E1,1.9832628E2,1.1362555E1,8.305473E0,5.6705813E0,7.247281E1,3.0604332E1,2.0414682E1,5.6331244E0,4.693799E0,1.576769E1,6.899237E1,1.2933391E2,5.787382E0,5.5751724E0,4.8500376E0,3.4554362E0,2.034694E0,3.6358871E0,6.2427397E0,6.6230064E1,2.1776964E1,8.827368E0],"tree_param":{"num_deleted":"0","num_feature":"18","num_nodes":"31","size_leaf_vector":"1"}},{"base_weights":[-3.473691E-2,-3.250903E-1,4.2388383E-1,-6.0107243E-1,-1.475665E-1,7.3461056E-1,2.1409784E-1,-1.0203061E-2,-3.0490741E-2,4.7308784E-2,-2.984564E-1,1.3283608E-2,7.63958E-1,1.6354015E-1,7.284867E-1,-1.0384409E-2,1.0290785E-2,-1.6977776E-2,1.689261E-2,3.9103612E-2,1.6766518E-2,1.5210681E-2,-1.2324183E-2,5.1147383E-2,2.0508927E-3],"categories":[],"categories_nodes":[],"categories_segments":[],"categories_sizes":[],"default_left":[0,0,0,0,0,0,0,0,0,0,0,0,0,0,0,0,0,0,0,0,0,0,0,0,0],"id":32,"left_children":[1,3,5,7,9,11,13,-1,-1,15,17,-1,19,21,23,-1,-1,-1,-1,-1,-1,-1,-1,-1,-1],"loss_changes":[5.0074127E1,1.1189232E1,9.347586E0,1.8718338E-1,4.1722374E0,6.0014343E-1,2.1812558E0,0E0,0E0,2.5718944E0,2.2025728E0,0E0,1.600151E-1,4.79482E0,1.5018888E0,0E0,0E0,0E0,0E0,0E0,0E0,0E0,0E0,0E0,0E0],"parents":[2147483647,0,0,1,1,2,2,3,3,4,4,5,5,6,6,9,9,10,10,12,12,13,13,14,14],"right_children":[2,4,6,8,10,12,14,-1,-1,16,18,-1,20,22,24,-1,-1,-1,-1,-1,-1,-1,-1,-1,-1],"split_conditions":[3.855E-1,9.56E-2,8.04037E-1,1.482463E3,1.498234E3,4.0983606E-2,3.286E-1,-1.0203061E-2,-3.0490741E-2,1.493925E3,3.448E-1,1.3283608E-2,2.024E-1,2.868E-1,1.499365E3,-1.0384409E-2,1.0290785E-2,-1.6977776E-2,1.689261E-2,3.9103612E-2,1.6766518E-2,1.5210681E-2,-1.2324183E-2,5.1147383E-2,2.0508927E-3],"split_indices":[2,2,4,8,8,16,1,0,0,10,1,0,1,1,10,0,0,0,0,0,0,0,0,0,0],"split_type":[0,0,0,0,0,0,0,0,0,0,0,0,0,0,0,0,0,0,0,0,0,0,0,0,0],"sum_hessian":[3.7400412E2,2.2919293E2,1.4481119E2,8.878307E1,1.4040987E2,5.735601E1,8.745518E1,2.4373999E0,8.634567E1,6.157362E1,7.883624E1,3.970156E0,5.3385853E1,8.0828705E1,6.6264725E0,2.348385E1,3.808977E1,7.4491234E1,4.3450117E0,5.043003E1,2.9558218E0,6.0373466E1,2.0455236E1,4.2976747E0,2.3287978E0],"tree_param":{"num_deleted":"0","num_feature":"18","num_nodes":"25","size_leaf_vector":"1"}},{"base_weights":[1.5747163E-1,-2.4551737E-1,4.5493934E-1,7.3594786E-2,-3.604127E-1,6.378924E-1,2.6444903E-1,-1.5754588E-2,4.3559324E-2,-2.8024752E-2,-2.5343457E-1,5.73553E-1,4.436498E-2,7.31964E-1,2.0955972E-1,-5.4560085E-3,1.8168503E-2,-1.830258E-2,-3.78047E-3,3.0686153E-2,6.9231126E-3,4.6343904E-2,-7.46023E-4,-1.7467368E-2,1.2997115E-2],"categories":[],"categories_nodes":[],"categories_segments":[],"categories_sizes":[],"default_left":[0,0,0,0,0,0,0,0,0,0,0,0,0,0,0,0,0,0,0,0,0,0,0,0,0],"id":33,"left_children":[1,3,5,7,9,11,13,15,-1,-1,17,19,-1,21,23,-1,-1,-1,-1,-1,-1,-1,-1,-1,-1],"loss_changes":[4.8512726E1,6.337081E0,7.939068E0,3.3200321E0,2.5703487E0,1.3839645E0,2.8151789E0,1.5512332E0,0E0,0E0,1.6624832E0,1.6033363E0,0E0,1.724894E0,3.0454931E0,0E0,0E0,0E0,0E0,0E0,0E0,0E0,0E0,0E0,0E0],"parents":[2147483647,0,0,1,1,2,2,3,3,4,4,5,5,6,6,7,7,10,10,11,11,13,13,14,14],"right_children":[2,4,6,8,10,12,14,16,-1,-1,18,20,-1,22,24,-1,-1,-1,-1,-1,-1,-1,-1,-1,-1],"split_conditions":[1.469E-1,4.149E-1,1.016E-1,1.514241E3,-1.1752E1,9.435E-1,4.503E-1,3.509E-1,4.3559324E-2,-2.8024752E-2,2.566E-1,3.425E-1,4.436498E-2,6.18E2,2.205E-1,-5.4560085E-3,1.8168503E-2,-1.830258E-2,-3.78047E-3,3.0686153E-2,6.9231126E-3,4.6343904E-2,-7.46023E-4,-1.7467368E-2,1.2997115E-2],"split_indices":[3,6,2,8,11,6,6,1,0,0,1,14,0,15,3,0,0,0,0,0,0,0,0,0,0],"split_type":[0,0,0,0,0,0,0,0,0,0,0,0,0,0,0,0,0,0,0,0,0,0,0,0,0],"sum_hessian":[4.0275836E2,1.711163E2,2.3164206E2,4.539498E1,1.2572132E2,1.1696061E2,1.1468146E2,4.1703445E1,3.6915371E0,4.2323627E1,8.33977E1,9.559874E1,2.1361874E1,1.0753567E1,1.0392789E2,3.403416E1,7.6692843E0,5.0412727E1,3.298497E1,8.714268E1,8.456063E0,8.336898E0,2.416669E0,8.103189E0,9.58247E1],"tree_param":{"num_deleted":"0","num_feature":"18","num_nodes":"25","size_leaf_vector":"1"}},{"base_weights":[-1.3844703E-1,-3.108806E-1,-5.821832E-3,-5.285678E-1,-2.6352847E-1,-3.2729864E-2,4.865331E-1,-5.9315294E-1,6.121492E-3,-5.9700448E-2,-3.4145057E-1,-3.0453408E-1,4.7462415E-3,8.219921E-2,4.6464436E-2,-3.131583E-2,-1.686304E-2,-2.360705E-2,7.872171E-3,1.3238847E-3,-1.9905223E-2,-2.3374654E-2,2.1836994E-2,-1.751396E-2,1.5512736E-3,2.50459E-2,-1.60595E-2],"categories":[],"categories_nodes":[],"categories_segments":[],"categories_sizes":[],"default_left":[0,0,0,0,0,0,0,0,0,0,0,0,0,0,0,0,0,0,0,0,0,0,0,0,0,0,0],"id":34,"left_children":[1,3,5,7,9,11,13,15,-1,17,19,21,23,25,-1,-1,-1,-1,-1,-1,-1,-1,-1,-1,-1,-1,-1],"loss_changes":[8.468515E0,1.5203552E0,2.8030694E0,1.2402554E0,2.1116343E0,2.0428832E0,1.8865306E0,4.6243668E-3,0E0,3.5077207E0,2.0303497E0,3.1395178E0,1.6632963E0,1.3141952E0,0E0,0E0,0E0,0E0,0E0,0E0,0E0,0E0,0E0,0E0,0E0,0E0,0E0],"parents":[2147483647,0,0,1,1,2,2,3,3,4,4,5,5,6,6,7,7,9,9,10,10,11,11,12,12,13,13],"right_children":[2,4,6,8,10,12,14,16,-1,18,20,22,24,26,-1,-1,-1,-1,-1,-1,-1,-1,-1,-1,-1,-1,-1],"split_conditions":[2.182E-1,5.26E-2,6.32E-1,1.536765E3,1.492795E3,9.1667277E-1,2.321E-1,2.4689335E-1,6.121492E-3,5.5812347E-1,3.13E-2,7.43E2,1.478445E3,2.236E-1,4.6464436E-2,-3.131583E-2,-1.686304E-2,-2.360705E-2,7.872171E-3,1.3238847E-3,-1.9905223E-2,-2.3374654E-2,2.1836994E-2,-1.751396E-2,1.5512736E-3,2.50459E-2,-1.60595E-2],"split_indices":[1,1,2,9,9,4,1,4,0,4,2,15,8,1,0,0,0,0,0,0,0,0,0,0,0,0,0],"split_type":[0,0,0,0,0,0,0,0,0,0,0,0,0,0,0,0,0,0,0,0,0,0,0,0,0,0,0],"sum_hessian":[3.69384E2,1.6000645E2,2.0937755E2,2.6771246E1,1.3323521E2,1.9941283E2,9.9647255E0,2.4435833E1,2.3354118E0,3.7336605E1,9.5898605E1,2.3299763E1,1.7611307E2,5.828065E0,4.13666E0,2.035079E1,4.085044E0,1.24723835E1,2.4864222E1,1.2867248E1,8.303136E1,1.9403503E1,3.8962579E0,1.1287866E1,1.648252E2,2.7410629E0,3.087002E0],"tree_param":{"num_deleted":"0","num_feature":"18","num_nodes":"27","size_leaf_vector":"1"}},{"base_weights":[-1.5356439E-2,4.0766624E-1,-3.2518792E-1,7.2660315E-1,2.4199535E-1,-5.8419406E-1,-1.569147E-1,3.7487213E-2,8.242489E-3,-2.0621726E-1,3.0133498E-1,-3.3940827E-3,-3.016193E-2,-1.1186523E-2,-3.0640596E-1,-3.2995414E-2,7.4875676E-3,4.0667456E-2,1.271448E-2,4.217289E-3,-1.7624034E-2,-1.7286524E-2,1.338959E-2],"categories":[],"categories_nodes":[],"categories_segments":[],"categories_sizes":[],"default_left":[0,0,0,0,0,0,0,0,0,0,0,0,0,0,0,0,0,0,0,0,0,0,0],"id":35,"left_children":[1,3,5,7,9,11,13,-1,-1,15,17,-1,-1,19,21,-1,-1,-1,-1,-1,-1,-1,-1],"loss_changes":[5.1027634E1,8.522129E0,9.701744E0,6.0147667E-1,2.9834614E0,8.2559013E-1,2.9936922E0,0E0,0E0,2.2685978E0,2.139389E0,0E0,0E0,2.334976E0,1.6251736E0,0E0,0E0,0E0,0E0,0E0,0E0,0E0,0E0],"parents":[2147483647,0,0,1,1,2,2,3,3,4,4,5,5,6,6,9,9,10,10,13,13,14,14],"right_children":[2,4,6,8,10,12,14,-1,-1,16,18,-1,-1,20,22,-1,-1,-1,-1,-1,-1,-1,-1],"split_conditions":[-5.62E-2,7.532083E-1,8.057053E-1,1.516737E3,7.8E1,1.482463E3,1.499166E3,3.7487213E-2,8.242489E-3,2.679E-1,1.53E2,-3.3940827E-3,-3.016193E-2,3.187E-1,5.599E-1,-3.2995414E-2,7.4875676E-3,4.0667456E-2,1.271448E-2,4.217289E-3,-1.7624034E-2,-1.7286524E-2,1.338959E-2],"split_indices":[3,4,4,8,15,8,8,0,0,1,15,0,0,1,3,0,0,0,0,0,0,0,0],"split_type":[0,0,0,0,0,0,0,0,0,0,0,0,0,0,0,0,0,0,0,0,0,0,0],"sum_hessian":[3.8731702E2,1.6361397E2,2.2370305E2,5.4776543E1,1.08837425E2,8.71264E1,1.3657664E2,5.2287926E1,2.4886155E0,1.24351635E1,9.640226E1,3.2617605E0,8.386465E1,6.970305E1,6.6873604E1,5.091755E0,7.3434086E0,6.741636E0,8.966062E1,5.5047466E1,1.4655579E1,6.295964E1,3.9139674E0],"tree_param":{"num_deleted":"0","num_feature":"18","num_nodes":"23","size_leaf_vector":"1"}},{"base_weights":[1.5507132E-1,-1.2453272E-1,5.7004064E-1,-3.997597E-1,7.114164E-2,7.090397E-1,4.5891085E-1,-5.9258896E-1,-3.1463853E-1,1.0338896E-1,-4.6317574E-1,7.3706913E-1,1.0257452E-2,3.0163455E-1,6.839072E-1,-1.0708843E-2,-3.1139348E-2,-1.735807E-2,2.5951559E-2,-8.483211E-3,8.050051E-3,-3.3701923E-2,2.0262802E-3,2.9333944E-2,4.03918E-2,2.498506E-2,2.94996E-3,4.7381464E-2,2.2589548E-2],"categories":[],"categories_nodes":[],"categories_segments":[],"categories_sizes":[],"default_left":[0,0,0,0,0,0,0,0,0,0,0,0,0,0,0,0,0,0,0,0,0,0,0,0,0,0,0,0,0],"id":36,"left_children":[1,3,5,7,9,11,13,15,17,19,21,23,-1,25,27,-1,-1,-1,-1,-1,-1,-1,-1,-1,-1,-1,-1,-1,-1],"loss_changes":[4.55981E1,1.2697698E1,2.117321E0,1.4205332E0,2.4315972E0,8.1518173E-1,3.0036983E0,1.962986E-1,2.0795684E0,2.0926185E0,8.830279E-1,2.1178818E-1,0E0,2.6223536E0,1.8081493E0,0E0,0E0,0E0,0E0,0E0,0E0,0E0,0E0,0E0,0E0,0E0,0E0,0E0,0E0],"parents":[2147483647,0,0,1,1,2,2,3,3,4,4,5,5,6,6,7,7,8,8,9,9,10,10,11,11,13,13,14,14],"right_children":[2,4,6,8,10,12,14,16,18,20,22,24,-1,26,28,-1,-1,-1,-1,-1,-1,-1,-1,-1,-1,-1,-1,-1,-1],"split_conditions":[4.327E-1,-2.128E-1,5.5812347E-1,-2.047E1,4.035E-1,9.699454E-1,1.50159E3,4.0983606E-2,1.518485E3,1.5300547E-1,5.82E2,3.92E2,1.0257452E-2,4.14E2,6.535E-1,-1.0708843E-2,-3.1139348E-2,-1.735807E-2,2.5951559E-2,-8.483211E-3,8.050051E-3,-3.3701923E-2,2.0262802E-3,2.9333944E-2,4.03918E-2,2.498506E-2,2.94996E-3,4.7381464E-2,2.2589548E-2],"split_indices":[3,3,4,11,3,16,10,16,10,16,15,15,0,15,0,0,0,0,0,0,0,0,0,0,0,0,0,0,0],"split_type":[0,0,0,0,0,0,0,0,0,0,0,0,0,0,0,0,0,0,0,0,0,0,0,0,0,0,0,0,0],"sum_hessian":[3.913834E2,2.3424818E2,1.5713522E2,9.690411E1,1.3734407E2,6.742323E1,8.971199E1,2.785074E1,6.9053375E1,1.3028741E2,7.056651E0,6.3432007E1,3.9912226E0,5.417992E1,3.5532074E1,2.6563501E0,2.519439E1,6.702229E1,2.0310793E0,2.2361206E1,1.0792621E2,4.7359047E0,2.3207464E0,2.3270025E1,4.016198E1,2.9246288E1,2.4933632E1,1.5190555E1,2.0341518E1],"tree_param":{"num_deleted":"0","num_feature":"18","num_nodes":"29","size_leaf_vector":"1"}},{"base_weights":[-1.3933799E-1,-3.1537157E-1,-1.1149816E-3,-1.1912701E-1,-3.693979E-1,4.2379145E-2,-3.5684797E-1,-4.5029005E-1,1.8184534E-1,-1.4024237E-1,-4.2418012E-1,1.4438931E-2,7.1704936E-1,-4.5509452E-1,1.0970459E-2,-7.1162144E-3,-2.6702384E-2,-2.7559627E-2,1.9250175E-2,-2.0786114E-2,2.4125112E-2,-3.2007617E-3,-2.314552E-2,4.712103E-3,-8.999481E-3,4.4807237E-2,1.4500568E-2,-4.934194E-3,-2.6426861E-2],"categories":[],"categories_nodes":[],"categories_segments":[],"categories_sizes":[],"default_left":[0,0,0,0,0,0,0,0,0,0,0,0,0,0,0,0,0,0,0,0,0,0,0,0,0,0,0,0,0],"id":37,"left_children":[1,3,5,7,9,11,13,15,17,19,21,23,25,27,-1,-1,-1,-1,-1,-1,-1,-1,-1,-1,-1,-1,-1,-1,-1],"loss_changes":[8.858823E0,1.6538734E0,3.1862595E0,3.6746178E0,1.5109177E0,3.4490879E0,1.3700287E0,3.741026E-1,3.1305122E0,4.597423E0,1.3717957E0,2.7670689E0,2.966857E-1,4.5807695E-1,0E0,0E0,0E0,0E0,0E0,0E0,0E0,0E0,0E0,0E0,0E0,0E0,0E0,0E0,0E0],"parents":[2147483647,0,0,1,1,2,2,3,3,4,4,5,5,6,6,7,7,8,8,9,9,10,10,11,11,12,12,13,13],"right_children":[2,4,6,8,10,12,14,16,18,20,22,24,26,28,-1,-1,-1,-1,-1,-1,-1,-1,-1,-1,-1,-1,-1,-1,-1],"split_conditions":[2.163E-1,1.490375E3,4.425E-1,5.5812347E-1,-2.047E1,-4.05E-3,1.515896E3,1.9125684E-1,1.469557E3,-3.348E1,6.4E1,7.95082E-1,4.182E-1,9.2E1,1.0970459E-2,-7.1162144E-3,-2.6702384E-2,-2.7559627E-2,1.9250175E-2,-2.0786114E-2,2.4125112E-2,-3.2007617E-3,-2.314552E-2,4.712103E-3,-8.999481E-3,4.4807237E-2,1.4500568E-2,-4.934194E-3,-2.6426861E-2],"split_indices":[1,9,3,4,11,14,9,16,9,11,15,16,3,15,0,0,0,0,0,0,0,0,0,0,0,0,0,0,0],"split_type":[0,0,0,0,0,0,0,0,0,0,0,0,0,0,0,0,0,0,0,0,0,0,0,0,0,0,0,0,0],"sum_hessian":[3.6309723E2,1.5914143E2,2.0395578E2,3.5045967E1,1.24095474E2,1.8252055E2,2.143523E1,1.6449877E1,1.8596088E1,2.4629515E1,9.946596E1,1.7624318E2,6.277383E0,1.849266E1,2.9425707E0,4.0944304E0,1.2355446E1,3.6636696E0,1.493242E1,1.7306274E1,7.323241E0,9.915107E0,8.955085E1,1.2532065E2,5.0922523E1,3.6486597E0,2.6287231E0,3.5600002E0,1.493266E1],"tree_param":{"num_deleted":"0","num_feature":"18","num_nodes":"29","size_leaf_vector":"1"}},{"base_weights":[-2.892605E-2,3.75117E-1,-3.3071655E-1,7.0019823E-1,2.0084964E-1,-5.6736565E-1,-1.3925117E-1,6.851097E-3,7.3564094E-1,5.6890565E-1,7.523059E-2,-3.665632E-1,-2.9943231E-2,5.0976332E-2,-2.935018E-1,3.9519288E-2,2.7782334E-2,4.083345E-2,1.8246816E-2,-2.4046324E-2,7.4816393E-3,-2.60948E-2,5.978559E-3,1.0218837E-2,-1.4304513E-2,1.5556194E-2,-1.6156143E-2],"categories":[],"categories_nodes":[],"categories_segments":[],"categories_sizes":[],"default_left":[0,0,0,0,0,0,0,0,0,0,0,0,0,0,0,0,0,0,0,0,0,0,0,0,0,0,0],"id":38,"left_children":[1,3,5,7,9,11,13,-1,15,17,19,21,-1,23,25,-1,-1,-1,-1,-1,-1,-1,-1,-1,-1,-1,-1],"loss_changes":[4.5340504E1,8.867939E0,9.563047E0,9.9889755E-1,4.808394E0,3.8038254E-1,3.5054429E0,0E0,6.930542E-2,1.0435257E0,3.3565912E0,1.2282133E0,0E0,2.8567064E0,1.2796588E0,0E0,0E0,0E0,0E0,0E0,0E0,0E0,0E0,0E0,0E0,0E0,0E0],"parents":[2147483647,0,0,1,1,2,2,3,3,4,4,5,5,6,6,8,8,9,9,10,10,11,11,13,13,14,14],"right_children":[2,4,6,8,10,12,14,-1,16,18,20,22,-1,24,26,-1,-1,-1,-1,-1,-1,-1,-1,-1,-1,-1,-1],"split_conditions":[-5.62E-2,7.532083E-1,1.26E-1,4.0983606E-2,1.7213115E-1,-4.03E0,-1.238E0,6.851097E-3,1.44E-1,1.49689E3,2.568306E-1,-8.126E0,-2.9943231E-2,1.502825E3,3.6E-1,3.9519288E-2,2.7782334E-2,4.083345E-2,1.8246816E-2,-2.4046324E-2,7.4816393E-3,-2.60948E-2,5.978559E-3,1.0218837E-2,-1.4304513E-2,1.5556194E-2,-1.6156143E-2],"split_indices":[3,4,2,16,16,11,11,0,1,10,16,11,0,10,6,0,0,0,0,0,0,0,0,0,0,0,0],"split_type":[0,0,0,0,0,0,0,0,0,0,0,0,0,0,0,0,0,0,0,0,0,0,0,0,0,0,0],"sum_hessian":[3.698201E2,1.5801865E2,2.1180144E2,5.4093597E1,1.0392505E2,9.3845795E1,1.1795564E2,3.4908476E0,5.060275E1,2.5546518E1,7.837853E1,1.4438604E1,7.9407196E1,5.311805E1,6.483759E1,3.6201103E1,1.4401644E1,1.0178601E1,1.5367918E1,8.603491E0,6.977504E1,1.0886513E1,3.5520918E0,3.6775173E1,1.6342875E1,2.584254E0,6.2253338E1],"tree_param":{"num_deleted":"0","num_feature":"18","num_nodes":"27","size_leaf_vector":"1"}},{"base_weights":[1.6221884E-1,-1.3561429E-1,5.361183E-1,-4.3502307E-1,3.9500175E-3,3.405197E-1,6.574883E-1,-4.5733964E-1,7.1094977E-3,-5.1022656E-2,2.0452844E-1,-3.2713503E-1,4.00586E-1,6.864237E-1,-1.8493302E-2,-1.1892323E-2,-2.644293E-2,-1.8218376E-2,1.725688E-3,3.123765E-2,3.0861478E-4,1.5778685E-3,-2.8068796E-2,2.535207E-2,3.07908E-3,3.9536923E-2,2.818727E-2],"categories":[],"categories_nodes":[],"categories_segments":[],"categories_sizes":[],"default_left":[0,0,0,0,0,0,0,0,0,0,0,0,0,0,0,0,0,0,0,0,0,0,0,0,0,0,0],"id":39,"left_children":[1,3,5,7,9,11,13,15,-1,17,19,21,23,25,-1,-1,-1,-1,-1,-1,-1,-1,-1,-1,-1,-1,-1],"loss_changes":[4.2391144E1,8.873986E0,3.780861E0,9.3469906E-1,1.6181734E0,2.804689E0,3.3165054E0,8.983059E-1,0E0,3.1013837E0,2.6272368E0,5.263168E-1,2.192398E0,8.4101486E-1,0E0,0E0,0E0,0E0,0E0,0E0,0E0,0E0,0E0,0E0,0E0,0E0,0E0],"parents":[2147483647,0,0,1,1,2,2,3,3,4,4,5,5,6,6,7,7,9,9,10,10,11,11,12,12,13,13],"right_children":[2,4,6,8,10,12,14,16,-1,18,20,22,24,26,-1,-1,-1,-1,-1,-1,-1,-1,-1,-1,-1,-1,-1],"split_conditions":[5.596E-1,9.630499E-1,1.500681E3,2.1354E1,6.31514E-1,4.327E-1,9.945355E-1,1.49637E3,7.1094977E-3,1.5846995E-1,2.683E-1,1.492915E3,1.499063E3,1.897E-1,-1.8493302E-2,-1.1892323E-2,-2.644293E-2,-1.8218376E-2,1.725688E-3,3.123765E-2,3.0861478E-4,1.5778685E-3,-2.8068796E-2,2.535207E-2,3.07908E-3,3.9536923E-2,2.818727E-2],"split_indices":[0,4,8,11,5,3,16,10,0,16,3,10,8,13,0,0,0,0,0,0,0,0,0,0,0,0,0],"split_type":[0,0,0,0,0,0,0,0,0,0,0,0,0,0,0,0,0,0,0,0,0,0,0,0,0,0,0],"sum_hessian":[3.7901587E2,2.1132237E2,1.6769351E2,6.651342E1,1.4480894E2,6.566847E1,1.0202503E2,6.42375E1,2.2759178E0,1.1424371E2,3.0565237E1,5.053304E0,6.061517E1,9.955298E1,2.472056E0,1.6850033E1,4.7387474E1,2.3799479E1,9.044423E1,9.111835E0,2.1453402E1,2.338162E0,2.7151423E0,4.5752213E1,1.4862955E1,5.08603E1,4.869268E1],"tree_param":{"num_deleted":"0","num_feature":"18","num_nodes":"27","size_leaf_vector":"1"}},{"base_weights":[-1.5546142E-1,-3.4805295E-1,-1.1568497E-2,-1.1874146E-1,-4.0654507E-1,-3.472494E-2,5.9785086E-1,-5.1462066E-1,1.0748209E-1,-4.3645936E-1,-6.0838662E-2,-3.995318E-1,-7.1593327E-3,4.1068457E-2,2.7874857E-3,-6.6095227E-3,-2.925544E-2,-2.5778864E-2,1.2518569E-2,-1.2493304E-2,-2.4992736E-2,-2.5282523E-2,9.88138E-3,7.7678077E-3,-2.8614352E-2,2.1287585E-3,-1.2966396E-2],"categories":[],"categories_nodes":[],"categories_segments":[],"categories_sizes":[],"default_left":[0,0,0,0,0,0,0,0,0,0,0,0,0,0,0,0,0,0,0,0,0,0,0,0,0,0,0],"id":40,"left_children":[1,3,5,7,9,11,13,15,17,19,21,23,25,-1,-1,-1,-1,-1,-1,-1,-1,-1,-1,-1,-1,-1,-1],"loss_changes":[9.947512E0,2.0109997E0,2.9358644E0,2.976244E0,1.2342281E0,2.0078883E0,8.7712E-1,2.4702811E-1,2.050514E0,1.2004738E0,1.3497736E0,1.4337411E0,2.3553386E0,0E0,0E0,0E0,0E0,0E0,0E0,0E0,0E0,0E0,0E0,0E0,0E0,0E0,0E0],"parents":[2147483647,0,0,1,1,2,2,3,3,4,4,5,5,6,6,7,7,8,8,9,9,10,10,11,11,12,12],"right_children":[2,4,6,8,10,12,14,16,18,20,22,24,26,-1,-1,-1,-1,-1,-1,-1,-1,-1,-1,-1,-1,-1,-1],"split_conditions":[2.182E-1,1.490375E3,1.537935E3,3.48E-2,1.539052E3,-3.0392E1,9.32E2,1.481355E3,1.261E-1,2.03E2,-6.554E1,2.013E-1,1.402E1,4.1068457E-2,2.7874857E-3,-6.6095227E-3,-2.925544E-2,-2.5778864E-2,1.2518569E-2,-1.2493304E-2,-2.4992736E-2,-2.5282523E-2,9.88138E-3,7.7678077E-3,-2.8614352E-2,2.1287585E-3,-1.2966396E-2],"split_indices":[1,9,10,2,9,11,15,10,0,15,11,0,11,0,0,0,0,0,0,0,0,0,0,0,0,0,0],"split_type":[0,0,0,0,0,0,0,0,0,0,0,0,0,0,0,0,0,0,0,0,0,0,0,0,0,0,0],"sum_hessian":[3.5809854E2,1.5252914E2,2.0556938E2,3.1615265E1,1.2091388E2,1.989527E2,6.616695E0,1.1033098E1,2.0582167E1,1.11042725E2,9.871147E0,1.3029164E1,1.8592352E2,4.3202276E0,2.2964675E0,2.1645875E0,8.86851E0,3.3530748E0,1.7229094E1,2.9412746E1,8.162998E1,3.276335E0,6.5948124E0,3.1172633E0,9.911901E0,1.5598935E2,2.993418E1],"tree_param":{"num_deleted":"0","num_feature":"18","num_nodes":"27","size_leaf_vector":"1"}},{"base_weights":[-4.4835072E-2,-3.2242802E-1,3.988658E-1,-1.8688019E-1,-5.8591807E-1,6.475699E-1,2.2495481E-1,7.7136788E-3,-2.6478866E-1,-4.6325493E-1,-3.106153E-2,6.6781193E-1,7.1708597E-3,-2.3917252E-2,2.6451623E-1,-2.4512056E-2,5.032722E-3,1.2126784E-2,-1.4061697E-2,-2.744518E-2,4.8119687E-3,3.88711E-2,2.4286311E-2,3.9750848E-2,1.0794657E-2],"categories":[],"categories_nodes":[],"categories_segments":[],"categories_sizes":[],"default_left":[0,0,0,0,0,0,0,0,0,0,0,0,0,0,0,0,0,0,0,0,0,0,0,0,0],"id":41,"left_children":[1,3,5,7,9,11,13,15,17,19,-1,21,-1,-1,23,-1,-1,-1,-1,-1,-1,-1,-1,-1,-1],"loss_changes":[4.494711E1,7.9047966E0,5.930765E0,2.270627E0,4.0348053E-2,4.8877144E-1,2.469491E0,2.0742536E0,9.599576E-1,1.0527239E0,0E0,7.1601486E-1,0E0,0E0,1.901401E0,0E0,0E0,0E0,0E0,0E0,0E0,0E0,0E0,0E0,0E0],"parents":[2147483647,0,0,1,1,2,2,3,3,4,4,5,5,6,6,7,7,8,8,9,9,11,11,14,14],"right_children":[2,4,6,8,10,12,14,16,18,20,-1,22,-1,-1,24,-1,-1,-1,-1,-1,-1,-1,-1,-1,-1],"split_conditions":[4.146E-1,1.9943557E0,-2.0319564E0,5.6855E-1,5.788E-1,1.53055E3,1.013E-1,4E0,1.463788E3,5.773E-1,-3.106153E-2,1.44E-1,7.1708597E-3,-2.3917252E-2,-1.7509722E0,-2.4512056E-2,5.032722E-3,1.2126784E-2,-1.4061697E-2,-2.744518E-2,4.8119687E-3,3.88711E-2,2.4286311E-2,3.9750848E-2,1.0794657E-2],"split_indices":[2,5,5,12,12,10,0,17,9,12,0,1,0,0,5,0,0,0,0,0,0,0,0,0,0],"split_type":[0,0,0,0,0,0,0,0,0,0,0,0,0,0,0,0,0,0,0,0,0,0,0,0,0],"sum_hessian":[3.6288043E2,2.2339252E2,1.3948793E2,1.4863771E2,7.475481E1,5.6280106E1,8.3207825E1,4.2753147E1,1.0588456E2,1.986602E1,5.4888786E1,5.3795563E1,2.4845433E0,3.8406057E0,7.936722E1,6.052186E0,3.6700962E1,2.892895E0,1.0299166E2,1.7245039E1,2.620981E0,3.1539938E1,2.2255625E1,5.37482E0,7.399239E1],"tree_param":{"num_deleted":"0","num_feature":"18","num_nodes":"25","size_leaf_vector":"1"}},{"base_weights":[1.7033976E-1,4.6908355E-1,-2.0344561E-1,2.3117168E-1,5.4218495E-1,-3.6130166E-1,-2.6844634E-2,-1.3442616E-1,3.8805935E-1,5.952187E-1,8.112302E-2,-1.03321604E-1,-4.5458192E-1,-4.053556E-1,7.745359E-2,1.9193951E-2,-2.1610318E-2,-1.1439581E-2,2.3891656E-2,2.1571225E-2,3.366593E-2,4.158485E-2,-9.318361E-3,-1.38479415E-2,1.8872973E-2,-2.6033966E-2,-1.1116131E-2,-9.5661974E-4,-2.5704363E-2,-2.5815426E-3,1.8193753E-2],"categories":[],"categories_nodes":[],"categories_segments":[],"categories_sizes":[],"default_left":[0,0,0,0,0,0,0,0,0,0,0,0,0,0,0,0,0,0,0,0,0,0,0,0,0,0,0,0,0,0,0],"id":42,"left_children":[1,3,5,7,9,11,13,15,17,19,21,23,25,27,29,-1,-1,-1,-1,-1,-1,-1,-1,-1,-1,-1,-1,-1,-1,-1,-1],"loss_changes":[4.3672497E1,3.6520767E0,4.842324E0,3.0803006E0,3.9961243E0,2.16265E0,3.3170266E0,2.727235E0,2.1692715E0,1.6051025E0,3.8131833E0,2.2481785E0,9.1500187E-1,7.5192237E-1,2.4622085E0,0E0,0E0,0E0,0E0,0E0,0E0,0E0,0E0,0E0,0E0,0E0,0E0,0E0,0E0,0E0,0E0],"parents":[2147483647,0,0,1,1,2,2,3,3,4,4,5,5,6,6,7,7,8,8,9,9,10,10,11,11,12,12,13,13,14,14],"right_children":[2,4,6,8,10,12,14,16,18,20,22,24,26,28,30,-1,-1,-1,-1,-1,-1,-1,-1,-1,-1,-1,-1,-1,-1,-1,-1],"split_conditions":[2.635E-1,-1.238E0,-2.128E-1,1.2546554E0,9.31694E-1,1.497799E3,1.7213115E-1,8.202795E-1,1.44E2,1.49866E3,4.82E0,1.49577E3,2.608E-1,3.134E-1,1.50255E3,1.9193951E-2,-2.1610318E-2,-1.1439581E-2,2.3891656E-2,2.1571225E-2,3.366593E-2,4.158485E-2,-9.318361E-3,-1.38479415E-2,1.8872973E-2,-2.6033966E-2,-1.1116131E-2,-9.5661974E-4,-2.5704363E-2,-2.5815426E-3,1.8193753E-2],"split_indices":[2,11,7,5,16,9,16,5,15,10,11,10,1,2,10,0,0,0,0,0,0,0,0,0,0,0,0,0,0,0,0],"split_type":[0,0,0,0,0,0,0,0,0,0,0,0,0,0,0,0,0,0,0,0,0,0,0,0,0,0,0,0,0,0,0],"sum_hessian":[3.8924448E2,2.161967E2,1.7304776E2,5.179378E1,1.6440292E2,9.0820946E1,8.2226814E1,1.5595202E1,3.6198578E1,1.4718227E2,1.7220652E1,2.4678001E1,6.6142944E1,1.7139387E1,6.508743E1,5.585008E0,1.0010194E1,4.402145E0,3.1796434E1,4.9626835E1,9.7555435E1,3.970427E0,1.3250225E1,1.8441628E1,6.2363744E0,5.0523067E1,1.5619876E1,4.0235147E0,1.3115872E1,4.543191E1,1.9655518E1],"tree_param":{"num_deleted":"0","num_feature":"18","num_nodes":"31","size_leaf_vector":"1"}},{"base_weights":[-1.372227E-1,-2.9984078E-1,-1.1750577E-2,-4.155059E-1,-2.0000744E-1,-3.769414E-2,4.90264E-1,-3.6198542E-1,-2.9756237E-2,1.3737412E-1,-3.3555982E-1,-3.1732208E-1,-2.2852588E-4,5.0613906E-2,8.818004E-2,2.801176E-3,-2.1682626E-2,-2.6777416E-2,1.4093361E-2,-2.2736557E-2,-1.0438589E-3,-3.1753592E-2,-1.8484433E-3,9.799815E-3,-2.0028611E-3,-1.4036735E-2,1.9912867E-2],"categories":[],"categories_nodes":[],"categories_segments":[],"categories_sizes":[],"default_left":[0,0,0,0,0,0,0,0,0,0,0,0,0,0,0,0,0,0,0,0,0,0,0,0,0,0,0],"id":43,"left_children":[1,3,5,7,9,11,13,15,-1,17,19,21,23,-1,25,-1,-1,-1,-1,-1,-1,-1,-1,-1,-1,-1,-1],"loss_changes":[7.325292E0,1.7228279E0,2.6726444E0,4.7216034E-1,3.973204E0,2.0397308E0,2.0276177E0,1.7515774E0,0E0,2.6130548E0,2.298657E0,2.025785E0,1.3575656E0,0E0,8.88827E-1,0E0,0E0,0E0,0E0,0E0,0E0,0E0,0E0,0E0,0E0,0E0,0E0],"parents":[2147483647,0,0,1,1,2,2,3,3,4,4,5,5,6,6,7,7,9,9,10,10,11,11,12,12,14,14],"right_children":[2,4,6,8,10,12,14,16,-1,18,20,22,24,-1,26,-1,-1,-1,-1,-1,-1,-1,-1,-1,-1,-1,-1],"split_conditions":[2.187E-1,5.5812347E-1,6.32E-1,9.441E-1,1.492795E3,9.1667277E-1,2.1311475E-1,1.21E-2,-2.9756237E-2,1.261E-1,6.179E-1,6.277E-1,-8.4963703E-1,5.0613906E-2,6.717E-1,2.801176E-3,-2.1682626E-2,-2.6777416E-2,1.4093361E-2,-2.2736557E-2,-1.0438589E-3,-3.1753592E-2,-1.8484433E-3,9.799815E-3,-2.0028611E-3,-1.4036735E-2,1.9912867E-2],"split_indices":[1,4,2,0,9,4,16,2,0,0,3,0,5,0,6,0,0,0,0,0,0,0,0,0,0,0,0],"split_type":[0,0,0,0,0,0,0,0,0,0,0,0,0,0,0,0,0,0,0,0,0,0,0,0,0,0,0],"sum_hessian":[3.5818466E2,1.5539517E2,2.027895E2,7.052463E1,8.4870544E1,1.9370401E2,9.085498E0,5.6657784E1,1.3866841E1,2.432175E1,6.054879E1,2.200418E1,1.7169983E2,3.2928739E0,5.7926235E0,8.324163E0,4.833362E1,3.8209088E0,2.0500843E1,4.3594402E1,1.6954388E1,9.721108E0,1.2283072E1,2.8308884E1,1.4339095E2,2.6885495E0,3.104074E0],"tree_param":{"num_deleted":"0","num_feature":"18","num_nodes":"27","size_leaf_vector":"1"}},{"base_weights":[-2.727078E-2,3.5830888E-1,-3.2098538E-1,6.339816E-1,1.7236933E-1,-1.665933E-1,-2.9613435E-2,6.502616E-1,8.674091E-3,1.2601721E-1,7.020642E-1,-2.1823023E-2,-2.6635677E-1,3.8148046E-2,2.7190372E-2,2.998671E-2,3.8982953E-3,1.4074869E-2,5.1382095E-2,2.7617192E-2,-5.5812704E-3,1.5437439E-3,-1.6779335E-2],"categories":[],"categories_nodes":[],"categories_segments":[],"categories_sizes":[],"default_left":[0,0,0,0,0,0,0,0,0,0,0,0,0,0,0,0,0,0,0,0,0,0,0],"id":44,"left_children":[1,3,5,7,9,11,-1,13,-1,15,17,19,21,-1,-1,-1,-1,-1,-1,-1,-1,-1,-1],"loss_changes":[4.04982E1,7.81798E0,8.400873E0,3.5141182E-1,2.2128637E0,1.8821366E0,0E0,2.9825592E-1,0E0,1.9428823E0,7.13495E-1,2.8675997E0,1.6009865E0,0E0,0E0,0E0,0E0,0E0,0E0,0E0,0E0,0E0,0E0],"parents":[2147483647,0,0,1,1,2,2,3,3,4,4,5,5,7,7,9,9,10,10,11,11,12,12],"right_children":[2,4,6,8,10,12,-1,14,-1,16,18,20,22,-1,-1,-1,-1,-1,-1,-1,-1,-1,-1],"split_conditions":[-5.62E-2,2.024E-1,1.9943557E0,1.533845E3,-8.83E-2,-1.888E0,-2.9613435E-2,1.194E-1,8.674091E-3,1.472295E3,1.504135E3,2.089E-1,3.2312152E-1,3.8148046E-2,2.7190372E-2,2.998671E-2,3.8982953E-3,1.4074869E-2,5.1382095E-2,2.7617192E-2,-5.5812704E-3,1.5437439E-3,-1.6779335E-2],"split_indices":[3,1,5,10,3,11,0,1,0,8,10,1,5,0,0,0,0,0,0,0,0,0,0],"split_type":[0,0,0,0,0,0,0,0,0,0,0,0,0,0,0,0,0,0,0,0,0,0,0],"sum_hessian":[3.5558325E2,1.5365271E2,2.0193056E2,6.0921413E1,9.273129E1,1.297192E2,7.2211365E1,5.8443203E1,2.47821E0,8.640788E1,6.323406E0,5.3419308E1,7.629988E1,2.5393223E1,3.304998E1,6.9002447E0,7.950764E1,3.5728133E0,2.750593E0,6.528374E0,4.6890934E1,1.4518825E1,6.1781055E1],"tree_param":{"num_deleted":"0","num_feature":"18","num_nodes":"23","size_leaf_vector":"1"}},{"base_weights":[1.2721205E-1,-1.20021455E-1,4.9726507E-1,-4.4460765E-1,1.1836023E-2,5.444945E-1,7.3000036E-2,-2.1998721E-1,-5.3076375E-1,-9.215664E-2,1.8035655E-1,6.1991278E-2,5.8020717E-1,-8.4669314E-2,3.5408787E-2,-2.6077166E-2,-1.808726E-4,9.591621E-4,-2.8330058E-2,-2.0218503E-2,-1.5688356E-4,3.9526246E-2,3.745677E-3,-2.355549E-2,1.8492876E-2,3.27931E-2,2.0693459E-2,1.9835725E-2,-1.7041154E-2],"categories":[],"categories_nodes":[],"categories_segments":[],"categories_sizes":[],"default_left":[0,0,0,0,0,0,0,0,0,0,0,0,0,0,0,0,0,0,0,0,0,0,0,0,0,0,0,0,0],"id":45,"left_children":[1,3,5,7,9,11,13,15,17,19,21,23,25,27,-1,-1,-1,-1,-1,-1,-1,-1,-1,-1,-1,-1,-1,-1,-1],"loss_changes":[3.5745136E1,1.0047384E1,3.0944748E0,1.195467E0,2.95777E0,2.3866615E0,1.7447399E0,1.3360744E0,9.6282005E-1,2.9015613E0,4.082982E0,1.9481821E0,1.3743858E0,1.9072294E0,0E0,0E0,0E0,0E0,0E0,0E0,0E0,0E0,0E0,0E0,0E0,0E0,0E0,0E0,0E0],"parents":[2147483647,0,0,1,1,2,2,3,3,4,4,5,5,6,6,7,7,8,8,9,9,10,10,11,11,12,12,13,13],"right_children":[2,4,6,8,10,12,14,16,18,20,22,24,26,28,-1,-1,-1,-1,-1,-1,-1,-1,-1,-1,-1,-1,-1,-1,-1],"split_conditions":[4.407E-1,9.5198536E-1,9.3442625E-1,1.49721E3,1.469E-1,-1.992E1,1.505969E3,3.0601093E-1,4.0983606E-2,1.5846995E-1,4.503E-1,1.512843E3,8.56E-2,2.84E-2,3.5408787E-2,-2.6077166E-2,-1.808726E-4,9.591621E-4,-2.8330058E-2,-2.0218503E-2,-1.5688356E-4,3.9526246E-2,3.745677E-3,-2.355549E-2,1.8492876E-2,3.27931E-2,2.0693459E-2,1.9835725E-2,-1.7041154E-2],"split_indices":[7,4,16,9,7,11,9,16,16,16,6,9,2,2,0,0,0,0,0,0,0,0,0,0,0,0,0,0,0],"split_type":[0,0,0,0,0,0,0,0,0,0,0,0,0,0,0,0,0,0,0,0,0,0,0,0,0,0,0,0,0],"sum_hessian":[3.8904968E2,2.3363387E2,1.554158E2,6.6806984E1,1.6682689E2,1.3959286E2,1.5822938E1,1.9505892E1,4.730109E1,1.0344497E2,6.338192E1,9.808538E0,1.2978433E2,1.3370647E1,2.45229E0,7.559598E0,1.1946294E1,2.9222398E0,4.437885E1,2.2164747E1,8.128023E1,8.381782E0,5.5000137E1,3.3966532E0,6.4118853E0,8.7186646E1,4.2597675E1,4.4531713E0,8.917477E0],"tree_param":{"num_deleted":"0","num_feature":"18","num_nodes":"29","size_leaf_vector":"1"}},{"base_weights":[-1.393207E-1,-3.4267446E-1,-4.2490404E-2,-2.9957658E-1,-2.811767E-2,-3.0752605E-2,-2.4715843E-2,4.0052718E-1,-3.3513018E-1,1.4374916E-1,-8.559834E-2,-5.085464E-3,3.781068E-2,-2.135407E-2,-1.0829145E-2,-5.776283E-4,3.03416E-2,2.91763E-2,-5.394996E-3],"categories":[],"categories_nodes":[],"categories_segments":[],"categories_sizes":[],"default_left":[0,0,0,0,0,0,0,0,0,0,0,0,0,0,0,0,0,0,0],"id":46,"left_children":[1,3,5,7,-1,-1,9,11,13,15,17,-1,-1,-1,-1,-1,-1,-1,-1],"loss_changes":[7.006951E0,9.192095E-1,2.4548173E0,2.5780754E0,0E0,0E0,2.4373617E0,1.0059335E0,9.319439E-1,4.5477657E0,2.6639752E0,0E0,0E0,0E0,0E0,0E0,0E0,0E0,0E0],"parents":[2147483647,0,0,1,1,2,2,3,3,6,6,7,7,8,8,9,9,10,10],"right_children":[2,4,6,8,-1,-1,10,12,14,16,18,-1,-1,-1,-1,-1,-1,-1,-1],"split_conditions":[7.532083E-1,6.1535E-1,1.47404E3,1.484945E3,-2.811767E-2,-3.0752605E-2,1.494225E3,5.2131456E-1,1.502008E3,1.0692389E0,9.67E-2,-5.085464E-3,3.781068E-2,-2.135407E-2,-1.0829145E-2,-5.776283E-4,3.03416E-2,2.91763E-2,-5.394996E-3],"split_indices":[4,12,10,9,0,0,9,4,9,4,0,0,0,0,0,0,0,0,0],"split_type":[0,0,0,0,0,0,0,0,0,0,0,0,0,0,0,0,0,0,0],"sum_hessian":[3.5558823E2,1.13883026E2,2.4170518E2,9.718116E1,1.6701864E1,6.2657948E0,2.3543939E2,4.200551E0,9.298061E1,6.2138336E1,1.7330106E2,2.0375445E0,2.1630063E0,5.0898533E1,4.2082077E1,4.7263027E1,1.4875308E1,4.778043E0,1.6852301E2],"tree_param":{"num_deleted":"0","num_feature":"18","num_nodes":"19","size_leaf_vector":"1"}},{"base_weights":[-1.5070274E-2,-2.8048146E-1,3.687431E-1,-1.2448048E-1,-5.6210655E-1,6.227192E-1,2.2981705E-1,3.078941E-2,-3.030149E-1,-4.2128152E-1,-3.0475244E-2,4.707126E-3,6.5908754E-1,4.8371252E-1,1.3801035E-1,-7.950935E-3,1.206003E-2,-1.7211253E-2,2.1980763E-3,-2.4937257E-2,9.883488E-3,3.535341E-2,2.2487504E-2,3.2274622E-2,7.8467475E-3,-1.7686572E-2,1.013799E-2],"categories":[],"categories_nodes":[],"categories_segments":[],"categories_sizes":[],"default_left":[0,0,0,0,0,0,0,0,0,0,0,0,0,0,0,0,0,0,0,0,0,0,0,0,0,0,0],"id":47,"left_children":[1,3,5,7,9,11,13,15,17,19,-1,-1,21,23,25,-1,-1,-1,-1,-1,-1,-1,-1,-1,-1,-1,-1],"loss_changes":[3.679932E1,9.311235E0,5.0682507E0,3.8541682E0,2.49403E-1,9.3063927E-1,2.1956086E0,3.037274E0,9.3895483E-1,1.1694381E0,0E0,0E0,1.6560936E-1,1.2402401E0,2.3859272E0,0E0,0E0,0E0,0E0,0E0,0E0,0E0,0E0,0E0,0E0,0E0,0E0],"parents":[2147483647,0,0,1,1,2,2,3,3,4,4,5,5,6,6,7,7,8,8,9,9,12,12,13,13,14,14],"right_children":[2,4,6,8,10,12,14,16,18,20,-1,-1,22,24,26,-1,-1,-1,-1,-1,-1,-1,-1,-1,-1,-1,-1],"split_conditions":[3.855E-1,1.9943557E0,7.532083E-1,1.499832E3,1.88E0,4.0983606E-2,1.557377E-1,-9.09E-2,9.31694E-1,6.98E-1,-3.0475244E-2,4.707126E-3,6.31E-2,2.308E-1,2.568306E-1,-7.950935E-3,1.206003E-2,-1.7211253E-2,2.1980763E-3,-2.4937257E-2,9.883488E-3,3.535341E-2,2.2487504E-2,3.2274622E-2,7.8467475E-3,-1.7686572E-2,1.013799E-2],"split_indices":[2,5,4,8,11,16,16,14,16,11,0,0,0,0,16,0,0,0,0,0,0,0,0,0,0,0,0],"split_type":[0,0,0,0,0,0,0,0,0,0,0,0,0,0,0,0,0,0,0,0,0,0,0,0,0,0,0],"sum_hessian":[3.5922858E2,2.1253056E2,1.4669801E2,1.3769757E2,7.4833E1,5.0639523E1,9.6058495E1,7.408982E1,6.360775E1,2.1334417E1,5.349858E1,3.4909282E0,4.7148598E1,2.4376207E1,7.168229E1,3.908037E1,3.5009445E1,5.6862198E1,6.7455535E0,1.9133953E1,2.2004638E0,3.6422752E1,1.0725842E1,1.565196E1,8.724247E0,7.8211584E0,6.386113E1],"tree_param":{"num_deleted":"0","num_feature":"18","num_nodes":"27","size_leaf_vector":"1"}},{"base_weights":[1.2251274E-1,-1.2843916E-1,4.880864E-1,-3.5105965E-1,2.561802E-2,4.406476E-1,3.8797226E-2,-4.1076216E-1,-5.8094647E-2,7.230089E-2,-3.6488393E-1,7.4853784E-1,3.900245E-1,-9.238145E-3,-2.458716E-2,-2.4227912E-2,1.725413E-2,3.0960888E-2,2.0131685E-3,-2.4427112E-2,2.1235459E-3,-1.4552093E-3,4.6544433E-2,-1.7827157E-2,2.227777E-2],"categories":[],"categories_nodes":[],"categories_segments":[],"categories_sizes":[],"default_left":[0,0,0,0,0,0,0,0,0,0,0,0,0,0,0,0,0,0,0,0,0,0,0,0,0],"id":48,"left_children":[1,3,5,7,9,11,-1,13,15,17,19,21,23,-1,-1,-1,-1,-1,-1,-1,-1,-1,-1,-1,-1],"loss_changes":[3.539678E1,7.868627E0,1.8017464E0,1.6166916E0,2.5124295E0,1.844696E0,0E0,1.3321409E0,3.0976322E0,2.1240497E0,7.626083E-1,2.6176758E0,5.1261177E0,0E0,0E0,0E0,0E0,0E0,0E0,0E0,0E0,0E0,0E0,0E0,0E0],"parents":[2147483647,0,0,1,1,2,2,3,3,4,4,5,5,7,7,8,8,9,9,10,10,11,11,12,12],"right_children":[2,4,6,8,10,12,-1,14,16,18,20,22,24,-1,-1,-1,-1,-1,-1,-1,-1,-1,-1,-1,-1],"split_conditions":[4.327E-1,-2.128E-1,9.435E-1,2.878E-1,1.1107106E0,6.273E-1,3.8797226E-2,1.497799E3,4.959E-1,1.474292E3,1.3258423E0,1.489007E3,6.41E-1,-9.238145E-3,-2.458716E-2,-2.4227912E-2,1.725413E-2,3.0960888E-2,2.0131685E-3,-2.4427112E-2,2.1235459E-3,-1.4552093E-3,4.6544433E-2,-1.7827157E-2,2.227777E-2],"split_indices":[3,3,6,1,5,6,0,9,2,9,5,9,6,0,0,0,0,0,0,0,0,0,0,0,0],"split_type":[0,0,0,0,0,0,0,0,0,0,0,0,0,0,0,0,0,0,0,0,0,0,0,0,0],"sum_hessian":[3.841488E2,2.2816867E2,1.5598013E2,9.279557E1,1.3537311E2,1.3608432E2,1.9895805E1,7.675234E1,1.604323E1,1.2164572E2,1.3727384E1,1.7268806E1,1.1881551E2,2.1112843E1,5.5639496E1,7.6983724E0,8.344857E0,5.7172847E0,1.1592844E2,1.0377764E1,3.34962E0,3.439847E0,1.3828959E1,7.8505545E0,1.10964966E2],"tree_param":{"num_deleted":"0","num_feature":"18","num_nodes":"25","size_leaf_vector":"1"}},{"base_weights":[-1.6112526E-1,-2.8827387E-1,-3.843763E-2,-2.4659126E-1,-5.5772984E-1,-6.872849E-2,7.537801E-1,-5.2237626E-2,-3.1303453E-1,-6.329346E-3,-2.9833326E-2,1.0321211E-2,-2.4786724E-1,1.4985511E-2,4.6540964E-2,-2.0930953E-2,4.9706693E-3,-2.7090043E-2,-1.2570994E-2,-1.743602E-2,5.2802633E-3,1.2905003E-3,-2.4464635E-2],"categories":[],"categories_nodes":[],"categories_segments":[],"categories_sizes":[],"default_left":[0,0,0,0,0,0,0,0,0,0,0,0,0,0,0,0,0,0,0,0,0,0,0],"id":49,"left_children":[1,3,5,7,9,11,13,15,17,-1,-1,19,21,-1,-1,-1,-1,-1,-1,-1,-1,-1,-1],"loss_changes":[5.516923E0,1.8152752E0,4.407305E0,1.9512358E0,3.021841E-1,2.491108E0,2.6507568E-1,2.2651474E0,1.461463E0,0E0,0E0,4.2409973E0,3.570287E0,0E0,0E0,0E0,0E0,0E0,0E0,0E0,0E0,0E0,0E0],"parents":[2147483647,0,0,1,1,2,2,3,3,4,4,5,5,6,6,7,7,8,8,11,11,12,12],"right_children":[2,4,6,8,10,12,14,16,18,-1,-1,20,22,-1,-1,-1,-1,-1,-1,-1,-1,-1,-1],"split_conditions":[9.186317E-1,9.435E-1,1.537935E3,1.492795E3,-3.7544E1,7.95082E-1,1.2021858E-1,5.5812347E-1,1.497534E3,-6.329346E-3,-2.9833326E-2,2.125E-1,2.962E-1,1.4985511E-2,4.6540964E-2,-2.0930953E-2,4.9706693E-3,-2.7090043E-2,-1.2570994E-2,-1.743602E-2,5.2802633E-3,1.2905003E-3,-2.4464635E-2],"split_indices":[4,6,10,9,11,16,16,4,9,0,0,2,2,0,0,0,0,0,0,0,0,0,0],"split_type":[0,0,0,0,0,0,0,0,0,0,0,0,0,0,0,0,0,0,0,0,0,0,0],"sum_hessian":[3.5336905E2,1.7286693E2,1.805021E2,1.5136688E2,2.1500053E1,1.747343E2,5.7678113E0,3.9018837E1,1.12348045E2,2.1329653E0,1.9367088E1,1.21889656E2,5.2844643E1,2.373405E0,3.394406E0,1.0907188E1,2.8111647E1,2.2184996E1,9.016305E1,2.500564E1,9.688402E1,2.5186544E1,2.7658096E1],"tree_param":{"num_deleted":"0","num_feature":"18","num_nodes":"23","size_leaf_vector":"1"}},{"base_weights":[-3.080562E-2,3.302107E-1,-2.956111E-1,5.77995E-1,1.212751E-1,-1.3933013E-1,-5.702004E-1,9.667498E-3,5.980898E-1,6.250687E-2,3.8134187E-2,3.60443E-3,-2.4545544E-1,-3.9133042E-1,-2.9590426E-2,3.097102E-2,1.0694931E-2,1.3368878E-2,-3.637713E-3,-1.4258417E-2,7.1850345E-3,1.532727E-2,-1.3445458E-2,1.1262574E-2,-2.7833924E-2],"categories":[],"categories_nodes":[],"categories_segments":[],"categories_sizes":[],"default_left":[0,0,0,0,0,0,0,0,0,0,0,0,0,0,0,0,0,0,0,0,0,0,0,0,0],"id":50,"left_children":[1,3,5,7,9,11,13,-1,15,17,-1,19,21,23,-1,-1,-1,-1,-1,-1,-1,-1,-1,-1,-1],"loss_changes":[3.4405758E1,7.8158684E0,8.827213E0,4.2092133E-1,3.1151156E0,2.0273626E0,5.8120728E-2,0E0,4.042282E-1,2.1796033E0,0E0,2.3837953E0,1.075212E0,1.2500222E0,0E0,0E0,0E0,0E0,0E0,0E0,0E0,0E0,0E0,0E0,0E0],"parents":[2147483647,0,0,1,1,2,2,3,3,4,4,5,5,6,6,8,8,9,9,11,11,12,12,13,13],"right_children":[2,4,6,8,10,12,14,-1,16,18,-1,20,22,24,-1,-1,-1,-1,-1,-1,-1,-1,-1,-1,-1],"split_conditions":[-6.53E-2,2.182E-1,1.9194149E0,4.2E1,-2.7979624E-1,-1.888E0,-3.77E0,9.667498E-3,1.533845E3,1.498495E3,3.8134187E-2,1.496665E3,3.583E-1,1.495146E3,-2.9590426E-2,3.097102E-2,1.0694931E-2,1.3368878E-2,-3.637713E-3,-1.4258417E-2,7.1850345E-3,1.532727E-2,-1.3445458E-2,1.1262574E-2,-2.7833924E-2],"split_indices":[3,1,5,15,5,11,11,0,10,10,0,10,6,9,0,0,0,0,0,0,0,0,0,0,0],"split_type":[0,0,0,0,0,0,0,0,0,0,0,0,0,0,0,0,0,0,0,0,0,0,0,0,0],"sum_hessian":[3.578752E2,1.513241E2,2.0655112E2,6.8418144E1,8.2905945E1,1.3259361E2,7.3957504E1,3.9242382E0,6.4493904E1,7.6952705E1,5.9532385E0,5.6910248E1,7.5683365E1,1.003112E1,6.3926384E1,6.0521442E1,3.9724638E0,3.0213562E1,4.6739147E1,1.8252287E1,3.865796E1,2.5926695E0,7.309069E1,2.0445855E0,7.9865346E0],"tree_param":{"num_deleted":"0","num_feature":"18","num_nodes":"25","size_leaf_vector":"1"}},{"base_weights":[1.3735041E-1,-9.8485254E-2,4.7555375E-1,-5.714538E-3,-4.1237828E-1,2.0265304E-1,5.080161E-1,-2.4024646E-1,7.533144E-2,1.7234771E-1,-4.7276676E-1,4.4041568E-1,-3.918736E-1,7.7523696E-1,4.7313926E-1,-2.2442415E-2,-3.5268292E-3,-2.3188984E-2,5.374485E-3,-8.493033E-3,2.4416259E-2,-1.2122667E-2,-2.6627382E-2,5.6663076E-3,4.2454433E-2,