{"learner":{"attributes":{"best_iteration":"6","best_score":"1.0405406281352043","scikit_learn":"{\"_estimator_type\": \"classifier\"}"},"feature_names":[],"feature_types":[],"gradient_booster":{"model":{"gbtree_model_param":{"num_parallel_tree":"1","num_trees":"141"},"iteration_indptr":[0,3,6,9,12,15,18,21,24,27,30,33,36,39,42,45,48,51,54,57,60,63,66,69,72,75,78,81,84,87,90,93,96,99,102,105,108,111,114,117,120,123,126,129,132,135,138,141],"tree_info":[0,1,2,0,1,2,0,1,2,0,1,2,0,1,2,0,1,2,0,1,2,0,1,2,0,1,2,0,1,2,0,1,2,0,1,2,0,1,2,0,1,2,0,1,2,0,1,2,0,1,2,0,1,2,0,1,2,0,1,2,0,1,2,0,1,2,0,1,2,0,1,2,0,1,2,0,1,2,0,1,2,0,1,2,0,1,2,0,1,2,0,1,2,0,1,2,0,1,2,0,1,2,0,1,2,0,1,2,0,1,2,0,1,2,0,1,2,0,1,2,0,1,2,0,1,2,0,1,2,0,1,2,0,1,2,0,1,2,0,1,2],"trees":[{"base_weights":[2.6840964E-1,-1.1471979E-1,5.8968705E-1,-3.3296344E-1,7.964598E-2,3.5885164E-1,7.810219E-1,-3.6939016E-1,5.121951E-1,1.5050164E-1,-4.186047E-1,1.5894036E-1,5.041597E-1,1.8633537E-1,8.6308974E-1,2.459016E-1,-4.1126075E-1,3.1034482E-1,-1.2857145E-1,4.070552E-2,6.213018E-1,-2.0412374E-1,2.926829E-1,2.6756757E-1,9.1764666E-2,7.058823E-1,2.0158099E-1,3.4054056E-1,-9.022561E-2,2.3999996E-1,9.3575126E-1,5.9999996E-1,-1.4400001E-1,-4.5173752E-1,3.0612242E-1,5.5045867E-1,-4.7095805E-2,-3.2432437E-1,8.297872E-1,-1.2857145E-1,2.1724138E-1,3.218884E-1,-1.7910452E-1,3.221476E-1,9.4009215E-1,4.9681526E-1,-2.571429E-1,2.5714284E-1,-2.4793394E-1,-1.6363637E-1,4.752475E-1,6.631579E-1,1.0362844E0,3.1034475E-2,2.8800002E-1,-1.914895E-2,-1.5906979E-1,-1.5517244E-1,3.1034482E-1,2.3225807E-1,-1.4400001E-1,-7.6539606E-2,5.6065563E-2,-7.663455E-9,-1.4400001E-1,3E-1,-9.753488E-9,1.9338842E-1,-7.4380296E-3,2.5714284E-1,-8.57143E-2,-1.2000001E-1,1.7522123E-1,-3.600001E-2,3.0895522E-1,2.8314605E-1,-2.3376636E-2,-1.6666669E-1,1.6363636E-1,1.21621616E-1,-1.4516132E-1,-1.4400001E-1,2.1176471E-1,-1.836736E-2,2.3510204E-1,9.183673E-2,3.231125E-1],"categories":[],"categories_nodes":[],"categories_segments":[],"categories_sizes":[],"default_left":[0,0,0,0,0,0,0,0,0,0,0,0,0,0,0,0,0,0,0,0,0,0,0,0,0,0,0,0,0,0,0,0,0,0,0,0,0,0,0,0,0,0,0,0,0,0,0,0,0,0,0,0,0,0,0,0,0,0,0,0,0,0,0,0,0,0,0,0,0,0,0,0,0,0,0,0,0,0,0,0,0,0,0,0,0,0,0],"id":0,"left_children":[1,3,5,7,9,11,13,15,17,19,21,23,25,27,29,31,33,-1,-1,35,37,-1,39,-1,41,43,45,-1,47,49,51,53,-1,55,57,59,61,63,65,-1,-1,67,69,71,73,75,77,-1,79,-1,81,83,85,-1,-1,-1,-1,-1,-1,-1,-1,-1,-1,-1,-1,-1,-1,-1,-1,-1,-1,-1,-1,-1,-1,-1,-1,-1,-1,-1,-1,-1,-1,-1,-1,-1,-1],"loss_changes":[5.708606E1,9.024078E0,1.0854683E1,3.2712574E0,4.052338E0,3.2927485E0,6.525406E0,2.5886545E0,2.6817253E0,5.1266813E0,2.8683074E0,2.3963943E0,3.9336205E0,4.79648E0,5.213417E0,2.0301638E0,2.7742338E0,0E0,0E0,3.6910255E0,3.9711447E0,0E0,1.7279828E0,0E0,3.0011742E0,3.2621708E0,3.9348683E0,0E0,2.4204314E0,2.8255625E0,2.251175E0,7.944828E-1,0E0,2.594904E0,3.8001409E0,3.163823E0,3.4928966E0,2.0756751E-1,2.2127666E0,0E0,0E0,2.9126382E0,2.7121534E0,3.365065E0,2.4178123E0,4.5552044E0,3.0972579E0,0E0,2.2685843E0,0E0,2.8112285E0,2.812459E0,1.9485245E0,0E0,0E0,0E0,0E0,0E0,0E0,0E0,0E0,0E0,0E0,0E0,0E0,0E0,0E0,0E0,0E0,0E0,0E0,0E0,0E0,0E0,0E0,0E0,0E0,0E0,0E0,0E0,0E0,0E0,0E0,0E0,0E0,0E0,0E0],"parents":[2147483647,0,0,1,1,2,2,3,3,4,4,5,5,6,6,7,7,8,8,9,9,10,10,11,11,12,12,13,13,14,14,15,15,16,16,19,19,20,20,22,22,24,24,25,25,26,26,28,28,29,29,30,30,31,31,33,33,34,34,35,35,36,36,37,37,38,38,41,41,42,42,43,43,44,44,45,45,46,46,48,48,50,50,51,51,52,52],"right_children":[2,4,6,8,10,12,14,16,18,20,22,24,26,28,30,32,34,-1,-1,36,38,-1,40,-1,42,44,46,-1,48,50,52,54,-1,56,58,60,62,64,66,-1,-1,68,70,72,74,76,78,-1,80,-1,82,84,86,-1,-1,-1,-1,-1,-1,-1,-1,-1,-1,-1,-1,-1,-1,-1,-1,-1,-1,-1,-1,-1,-1,-1,-1,-1,-1,-1,-1,-1,-1,-1,-1,-1,-1],"split_conditions":[-3.1134978E-2,-6.269014E-1,2.5208944E-1,8.7695724E-1,1.1335329E0,-9.277657E-2,-4.2659068E-1,-2.330675E0,-1.9169714E-1,5.0902075E-1,1.6188936E-1,-1.3720167E0,4.1307876E-1,-4.2991084E-1,-1.0278769E0,-4.3753162E-1,5.8109677E-1,3.1034482E-1,-1.2857145E-1,-5.1536167E-1,-3.6628628E-1,-2.0412374E-1,-5.9206754E-1,2.6756757E-1,1.2959097E-1,-7.254116E-1,2.5241667E-1,3.4054056E-1,-1.4739461E0,-2.842318E-1,2.696185E-1,-9.914219E-1,-1.4400001E-1,-4.53436E-1,5.3690934E-1,6.5781665E-1,-3.0029526E-1,-7.8315294E-1,7.327238E-1,-1.2857145E-1,2.1724138E-1,3.0896044E-1,-8.9866483E-1,-6.082176E-1,-7.177262E-3,3.8559866E-1,9.6054035E-1,2.5714284E-1,4.4663912E-1,-1.6363637E-1,-1.8572628E0,-2.0309038E-1,-1.3709974E0,3.1034475E-2,2.8800002E-1,-1.914895E-2,-1.5906979E-1,-1.5517244E-1,3.1034482E-1,2.3225807E-1,-1.4400001E-1,-7.6539606E-2,5.6065563E-2,-7.663455E-9,-1.4400001E-1,3E-1,-9.753488E-9,1.9338842E-1,-7.4380296E-3,2.5714284E-1,-8.57143E-2,-1.2000001E-1,1.7522123E-1,-3.600001E-2,3.0895522E-1,2.8314605E-1,-2.3376636E-2,-1.6666669E-1,1.6363636E-1,1.21621616E-1,-1.4516132E-1,-1.4400001E-1,2.1176471E-1,-1.836736E-2,2.3510204E-1,9.183673E-2,3.231125E-1],"split_indices":[23,13,14,14,17,20,6,15,16,7,6,22,12,10,9,11,8,0,0,3,21,0,12,0,3,19,7,0,5,13,11,19,0,18,18,10,23,4,15,0,0,16,5,10,23,9,6,0,14,0,4,20,1,0,0,0,0,0,0,0,0,0,0,0,0,0,0,0,0,0,0,0,0,0,0,0,0,0,0,0,0,0,0,0,0,0,0],"split_type":[0,0,0,0,0,0,0,0,0,0,0,0,0,0,0,0,0,0,0,0,0,0,0,0,0,0,0,0,0,0,0,0,0,0,0,0,0,0,0,0,0,0,0,0,0,0,0,0,0,0,0,0,0,0,0,0,0,0,0,0,0,0,0,0,0,0,0,0,0,0,0,0,0,0,0,0,0,0,0,0,0,0,0,0,0,0,0],"sum_hessian":[4.622222E2,2.111111E2,2.511111E2,9.911111E1,1.1199999E2,1.1511111E2,1.3599998E2,9.555555E1,3.5555553E0,9.8666664E1,1.3333332E1,4.9333332E1,6.577777E1,1.6888887E1,1.1911111E2,5.7777777E0,8.977777E1,2.222222E0,1.3333333E0,8.0888885E1,1.7777777E1,9.777777E0,3.5555553E0,3.111111E0,4.622222E1,3.8666664E1,2.7111109E1,3.111111E0,1.3777777E1,1.2888888E1,1.0622221E2,3.9999998E0,1.7777777E0,8.533333E1,4.444444E0,1.1111111E1,6.977777E1,3.111111E0,1.4666666E1,1.3333333E0,2.222222E0,2.4888887E1,2.1333332E1,1.5555554E1,2.311111E1,1.6444443E1,1.0666666E1,1.3333333E0,1.2444444E1,2.6666665E0,1.0222221E1,3.0666664E1,7.555555E1,2.222222E0,1.7777777E0,1.4666666E1,7.0666664E1,2.222222E0,2.222222E0,9.333333E0,1.7777777E0,3.6888885E1,3.2888885E1,1.3333333E0,1.7777777E0,1.1999999E1,2.6666665E0,1.2444444E1,1.2444444E1,1.3333333E0,1.9999998E1,3.9999998E0,1.1555555E1,1.7777777E0,2.1333332E1,8.888888E0,7.5555553E0,7.9999995E0,2.6666665E0,3.111111E0,9.333333E0,1.7777777E0,8.444444E0,4.444444E0,2.6222221E1,4.444444E0,7.111111E1],"tree_param":{"num_deleted":"0","num_feature":"26","num_nodes":"87","size_leaf_vector":"1"}},{"base_weights":[-2.3242989E-1,-2.5043225E-1,3.4883717E-1,-1.7364104E-1,-3.7974688E-1,8.3606553E-1,-7.792212E-2,-1.8951137E-1,6.7346936E-1,-3.0870718E-1,-5.8713144E-1,-7.663455E-9,3.122449E-1,2.5714284E-1,-3.692308E-1,2.8800002E-1,-2.0031992E-1,3.4054056E-1,-1.2857145E-1,-1.8072294E-1,-4.3539828E-1,-6.474165E-1,-1.13207586E-1,1.2857142E-1,-1.8679248E-1,-5.6756765E-1,-1.7032263E-1,-4.9090916E-1,-5.6470633E-2,-4.611212E-1,1.2857142E-1,3.1034475E-2,-2.0970877E-1,-1.7027028E-1,1.7999999E-1,-1.9704145E-1,7.2E-2,1.3561644E-1,-5.6921735E-2,1.2857142E-1,-1.7647062E-1,-1.6363639E-1,1.5126037E-2,-2.5714299E-2,-1.61488E-1],"categories":[],"categories_nodes":[],"categories_segments":[],"categories_sizes":[],"default_left":[0,0,0,0,0,0,0,0,0,0,0,0,0,0,0,0,0,0,0,0,0,0,0,0,0,0,0,0,0,0,0,0,0,0,0,0,0,0,0,0,0,0,0,0,0],"id":1,"left_children":[1,3,5,7,9,11,13,15,17,19,21,-1,-1,-1,23,-1,25,-1,-1,27,29,31,33,-1,-1,35,37,39,41,43,-1,-1,-1,-1,-1,-1,-1,-1,-1,-1,-1,-1,-1,-1,-1],"loss_changes":[4.9346027E0,4.40156E0,3.0454667E0,3.9471989E0,2.2758083E0,1.1602545E0,2.646953E0,3.667039E0,3.2564814E0,1.9697409E0,1.1107979E0,0E0,0E0,0E0,1.7269752E0,0E0,2.964676E0,0E0,0E0,2.460336E0,1.5927858E0,1.4889936E0,2.2488527E0,0E0,0E0,1.6389694E0,3.2075686E0,1.8927422E0,2.4957066E0,1.733963E0,0E0,0E0,0E0,0E0,0E0,0E0,0E0,0E0,0E0,0E0,0E0,0E0,0E0,0E0,0E0],"parents":[2147483647,0,0,1,1,2,2,3,3,4,4,5,5,6,6,7,7,8,8,9,9,10,10,14,14,16,16,19,19,20,20,21,21,22,22,25,25,26,26,27,27,28,28,29,29],"right_children":[2,4,6,8,10,12,14,16,18,20,22,-1,-1,-1,24,-1,26,-1,-1,28,30,32,34,-1,-1,36,38,40,42,44,-1,-1,-1,-1,-1,-1,-1,-1,-1,-1,-1,-1,-1,-1,-1],"split_conditions":[2.4839418E0,-9.224237E-3,-2.0181502E-1,2.1619406E0,5.1192325E-1,-1.4354128E0,-2.298237E-1,-2.3326232E0,2.0611768E0,5.6228274E-1,1.332518E0,-7.663455E-9,3.122449E-1,2.5714284E-1,-2.7772167E-1,2.8800002E-1,-1.4241664E0,3.4054056E-1,-1.2857145E-1,-4.468569E-1,3.15525E0,-1.6603391E-1,2.5549048E-1,1.2857142E-1,-1.8679248E-1,9.794613E-1,-1.8518324E0,-2.0710685E0,-9.3206424E-1,-1.0369725E0,1.2857142E-1,3.1034475E-2,-2.0970877E-1,-1.7027028E-1,1.7999999E-1,-1.9704145E-1,7.2E-2,1.3561644E-1,-5.6921735E-2,1.2857142E-1,-1.7647062E-1,-1.6363639E-1,1.5126037E-2,-2.5714299E-2,-1.61488E-1],"split_indices":[22,22,11,11,11,6,4,9,12,9,4,0,0,0,2,0,22,0,0,9,4,14,12,0,0,7,11,13,23,17,0,0,0,0,0,0,0,0,0,0,0,0,0,0,0],"split_type":[0,0,0,0,0,0,0,0,0,0,0,0,0,0,0,0,0,0,0,0,0,0,0,0,0,0,0,0,0,0,0,0,0,0,0,0,0,0,0,0,0,0,0,0,0],"sum_hessian":[4.622222E2,4.4888885E2,1.3333332E1,2.8311108E2,1.6577777E2,5.7777777E0,7.5555553E0,2.7866666E2,4.444444E0,1.2533333E2,4.0444443E1,1.3333333E0,4.444444E0,1.3333333E0,6.222222E0,1.7777777E0,2.768889E2,3.111111E0,1.3333333E0,6.3555553E1,6.1777775E1,3.5555553E1,4.8888884E0,1.3333333E0,4.8888884E0,1.9555553E1,2.573333E2,1.7333332E1,4.622222E1,6.0444443E1,1.3333333E0,2.222222E0,3.3333332E1,3.111111E0,1.7777777E0,1.7777777E1,1.7777777E0,7.1111107E0,2.5022221E2,1.3333333E0,1.5999999E1,7.5555553E0,3.8666664E1,1.0666666E1,4.9777775E1],"tree_param":{"num_deleted":"0","num_feature":"26","num_nodes":"45","size_leaf_vector":"1"}},{"base_weights":[-3.5979897E-2,3.2372966E-1,-3.3847517E-1,7.804878E-1,2.1304063E-1,-7.6923124E-2,-4.2705262E-1,1E0,-1.1111116E-1,-2.1888417E-1,2.8754714E-1,3.4883717E-1,-1.9354844E-1,-1.4243329E-1,-4.9450555E-1,1.1538461E0,-1.6363637E-1,-3.913044E-1,2.5714284E-1,1.7999999E-1,-3.041475E-1,5.1537067E-1,1.2291929E-1,-1.7560977E-1,7.113402E-1,-2.6365802E-1,3.9622638E-1,7.317073E-1,-2.5573775E-1,-1.2765962E-1,-5.3284675E-1,1.2413793E0,-1.2857145E-1,1.2857142E-1,-1.894737E-1,1.7999999E-1,-4.0298513E-1,7.8210115E-1,2.754098E-1,6.845634E-2,3E-1,3.3934426E-1,-3.576279E-8,-5.876289E-1,-1.6216221E-1,-1.2857145E-1,7.317073E-1,7.2E-2,2.8800002E-1,-3.3574012E-1,4.0540537E-1,-1.8E-1,8.571424E-2,-5.5376804E-1,-4.9180366E-2,7.2E-2,3.893878E-1,7.2E-2,-1.4108111E-1,3.6734685E-2,2.6958525E-1,-9.473686E-2,1.1906614E-1,-7.154227E-3,1.584E-1,1.7999999E-1,-1.5517244E-1,-7.663455E-9,-2.0117651E-1,9.473684E-2,-7.57895E-2,3.1034482E-1,-7.663455E-9,-1.525424E-1,-8.256894E-3,2.8800002E-1,-1.2857145E-1,-6.6666685E-2,2.4545455E-1,-7.283239E-2,-1.80531E-1,-1.7560977E-1,2.1724138E-1],"categories":[],"categories_nodes":[],"categories_segments":[],"categories_sizes":[],"default_left":[0,0,0,0,0,0,0,0,0,0,0,0,0,0,0,0,0,0,0,0,0,0,0,0,0,0,0,0,0,0,0,0,0,0,0,0,0,0,0,0,0,0,0,0,0,0,0,0,0,0,0,0,0,0,0,0,0,0,0,0,0,0,0,0,0,0,0,0,0,0,0,0,0,0,0,0,0,0,0,0,0,0,0],"id":2,"left_children":[1,3,5,7,9,11,13,15,17,19,21,23,25,27,29,31,-1,33,-1,-1,35,37,39,-1,41,43,45,47,49,51,53,55,-1,-1,-1,-1,57,59,61,63,-1,-1,65,67,69,-1,71,-1,-1,73,75,-1,77,79,81,-1,-1,-1,-1,-1,-1,-1,-1,-1,-1,-1,-1,-1,-1,-1,-1,-1,-1,-1,-1,-1,-1,-1,-1,-1,-1,-1,-1],"loss_changes":[5.051298E1,1.0557661E1,5.807966E0,8.1355E0,5.6016827E0,3.2950544E0,3.5409966E0,8.475525E0,2.7770877E0,1.9900715E0,5.4583797E0,5.270398E0,2.240826E0,3.895774E0,2.0652199E0,4.733612E0,0E0,1.7809744E0,0E0,0E0,2.396451E0,3.717348E0,4.0767794E0,0E0,3.2185225E0,1.4428415E0,1.9430676E0,2.8097534E-1,1.9285967E0,1.6303952E0,1.3590508E0,1.3315659E0,0E0,0E0,0E0,0E0,1.0790803E0,2.0847511E0,2.5591414E0,3.5238264E0,0E0,0E0,1.862069E0,5.254092E-1,1.6796587E0,0E0,1.0092514E0,0E0,0E0,1.6246057E0,2.3128955E0,0E0,2.8132758E0,1.8128319E0,3.2342374E0,0E0,0E0,0E0,0E0,0E0,0E0,0E0,0E0,0E0,0E0,0E0,0E0,0E0,0E0,0E0,0E0,0E0,0E0,0E0,0E0,0E0,0E0,0E0,0E0,0E0,0E0,0E0,0E0],"parents":[2147483647,0,0,1,1,2,2,3,3,4,4,5,5,6,6,7,7,8,8,9,9,10,10,11,11,12,12,13,13,14,14,15,15,17,17,20,20,21,21,22,22,24,24,25,25,26,26,27,27,28,28,29,29,30,30,31,31,36,36,37,37,38,38,39,39,42,42,43,43,44,44,46,46,49,49,50,50,52,52,53,53,54,54],"right_children":[2,4,6,8,10,12,14,16,18,20,22,24,26,28,30,32,-1,34,-1,-1,36,38,40,-1,42,44,46,48,50,52,54,56,-1,-1,-1,-1,58,60,62,64,-1,-1,66,68,70,-1,72,-1,-1,74,76,-1,78,80,82,-1,-1,-1,-1,-1,-1,-1,-1,-1,-1,-1,-1,-1,-1,-1,-1,-1,-1,-1,-1,-1,-1,-1,-1,-1,-1,-1,-1],"split_conditions":[-3.1134978E-2,-1.1298808E0,-1.3248968E-1,2.2014306E0,-5.758259E-1,-7.628647E-1,-1.7227735E-1,1.389642E-1,8.855743E-1,-1.2491149E0,3.311388E-1,-8.411365E-1,1.4026699E0,-6.581273E-1,8.968854E-4,6.3732255E-1,-1.6363637E-1,-1.6686342E0,2.5714284E-1,1.7999999E-1,-3.087349E-1,-3.4255967E-1,7.4105215E-1,-1.7560977E-1,4.9837776E-2,-7.8911054E-1,-6.456978E-1,7.9313375E-2,-2.549132E-1,-3.5815725E-1,1.827065E0,-2.1781926E0,-1.2857145E-1,1.2857142E-1,-1.894737E-1,1.7999999E-1,-1.3709974E0,-1.4565507E0,-9.393573E-1,1.2918202E0,3E-1,3.3934426E-1,4.492796E-1,-4.2466515E-1,-4.6519685E-1,-1.2857145E-1,1.2124858E0,7.2E-2,2.8800002E-1,-1.321773E-1,9.8243517E-1,-1.8E-1,1.3684145E-1,-2.2510739E-1,9.60691E-1,7.2E-2,3.893878E-1,7.2E-2,-1.4108111E-1,3.6734685E-2,2.6958525E-1,-9.473686E-2,1.1906614E-1,-7.154227E-3,1.584E-1,1.7999999E-1,-1.5517244E-1,-7.663455E-9,-2.0117651E-1,9.473684E-2,-7.57895E-2,3.1034482E-1,-7.663455E-9,-1.525424E-1,-8.256894E-3,2.8800002E-1,-1.2857145E-1,-6.6666685E-2,2.4545455E-1,-7.283239E-2,-1.80531E-1,-1.7560977E-1,2.1724138E-1],"split_indices":[23,23,7,22,3,6,14,14,20,8,3,5,19,13,23,7,0,10,0,0,21,5,11,0,18,14,7,5,14,2,22,13,0,0,0,0,0,10,14,18,0,0,12,3,14,0,11,0,0,4,2,0,5,15,15,0,0,0,0,0,0,0,0,0,0,0,0,0,0,0,0,0,0,0,0,0,0,0,0,0,0,0,0],"split_type":[0,0,0,0,0,0,0,0,0,0,0,0,0,0,0,0,0,0,0,0,0,0,0,0,0,0,0,0,0,0,0,0,0,0,0,0,0,0,0,0,0,0,0,0,0,0,0,0,0,0,0,0,0,0,0,0,0,0,0,0,0,0,0,0,0,0,0,0,0,0,0,0,0,0,0,0,0,0,0,0,0,0,0],"sum_hessian":[4.622222E2,2.111111E2,2.511111E2,3.9999996E1,1.711111E2,6.3999996E1,1.871111E2,3.1999998E1,7.9999995E0,2.4888887E1,1.4622221E2,1.3333332E1,5.0666664E1,3.6444443E1,1.5066666E2,2.9333332E1,2.6666665E0,6.666666E0,1.3333333E0,1.7777777E0,2.311111E1,6.0444443E1,8.577777E1,3.5555553E0,9.777777E0,4.5777775E1,4.8888884E0,3.5555553E0,3.2888885E1,1.4666666E1,1.3599998E2,2.7999998E1,1.3333333E0,1.3333333E0,5.333333E0,1.7777777E0,2.1333332E1,2.7555553E1,3.2888885E1,8.177777E1,3.9999998E0,5.7777777E0,3.9999998E0,9.777777E0,3.5999996E1,1.3333333E0,3.5555553E0,1.7777777E0,1.7777777E0,2.9777777E1,3.111111E0,3.9999998E0,1.0666666E1,1.3022221E2,5.7777777E0,1.7777777E0,2.6222221E1,1.7777777E0,1.9555553E1,4.444444E0,2.311111E1,5.333333E0,2.7555553E1,6.8888885E1,1.2888888E1,1.7777777E0,2.222222E0,1.3333333E0,8.444444E0,5.333333E0,3.0666664E1,2.222222E0,1.3333333E0,1.8666666E1,1.1111111E1,1.7777777E0,1.3333333E0,7.9999995E0,2.6666665E0,1.8222221E1,1.1199999E2,3.5555553E0,2.222222E0],"tree_param":{"num_deleted":"0","num_feature":"26","num_nodes":"83","size_leaf_vector":"1"}},{"base_weights":[2.0232287E-1,-9.2616074E-2,4.291615E-1,-2.8120753E-1,6.596317E-2,2.7859756E-1,5.831804E-1,-3.641282E-1,4.8670694E-2,1.2527153E-1,-3.7726918E-1,3.2854685E-1,-1.687494E-1,3.145472E-1,6.718262E-1,-3.9157036E-1,1.0976844E-1,-4.6328896E-1,2.9193658E-1,3.6857452E-2,4.838605E-1,-1.8819301E-1,2.3198023E-1,1.660325E-1,4.550719E-1,2.6077682E-1,-4.4883254E-1,4.9121466E-1,-1.3629079E-1,5.285648E-1,8.49197E-1,1.3879758E-1,-4.3541688E-1,-1.7317806E-1,5.03775E-3,8.479521E-1,-1.0531154E-1,9.777149E-2,-5.324945E-1,-2.9339162E-1,6.395933E-1,-1.2617156E-1,1.834266E-1,2.5468895E-1,-4.1675755E-1,5.0811636E-1,-3.9576527E-1,2.5272274E-1,-2.0257248E-1,6.039095E-1,-3.1123734E-1,-4.912394E-1,3.91787E-1,5.954E-1,-1.689206E-1,9.2090243E-1,-9.81757E-2,-1.408164E-1,1.4104696E-1,-4.325425E-2,-1.5166175E-1,6.7273795E-6,3.2535046E-1,-1.3434589E-1,1.3214849E-1,-2.4507212E-2,8.614924E-2,-1.9135338E-1,-3.5797743E-4,-1.3948032E-1,1.309554E-2,2.2996195E-1,-4.9473243E-3,-3.747436E-2,1.2396548E-1,1.05781615E-1,-1.9278845E-1,2.0949288E-1,8.884418E-2,-5.908062E-3,-1.6304964E-1,2.1771972E-1,-1.14919744E-1,2.6526023E-2,2.3073271E-1,-1.3695699E-1,-9.570878E-3,-1.8560144E-1,8.889548E-3,-1.348123E-1,2.5779566E-1,-1.4750043E-1,1.9308716E-1,-1.7574826E-1,9.104485E-2,2.8190193E-1,7.9354666E-2,-1.4704902E-1,1.00309715E-1],"categories":[],"categories_nodes":[],"categories_segments":[],"categories_sizes":[],"default_left":[0,0,0,0,0,0,0,0,0,0,0,0,0,0,0,0,0,0,0,0,0,0,0,0,0,0,0,0,0,0,0,0,0,0,0,0,0,0,0,0,0,0,0,0,0,0,0,0,0,0,0,0,0,0,0,0,0,0,0,0,0,0,0,0,0,0,0,0,0,0,0,0,0,0,0,0,0,0,0,0,0,0,0,0,0,0,0,0,0,0,0,0,0,0,0,0,0,0,0],"id":3,"left_children":[1,3,5,7,9,11,13,15,17,19,21,23,25,27,29,31,-1,33,35,37,39,-1,41,43,45,-1,47,49,51,53,55,57,59,-1,-1,61,63,65,67,69,71,-1,-1,73,75,77,79,81,-1,83,85,87,89,91,93,95,97,-1,-1,-1,-1,-1,-1,-1,-1,-1,-1,-1,-1,-1,-1,-1,-1,-1,-1,-1,-1,-1,-1,-1,-1,-1,-1,-1,-1,-1,-1,-1,-1,-1,-1,-1,-1,-1,-1,-1,-1,-1,-1],"loss_changes":[3.1703074E1,6.196437E0,6.045311E0,2.6039395E0,3.018391E0,3.122941E0,2.9181023E0,1.6592617E0,2.6104288E0,3.1664453E0,2.2155025E0,2.470686E0,4.590996E0,2.8137238E0,2.0395508E0,1.7676725E0,0E0,3.811152E-1,3.2005503E0,2.8839314E0,2.5822868E0,0E0,1.4169264E0,2.9882364E0,3.3175077E0,0E0,2.0828273E0,2.4482412E0,2.1590953E0,2.7494135E0,2.9508133E0,1.503238E0,1.3168449E0,0E0,0E0,1.1995144E0,1.8994766E0,2.5592535E0,4.4963908E-1,2.5085536E-1,1.4114995E0,0E0,0E0,3.002542E0,1.572408E0,2.4312687E0,2.4566549E-1,1.3801547E0,0E0,1.827322E0,1.3712776E-1,4.6426177E-1,2.26354E0,3.0463142E0,1.3097908E0,2.3491287E-1,8.194522E-1,0E0,0E0,0E0,0E0,0E0,0E0,0E0,0E0,0E0,0E0,0E0,0E0,0E0,0E0,0E0,0E0,0E0,0E0,0E0,0E0,0E0,0E0,0E0,0E0,0E0,0E0,0E0,0E0,0E0,0E0,0E0,0E0,0E0,0E0,0E0,0E0,0E0,0E0,0E0,0E0,0E0,0E0],"parents":[2147483647,0,0,1,1,2,2,3,3,4,4,5,5,6,6,7,7,8,8,9,9,10,10,11,11,12,12,13,13,14,14,15,15,17,17,18,18,19,19,20,20,22,22,23,23,24,24,26,26,27,27,28,28,29,29,30,30,31,31,32,32,35,35,36,36,37,37,38,38,39,39,40,40,43,43,44,44,45,45,46,46,47,47,49,49,50,50,51,51,52,52,53,53,54,54,55,55,56,56],"right_children":[2,4,6,8,10,12,14,16,18,20,22,24,26,28,30,32,-1,34,36,38,40,-1,42,44,46,-1,48,50,52,54,56,58,60,-1,-1,62,64,66,68,70,72,-1,-1,74,76,78,80,82,-1,84,86,88,90,92,94,96,98,-1,-1,-1,-1,-1,-1,-1,-1,-1,-1,-1,-1,-1,-1,-1,-1,-1,-1,-1,-1,-1,-1,-1,-1,-1,-1,-1,-1,-1,-1,-1,-1,-1,-1,-1,-1,-1,-1,-1,-1,-1,-1],"split_conditions":[-3.1134978E-2,-6.269014E-1,-1.2698923E-1,7.083234E-2,1.1335329E0,5.187984E-1,-6.0416605E-2,8.7695724E-1,-1.1446819E0,5.0902075E-1,1.6188936E-1,3.0942592E-1,-8.411365E-1,8.6725163E-1,8.0195206E-1,-2.330675E0,1.0976844E-1,6.3346034E-1,-3.6276633E-1,7.1844715E-1,-3.6628628E-1,-1.8819301E-1,-5.9206754E-1,1.9436951E-1,-1.300391E-1,2.6077682E-1,6.0452145E-2,7.656245E-1,7.50369E-1,1.7541426E0,1.3242247E0,-2.2828177E-1,-4.53436E-1,-1.7317806E-1,5.03775E-3,-7.674089E-1,-4.445321E-1,-3.0029526E-1,5.7304645E-1,2.4595782E-1,7.327238E-1,-1.2617156E-1,1.834266E-1,-6.609167E-1,-2.8860024E-1,2.403568E-1,-3.5815725E-1,-2.130401E-1,-2.0257248E-1,-3.556292E-1,-1.8629196E-1,7.63292E-1,-8.699007E-1,-2.0432554E-2,3.3795118E-1,2.410868E0,4.2720485E-1,-1.408164E-1,1.4104696E-1,-4.325425E-2,-1.5166175E-1,6.7273795E-6,3.2535046E-1,-1.3434589E-1,1.3214849E-1,-2.4507212E-2,8.614924E-2,-1.9135338E-1,-3.5797743E-4,-1.3948032E-1,1.309554E-2,2.2996195E-1,-4.9473243E-3,-3.747436E-2,1.2396548E-1,1.05781615E-1,-1.9278845E-1,2.0949288E-1,8.884418E-2,-5.908062E-3,-1.6304964E-1,2.1771972E-1,-1.14919744E-1,2.6526023E-2,2.3073271E-1,-1.3695699E-1,-9.570878E-3,-1.8560144E-1,8.889548E-3,-1.348123E-1,2.5779566E-1,-1.4750043E-1,1.9308716E-1,-1.7574826E-1,9.104485E-2,2.8190193E-1,7.9354666E-2,-1.4704902E-1,1.00309715E-1],"split_indices":[23,13,22,2,17,4,14,14,11,7,6,5,5,20,8,15,0,3,20,11,21,0,12,5,21,0,12,7,6,13,18,17,18,0,0,17,19,23,4,6,15,0,0,9,20,10,2,3,0,15,17,21,5,24,7,8,14,0,0,0,0,0,0,0,0,0,0,0,0,0,0,0,0,0,0,0,0,0,0,0,0,0,0,0,0,0,0,0,0,0,0,0,0,0,0,0,0,0,0],"split_type":[0,0,0,0,0,0,0,0,0,0,0,0,0,0,0,0,0,0,0,0,0,0,0,0,0,0,0,0,0,0,0,0,0,0,0,0,0,0,0,0,0,0,0,0,0,0,0,0,0,0,0,0,0,0,0,0,0,0,0,0,0,0,0,0,0,0,0,0,0,0,0,0,0,0,0,0,0,0,0,0,0,0,0,0,0,0,0,0,0,0,0,0,0,0,0,0,0,0,0],"sum_hessian":[4.7226825E2,2.0557208E2,2.6669614E2,9.354717E1,1.1202491E2,1.3628105E2,1.304151E2,7.467299E1,1.887419E1,9.943677E1,1.25881405E1,1.2283164E2,1.34494095E1,3.348627E1,9.6928825E1,7.241448E1,2.2584996E0,5.7882357E0,1.3085955E1,8.0653534E1,1.8783237E1,8.90416E0,3.6839814E0,5.4780884E1,6.805076E1,2.4109E0,1.1038509E1,2.3994225E1,9.492046E0,5.5821835E1,4.110699E1,5.364149E0,6.705034E1,4.514155E0,1.2740809E0,4.980434E0,8.10552E0,7.360674E1,7.0467887E0,2.9877307E0,1.5795507E1,1.3146651E0,2.3693163E0,4.8036373E1,6.744512E0,6.4436356E1,3.6144056E0,2.6648703E0,8.373639E0,2.1256432E1,2.7377925E0,5.7182627E0,3.7737832E0,5.1074123E1,4.7477136E0,3.824055E1,2.8664398E0,1.7449195E0,3.6192296E0,1.3604299E1,5.3446037E1,1.3044884E0,3.6759458E0,5.0905757E0,3.0149448E0,3.8086197E1,3.5520546E1,5.7133694E0,1.3334192E0,1.728525E0,1.2592058E0,1.3093647E1,2.7018604E0,1.4213569E1,3.3822803E1,1.4033409E0,5.341171E0,3.275338E1,3.1682972E1,1.339039E0,2.2753665E0,1.4469271E0,1.2179431E0,5.531414E0,1.5725018E1,1.3837557E0,1.3540368E0,4.4434114E0,1.2748513E0,1.3620622E0,2.411721E0,1.7788802E0,4.9295242E1,2.3944533E0,2.3532605E0,3.6757812E1,1.4827383E0,1.4338268E0,1.4326129E0],"tree_param":{"num_deleted":"0","num_feature":"26","num_nodes":"99","size_leaf_vector":"1"}},{"base_weights":[-1.8643492E-1,-2.0245497E-1,3.0219376E-1,4.6060187E-1,-2.1455558E-1,2.809676E-1,6.50345E-2,7.567389E-1,-1.3011593E-1,-1.5368395E-1,-3.1784996E-1,2.5637466E-1,-2.3607492E-1,6.4247504E-2,2.767471E-1,-2.3158915E-1,1.2059734E-2,1.6466649E-1,-3.444956E-1,-5.084129E-1,2.162001E-1,3.6676016E-1,-2.6375717E-1,1.2324189E-1,-2.8245857E-1,-2.6742548E-1,2.6335892E-1,1.2353438E-1,-3.5886365E-1,-1.834622E-1,1.9901572E-3,-1.8976048E-2,3.2872912E-1,-8.755106E-2,1.0074604E-1,-3.721776E-2,1.1791947E-1,-1.13494106E-1,2.1490826E-1,1.4977387E-1,-1.6695324E-1,-6.9564015E-2,-1.3516912E-1],"categories":[],"categories_nodes":[],"categories_segments":[],"categories_sizes":[],"default_left":[0,0,0,0,0,0,0,0,0,0,0,0,0,0,0,0,0,0,0,0,0,0,0,0,0,0,0,0,0,0,0,0,0,0,0,0,0,0,0,0,0,0,0],"id":4,"left_children":[1,3,5,7,9,-1,11,13,-1,15,17,-1,19,-1,-1,21,23,25,27,29,-1,31,33,35,37,39,-1,-1,41,-1,-1,-1,-1,-1,-1,-1,-1,-1,-1,-1,-1,-1,-1],"loss_changes":[3.5292282E0,3.5454636E0,2.1153517E0,2.4514194E0,2.6080627E0,0E0,2.9604175E0,3.7684155E-1,0E0,3.4608598E0,2.0591364E0,0E0,2.759277E0,0E0,0E0,3.6042519E0,2.869944E0,2.9549773E0,1.7550812E0,4.1491377E-1,0E0,3.1149173E0,3.019288E0,4.2893114E0,2.5718293E0,1.6659988E0,0E0,0E0,1.5920506E0,0E0,0E0,0E0,0E0,0E0,0E0,0E0,0E0,0E0,0E0,0E0,0E0,0E0,0E0],"parents":[2147483647,0,0,1,1,2,2,3,3,4,4,6,6,7,7,9,9,10,10,12,12,15,15,16,16,17,17,18,18,19,19,21,21,22,22,23,23,24,24,25,25,28,28],"right_children":[2,4,6,8,10,-1,12,14,-1,16,18,-1,20,-1,-1,22,24,26,28,30,-1,32,34,36,38,40,-1,-1,42,-1,-1,-1,-1,-1,-1,-1,-1,-1,-1,-1,-1,-1,-1],"split_conditions":[2.4839418E0,-1.8841165E0,9.5664136E-2,5.053353E-1,-9.224237E-3,2.809676E-1,-1.1334909E0,-5.679338E-1,-1.3011593E-1,2.403568E-1,-1.7815024E0,2.5637466E-1,2.2157795E0,6.4247504E-2,2.767471E-1,-1.7406799E0,8.764718E-1,-8.699007E-1,-1.7968872E0,7.261889E-2,2.162001E-1,-8.8896763E-1,1.6209716E0,9.6727744E-2,2.3910692E0,8.6409503E-1,2.6335892E-1,1.2353438E-1,-5.2244287E-2,-1.834622E-1,1.9901572E-3,-1.8976048E-2,3.2872912E-1,-8.755106E-2,1.0074604E-1,-3.721776E-2,1.1791947E-1,-1.13494106E-1,2.1490826E-1,1.4977387E-1,-1.6695324E-1,-6.9564015E-2,-1.3516912E-1],"split_indices":[22,9,4,11,22,0,15,12,0,10,14,0,2,0,0,13,6,5,19,19,0,6,7,23,11,21,0,0,8,0,0,0,0,0,0,0,0,0,0,0,0,0,0],"split_type":[0,0,0,0,0,0,0,0,0,0,0,0,0,0,0,0,0,0,0,0,0,0,0,0,0,0,0,0,0,0,0,0,0,0,0,0,0,0,0,0,0,0,0],"sum_hessian":[4.420394E2,4.2857397E2,1.3465441E1,7.016887E0,4.2155707E2,2.8617163E0,1.06037245E1,5.386946E0,1.629941E0,2.6681195E2,1.5474512E2,2.4200172E0,8.183707E0,1.7969031E0,3.590043E0,1.8123026E2,8.55817E1,7.827094E0,1.4691801E2,6.73514E0,1.4485679E0,8.715426E0,1.7251483E2,6.2550224E1,2.3031479E1,5.2633266E0,2.5637674E0,2.2234757E0,1.4469455E2,5.4554467E0,1.2796931E0,6.056275E0,2.6591513E0,1.652873E2,7.227544E0,3.2919086E1,2.9631138E1,2.158157E1,1.4499092E0,1.2421318E0,4.0211945E0,6.215407E1,8.2540474E1],"tree_param":{"num_deleted":"0","num_feature":"26","num_nodes":"43","size_leaf_vector":"1"}},{"base_weights":[-2.896369E-2,2.4183835E-1,-2.7992642E-1,5.7120186E-1,1.5891111E-1,-4.8794486E-2,-3.6180618E-1,6.7296106E-1,-3.821875E-1,2.2562534E-1,-2.4057809E-1,1.6440456E-1,-2.0934865E-1,-8.227658E-2,-4.2132655E-1,8.4351003E-1,-6.8141274E-2,-1.5506162E-1,-3.0233115E-3,2.689703E-1,-2.935556E-1,1.5452446E-1,-4.7198084E-1,-1.4740771E-1,3.9739338E-1,-4.3039364E-1,5.2409742E-2,1.676865E-1,-5.6376E-1,-4.418948E-1,3.2384557E-1,-2.2087427E-2,8.8694E-1,-4.4200817E-1,1.9037189E-1,2.1530797E-1,8.656223E-1,-5.54728E-1,3.2428002E-1,4.2579672E-1,-1.6411185E-1,-6.2558746E-1,1.3526593E-1,1.938687E-1,-4.5403138E-1,-1.552425E-1,6.3303155E-1,-5.9520024E-1,-3.83596E-3,5.9450155E-1,-1.9537042E-1,3.2997295E-1,-1.6606614E-1,1.3459704E-2,-1.9375809E-1,-8.563767E-2,-4.7164938E-1,-1.24707945E-1,2.6134387E-1,2.874263E-1,6.987918E-2,-1.6944957E-1,1.3358081E-3,-1.4523406E-1,8.062515E-2,3.402271E-1,9.8600216E-2,-4.6908506E-3,-1.9443345E-1,-2.1572046E-2,1.6503467E-1,2.0677857E-1,-5.7208575E-2,3.7015178E-3,-2.0866516E-1,-1.2664683E-1,1.6026235E-1,-1.9094211E-1,1.0867889E-1,-5.2011974E-2,2.4050602E-1,-1.9660506E-1,2.742939E-4,1.6975074E-1,-1.03236385E-1,2.6518285E-1,-2.1679524E-2,-1.1104553E-1,1.4042519E-1,-3.3371694E-2,2.0825326E-1,-1.435545E-1,1.2630983E-1,-6.336283E-2,-1.4877391E-1],"categories":[],"categories_nodes":[],"categories_segments":[],"categories_sizes":[],"default_left":[0,0,0,0,0,0,0,0,0,0,0,0,0,0,0,0,0,0,0,0,0,0,0,0,0,0,0,0,0,0,0,0,0,0,0,0,0,0,0,0,0,0,0,0,0,0,0,0,0,0,0,0,0,0,0,0,0,0,0,0,0,0,0,0,0,0,0,0,0,0,0,0,0,0,0,0,0,0,0,0,0,0,0,0,0,0,0,0,0,0,0,0,0,0,0],"id":5,"left_children":[1,3,5,7,9,11,13,15,17,19,21,23,25,27,29,31,33,-1,-1,35,37,39,41,43,45,47,49,51,53,55,57,-1,59,61,-1,63,65,67,69,71,-1,73,75,-1,77,-1,79,81,83,85,87,89,-1,-1,-1,91,93,-1,-1,-1,-1,-1,-1,-1,-1,-1,-1,-1,-1,-1,-1,-1,-1,-1,-1,-1,-1,-1,-1,-1,-1,-1,-1,-1,-1,-1,-1,-1,-1,-1,-1,-1,-1,-1,-1],"loss_changes":[3.0934877E1,5.890703E0,4.4522953E0,4.4932013E0,4.7538342E0,2.1888795E0,2.8644829E0,5.0897617E0,2.3779368E-1,3.4908948E0,2.4242163E0,2.0635214E0,2.1253762E0,3.9256907E0,2.341278E0,1.3574505E0,2.4804053E0,0E0,0E0,4.310664E0,2.1421657E0,2.1840725E0,1.6204462E0,3.343004E0,3.7910337E0,1.3905191E0,2.4708507E0,2.7255101E0,5.8400893E-1,1.4435387E0,2.1549327E0,0E0,1.2216511E0,3.3455205E-1,0E0,4.996673E0,1.2502909E0,4.3874025E-1,4.1930827E-1,1.4236394E0,0E0,6.0301924E-1,1.1475757E0,0E0,1.6642536E0,0E0,1.937674E0,5.1278496E-1,1.4601712E0,1.1729198E0,1.6556832E0,3.0276809E0,0E0,0E0,0E0,2.5926785E0,7.102928E-1,0E0,0E0,0E0,0E0,0E0,0E0,0E0,0E0,0E0,0E0,0E0,0E0,0E0,0E0,0E0,0E0,0E0,0E0,0E0,0E0,0E0,0E0,0E0,0E0,0E0,0E0,0E0,0E0,0E0,0E0,0E0,0E0,0E0,0E0,0E0,0E0,0E0,0E0],"parents":[2147483647,0,0,1,1,2,2,3,3,4,4,5,5,6,6,7,7,8,8,9,9,10,10,11,11,12,12,13,13,14,14,15,15,16,16,19,19,20,20,21,21,22,22,23,23,24,24,25,25,26,26,27,27,28,28,29,29,30,30,32,32,33,33,35,35,36,36,37,37,38,38,39,39,41,41,42,42,44,44,46,46,47,47,48,48,49,49,50,50,51,51,55,55,56,56],"right_children":[2,4,6,8,10,12,14,16,18,20,22,24,26,28,30,32,34,-1,-1,36,38,40,42,44,46,48,50,52,54,56,58,-1,60,62,-1,64,66,68,70,72,-1,74,76,-1,78,-1,80,82,84,86,88,90,-1,-1,-1,92,94,-1,-1,-1,-1,-1,-1,-1,-1,-1,-1,-1,-1,-1,-1,-1,-1,-1,-1,-1,-1,-1,-1,-1,-1,-1,-1,-1,-1,-1,-1,-1,-1,-1,-1,-1,-1,-1,-1],"split_conditions":[-4.9524553E-2,-1.1298808E0,-1.3248968E-1,5.8174025E-2,-1.9983474E-2,-9.277657E-2,-1.1438832E-1,2.2014306E0,-5.534959E-1,8.476963E-1,-6.8846506E-1,-3.5580584E-1,1.6464657E-1,5.194579E-1,5.5019385E-1,-1.1807768E0,1.0563855E0,-1.5506162E-1,-3.0233115E-3,1.2674205E0,5.8040905E-1,1.6948389E-2,2.0928343E-1,-8.469332E-1,-1.0733714E0,7.143167E-1,-3.526913E-1,7.7234405E-1,-7.566538E-1,-3.982786E-1,4.2639488E-1,-2.2087427E-2,1.9148558E-1,-4.8199958E-1,1.9037189E-1,-1.4844745E0,1.592908E0,-7.0055634E-1,-1.3803989E0,7.7820905E-2,-1.6411185E-1,-7.287283E-1,8.2730955E-1,1.938687E-1,4.6602073E-1,-1.552425E-1,-4.6620622E-1,-2.607916E-1,-4.9784526E-1,-2.2828177E-1,1.0107895E0,-1.452804E-1,-1.6606614E-1,1.3459704E-2,-1.9375809E-1,8.699389E-1,8.968854E-4,-1.24707945E-1,2.6134387E-1,2.874263E-1,6.987918E-2,-1.6944957E-1,1.3358081E-3,-1.4523406E-1,8.062515E-2,3.402271E-1,9.8600216E-2,-4.6908506E-3,-1.9443345E-1,-2.1572046E-2,1.6503467E-1,2.0677857E-1,-5.7208575E-2,3.7015178E-3,-2.0866516E-1,-1.2664683E-1,1.6026235E-1,-1.9094211E-1,1.0867889E-1,-5.2011974E-2,2.4050602E-1,-1.9660506E-1,2.742939E-4,1.6975074E-1,-1.03236385E-1,2.6518285E-1,-2.1679524E-2,-1.1104553E-1,1.4042519E-1,-3.3371694E-2,2.0825326E-1,-1.435545E-1,1.2630983E-1,-6.336283E-2,-1.4877391E-1],"split_indices":[24,23,7,14,20,20,13,22,5,9,7,21,14,8,21,9,18,0,0,4,17,11,13,6,7,2,21,18,14,12,12,0,2,15,0,14,4,16,11,6,0,1,9,0,23,0,13,7,17,17,9,20,0,0,0,15,23,0,0,0,0,0,0,0,0,0,0,0,0,0,0,0,0,0,0,0,0,0,0,0,0,0,0,0,0,0,0,0,0,0,0,0,0,0,0],"split_type":[0,0,0,0,0,0,0,0,0,0,0,0,0,0,0,0,0,0,0,0,0,0,0,0,0,0,0,0,0,0,0,0,0,0,0,0,0,0,0,0,0,0,0,0,0,0,0,0,0,0,0,0,0,0,0,0,0,0,0,0,0,0,0,0,0,0,0,0,0,0,0,0,0,0,0,0,0,0,0,0,0,0,0,0,0,0,0,0,0,0,0,0,0,0,0],"sum_hessian":[4.5318814E2,2.1799567E2,2.3519247E2,4.266286E1,1.7533281E2,6.194075E1,1.7325174E2,3.8814198E1,3.8486624E0,1.5061542E2,2.4717382E1,2.659775E1,3.5343E1,3.0832632E1,1.424191E2,3.1440624E1,7.373575E0,2.5402071E0,1.3084553E0,1.3945467E2,1.1160751E1,9.252194E0,1.5465189E1,1.153184E1,1.5065909E1,1.8812403E1,1.6530596E1,2.0724958E1,1.0107675E1,1.3898969E2,3.4294088E0,1.3900899E0,3.0050533E1,5.055097E0,2.318478E0,1.2919579E2,1.0258893E1,7.916444E0,3.2443075E0,6.955717E0,2.2964773E0,1.2318858E1,3.14633E0,2.9050667E0,8.626774E0,2.8407202E0,1.222519E1,1.3284421E1,5.527981E0,4.7466335E0,1.1783963E1,1.7361038E1,3.363919E0,1.2553133E0,8.852362E0,1.1012542E1,1.2797715E2,1.5608203E0,1.8685886E0,2.6682848E1,3.3676863E0,3.7565258E0,1.2985712E0,8.598997E0,1.2059678E2,6.097948E0,4.160945E0,1.3412145E0,6.575229E0,1.4253644E0,1.8189433E0,4.790431E0,2.165286E0,1.2989184E0,1.101994E1,1.2882009E0,1.8581293E0,7.2309427E0,1.3958312E0,2.1097398E0,1.011545E1,1.1976575E1,1.3078462E0,1.8193609E0,3.70862E0,3.0827193E0,1.6639142E0,9.676783E0,2.1071804E0,8.164639E0,9.196399E0,6.234116E0,4.7784257E0,1.17338295E1,1.1624332E2],"tree_param":{"num_deleted":"0","num_feature":"26","num_nodes":"95","size_leaf_vector":"1"}},{"base_weights":[1.5465987E-1,-7.654506E-2,3.2475758E-1,-2.4142034E-1,5.494684E-2,2.719859E-1,6.400176E-1,1.21817246E-1,-3.0063134E-1,5.0719744E-1,7.2662425E-3,1.4332597E-1,3.7499776E-1,6.8849176E-1,-1.268108E-1,-3.5435203E-1,6.6822225E-1,2.7680793E-1,-3.2600245E-1,8.491281E-1,-1.455537E-1,-7.575246E-2,3.279838E-1,2.1559863E-1,-1.6165382E-1,2.1397156E-1,4.8194042E-1,-5.709772E-2,7.394649E-1,-1.7152697E-1,7.876235E-2,-1.2755107E-2,2.577851E-1,2.1272792E-1,-1.120248E-1,-5.1264805E-1,-2.1480408E-1,9.904402E-1,1.1014236E-2,-3.2523528E-2,-1.7018585E-1,-1.5581465E-1,4.6944815E-1,1.648186E-1,7.4305856E-1,-4.4300693E-1,1.0213453E-1,-2.978216E-1,3.3835968E-1,-2.3525858E-1,5.200039E-1,8.012625E-1,-1.8859645E-2,-7.332231E-2,-1.7975095E-1,1.1391308E-1,-1.0160094E-1,1.025817E-1,3.2706565E-1,-4.424876E-2,7.0085384E-2,2.1094568E-1,-1.4672592E-2,-1.4176027E-1,6.284273E-2,2.7760917E-1,4.0723886E-2,8.654688E-2,-1.7923072E-1,-1.6704693E-1,8.69149E-2,9.291103E-2,-1.2478138E-1,1.1854247E-1,-1.7693798E-1,5.64341E-2,-1.629926E-1,1.3152874E-1,2.5544083E-1,2.5218683E-1,3.2627977E-2],"categories":[],"categories_nodes":[],"categories_segments":[],"categories_sizes":[],"default_left":[0,0,0,0,0,0,0,0,0,0,0,0,0,0,0,0,0,0,0,0,0,0,0,0,0,0,0,0,0,0,0,0,0,0,0,0,0,0,0,0,0,0,0,0,0,0,0,0,0,0,0,0,0,0,0,0,0,0,0,0,0,0,0,0,0,0,0,0,0,0,0,0,0,0,0,0,0,0,0,0,0],"id":6,"left_children":[1,3,5,7,9,11,13,15,17,19,21,23,25,27,-1,29,31,33,35,37,-1,39,41,43,45,47,49,-1,51,-1,-1,-1,-1,-1,-1,53,55,57,-1,59,-1,-1,61,63,65,67,69,71,73,75,77,79,-1,-1,-1,-1,-1,-1,-1,-1,-1,-1,-1,-1,-1,-1,-1,-1,-1,-1,-1,-1,-1,-1,-1,-1,-1,-1,-1,-1,-1],"loss_changes":[1.8518074E1,4.3519454E0,4.3363514E0,1.9503102E0,2.4146442E0,3.0472546E0,2.2555485E0,3.6667E0,1.2152958E0,4.0364943E0,2.7530918E0,2.36367E0,2.1238556E0,1.7915707E0,0E0,1.1824753E0,9.1718984E-1,1.3252876E0,1.4261703E0,9.174199E-1,0E0,1.7283797E0,2.79201E0,2.176774E0,1.5899026E0,3.5008194E0,2.2219696E0,0E0,1.7875576E0,0E0,0E0,0E0,0E0,0E0,0E0,4.7819996E-1,3.6711981E0,8.2645416E-2,0E0,2.3790941E0,0E0,0E0,2.3047934E0,2.3642764E0,6.7746687E-1,1.331176E0,1.589517E0,9.16331E-1,2.5221314E0,6.9753206E-1,1.6099529E0,7.9725647E-1,0E0,0E0,0E0,0E0,0E0,0E0,0E0,0E0,0E0,0E0,0E0,0E0,0E0,0E0,0E0,0E0,0E0,0E0,0E0,0E0,0E0,0E0,0E0,0E0,0E0,0E0,0E0,0E0,0E0],"parents":[2147483647,0,0,1,1,2,2,3,3,4,4,5,5,6,6,7,7,8,8,9,9,10,10,11,11,12,12,13,13,15,15,16,16,17,17,18,18,19,19,21,21,22,22,23,23,24,24,25,25,26,26,28,28,35,35,36,36,37,37,39,39,42,42,43,43,44,44,45,45,46,46,47,47,48,48,49,49,50,50,51,51],"right_children":[2,4,6,8,10,12,14,16,18,20,22,24,26,28,-1,30,32,34,36,38,-1,40,42,44,46,48,50,-1,52,-1,-1,-1,-1,-1,-1,54,56,58,-1,60,-1,-1,62,64,66,68,70,72,74,76,78,80,-1,-1,-1,-1,-1,-1,-1,-1,-1,-1,-1,-1,-1,-1,-1,-1,-1,-1,-1,-1,-1,-1,-1,-1,-1,-1,-1,-1,-1],"split_conditions":[-3.1134978E-2,-6.269014E-1,1.5490202E0,-5.1536167E-1,-5.2407134E-1,1.9944994E-1,1.3751032E0,-9.914219E-1,-2.328917E0,3.0075878E-1,5.510876E-1,8.139733E-1,-4.1428936E-1,-9.080284E-1,-1.268108E-1,-7.856564E-1,-2.3303518E-1,-1.3264115E0,-9.0896535E-1,8.9226264E-1,-1.455537E-1,1.1335329E0,-1.1375222E0,1.047965E0,1.0789148E0,-1.7438509E-1,-1.3709974E0,-5.709772E-2,2.627027E0,-1.7152697E-1,7.876235E-2,-1.2755107E-2,2.577851E-1,2.1272792E-1,-1.120248E-1,-1.4565506E0,-6.732485E-1,-9.234591E-1,1.1014236E-2,4.820104E-1,-1.7018585E-1,-1.5581465E-1,8.919625E-1,-1.4223264E0,1.8826541E-1,-8.795318E-1,-4.42026E-1,-1.1930124E0,1.4229175E0,1.8027316E0,1.3266791E0,1.3242247E0,-1.8859645E-2,-7.332231E-2,-1.7975095E-1,1.1391308E-1,-1.0160094E-1,1.025817E-1,3.2706565E-1,-4.424876E-2,7.0085384E-2,2.1094568E-1,-1.4672592E-2,-1.4176027E-1,6.284273E-2,2.7760917E-1,4.0723886E-2,8.654688E-2,-1.7923072E-1,-1.6704693E-1,8.69149E-2,9.291103E-2,-1.2478138E-1,1.1854247E-1,-1.7693798E-1,5.64341E-2,-1.629926E-1,1.3152874E-1,2.5544083E-1,2.5218683E-1,3.2627977E-2],"split_indices":[23,13,6,3,13,14,17,19,11,16,16,12,21,11,0,15,2,7,11,21,0,17,7,10,12,6,0,0,8,0,0,0,0,0,0,10,11,15,0,5,0,0,17,3,7,22,16,16,6,16,16,18,0,0,0,0,0,0,0,0,0,0,0,0,0,0,0,0,0,0,0,0,0,0,0,0,0,0,0,0,0],"split_type":[0,0,0,0,0,0,0,0,0,0,0,0,0,0,0,0,0,0,0,0,0,0,0,0,0,0,0,0,0,0,0,0,0,0,0,0,0,0,0,0,0,0,0,0,0,0,0,0,0,0,0,0,0,0,0,0,0,0,0,0,0,0,0,0,0,0,0,0,0,0,0,0,0,0,0,0,0,0,0,0,0],"sum_hessian":[4.6923712E2,1.9912581E2,2.701113E2,8.797702E1,1.1114879E2,2.3297595E2,3.7135345E1,1.2182787E1,7.5794235E1,9.68158E0,1.0146721E2,1.0465508E2,1.2832088E2,3.5852154E1,1.2831922E0,6.697595E0,5.485192E0,2.7729213E0,7.302132E1,7.307928E0,2.373652E0,8.120965E1,2.0257559E1,8.484257E1,1.9812513E1,5.2408665E1,7.591222E1,1.8156149E0,3.4036537E1,5.0064116E0,1.6911838E0,1.3268483E0,4.1583433E0,1.6112112E0,1.1617101E0,2.5914238E1,4.710708E1,6.03846E0,1.269468E0,7.562484E1,5.5848126E0,2.515907E0,1.7741653E1,7.858906E1,6.253509E0,9.258315E0,1.0554197E1,9.974486E0,4.2434177E1,3.5647066E0,7.234751E1,3.1603668E1,2.4328694E0,7.252955E0,1.8661283E1,7.766232E0,3.9340843E1,1.3955026E0,4.642957E0,5.3122063E1,2.2502777E1,1.1982687E1,5.758965E0,4.518534E0,7.4070526E1,4.4069195E0,1.8465894E0,1.4625269E0,7.7957883E0,1.9024913E0,8.651707E0,1.3595725E0,8.614914E0,4.0528996E1,1.9051826E0,1.6653094E0,1.8993971E0,5.992296E1,1.2424551E1,2.9701605E1,1.9020637E0],"tree_param":{"num_deleted":"0","num_feature":"26","num_nodes":"81","size_leaf_vector":"1"}},{"base_weights":[-1.463753E-1,4.1394436E-1,-1.569157E-1,6.468812E-1,-1.1613396E-1,-1.7154318E-1,2.72009E-1,2.4618623E-1,4.063325E-2,-1.4603035E-1,-3.8284215E-1,2.3423538E-1,6.508471E-2,-2.0814908E-1,-2.9115407E-2,3.5143137E-1,-4.3678474E-1,3.8401157E-1,-1.549289E-1,-1.7822063E-1,-5.416601E-1,2.2480777E-2,-5.437134E-1,-1.07088014E-1,2.542414E-1,1.464946E-1,-4.784556E-1,5.636887E-1,-1.07546024E-1,1.4340158E-1,-5.83609E-2,3.770245E-2,-1.7704085E-1,-7.718155E-4,2.3423208E-1,-1.8591203E-1,1.6343972E-2,-1.6044283E-1,-1.7556468E-2,2.3612298E-1,1.9992745E-2],"categories":[],"categories_nodes":[],"categories_segments":[],"categories_sizes":[],"default_left":[0,0,0,0,0,0,0,0,0,0,0,0,0,0,0,0,0,0,0,0,0,0,0,0,0,0,0,0,0,0,0,0,0,0,0,0,0,0,0,0,0],"id":7,"left_children":[1,3,5,7,-1,9,11,-1,-1,13,15,-1,17,19,21,23,25,27,-1,29,31,33,35,-1,-1,-1,37,39,-1,-1,-1,-1,-1,-1,-1,-1,-1,-1,-1,-1,-1],"loss_changes":[2.558569E0,1.7563809E0,2.65133E0,4.7770214E-1,0E0,2.1115828E0,1.4312323E0,0E0,0E0,2.6111584E0,1.8447933E0,0E0,2.2566147E0,2.2508125E0,3.3629632E0,1.5240809E0,1.7842517E0,1.2347937E0,0E0,2.4195204E0,6.8477917E-1,2.1992812E0,5.583527E-1,0E0,0E0,0E0,8.9151573E-1,6.827519E-1,0E0,0E0,0E0,0E0,0E0,0E0,0E0,0E0,0E0,0E0,0E0,0E0,0E0],"parents":[2147483647,0,0,1,1,2,2,3,3,5,5,6,6,9,9,10,10,12,12,13,13,14,14,15,15,16,16,17,17,19,19,20,20,21,21,22,22,26,26,27,27],"right_children":[2,4,6,8,-1,10,12,-1,-1,14,16,-1,18,20,22,24,26,28,-1,30,32,34,36,-1,-1,-1,38,40,-1,-1,-1,-1,-1,-1,-1,-1,-1,-1,-1,-1,-1],"split_conditions":[-1.8841165E0,5.053353E-1,2.4839418E0,-1.300035E-1,-1.1613396E-1,1.2505536E0,9.5664136E-2,2.4618623E-1,4.063325E-2,2.4011531E-1,-1.5314741E0,2.3423538E-1,2.6732588E0,9.8340064E-1,1.5354369E0,1.6259193E0,3.0405208E-1,-1.2054815E0,-1.549289E-1,-2.1781926E0,-7.906298E-1,1.7231036E0,4.3996266E-1,-1.07088014E-1,2.542414E-1,1.464946E-1,1.3976158E0,-2.0181502E-1,-1.07546024E-1,1.4340158E-1,-5.83609E-2,3.770245E-2,-1.7704085E-1,-7.718155E-4,2.3423208E-1,-1.8591203E-1,1.6343972E-2,-1.6044283E-1,-1.7556468E-2,2.3612298E-1,1.9992745E-2],"split_indices":[9,11,22,20,0,2,4,0,0,10,5,0,20,14,7,2,9,5,0,13,21,4,9,0,0,0,4,11,0,0,0,0,0,0,0,0,0,0,0,0,0],"split_type":[0,0,0,0,0,0,0,0,0,0,0,0,0,0,0,0,0,0,0,0,0,0,0,0,0,0,0,0,0,0,0,0,0,0,0,0,0,0,0,0,0],"sum_hessian":[4.212176E2,7.070731E0,4.1414685E2,5.626954E0,1.4437772E0,4.0106937E2,1.3077484E1,3.7488863E0,1.8780676E0,3.5936923E2,4.1700134E1,2.9791663E0,1.0098318E1,2.3417049E2,1.2519876E2,2.4763823E0,3.922375E1,6.740939E0,3.3573787E0,2.1629507E2,1.787541E1,1.14658806E2,1.0539955E1,1.135361E0,1.3410212E0,1.2286702E0,3.799508E1,5.621431E0,1.1195083E0,4.560782E0,2.117343E2,1.1027066E0,1.6772703E1,1.1195644E2,2.70236E0,9.319997E0,1.2199585E0,3.3258358E1,4.7367215E0,3.475794E0,2.1456368E0],"tree_param":{"num_deleted":"0","num_feature":"26","num_nodes":"41","size_leaf_vector":"1"}},{"base_weights":[-2.485653E-2,1.823384E-1,-2.327686E-1,4.6124026E-1,1.1388934E-1,-3.3796538E-2,-3.06515E-1,6.9109356E-1,1.0824809E-1,8.432296E-2,8.384355E-1,1.9712143E-1,-7.2138876E-2,-7.2320096E-2,-3.6861458E-1,7.815318E-1,6.8920396E-2,2.8317475E-1,-4.0102464E-1,1.4078528E-1,-2.622803E-1,8.122026E-2,2.8312495E-1,1.1045463E-1,-2.1095371E-1,-2.4753043E-1,3.3419046E-1,-7.6600365E-2,-4.03115E-1,8.3371013E-1,-8.838794E-3,-1.348178E-1,1.935585E-1,-2.5785723E-1,4.212211E-1,-1.5571572E-1,-5.815722E-3,1.11916855E-1,8.3322805E-1,-1.4112918E-2,-1.9336212E-1,-1.6469395E-1,2.3808296E-1,-3.6209565E-1,1.3082115E-1,-4.3218642E-1,1.3811219E-1,5.2967364E-1,-1.263761E-1,-1.6243878E-1,1.2159731E-1,-4.243751E-1,3.8027566E-2,2.626605E-1,4.944327E-2,-1.2371323E-1,4.8966967E-3,1.6852844E-1,-6.549332E-2,-1.620292E-1,4.3208018E-2,2.7959034E-1,9.3706615E-2,8.8806346E-2,-9.7572066E-2,-6.1917424E-2,1.466563E-1,-1.6644756E-1,-3.0517502E-2,-1.394977E-1,9.4673336E-2,2.8596979E-2,-1.5501967E-1,2.6880422E-1,-5.5989537E-2,2.587503E-1,-7.4318156E-2,-5.0598416E-2,2.4203022E-1,-4.654909E-2,-1.415254E-1,-1.4214955E-1,1.8039532E-1],"categories":[],"categories_nodes":[],"categories_segments":[],"categories_sizes":[],"default_left":[0,0,0,0,0,0,0,0,0,0,0,0,0,0,0,0,0,0,0,0,0,0,0,0,0,0,0,0,0,0,0,0,0,0,0,0,0,0,0,0,0,0,0,0,0,0,0,0,0,0,0,0,0,0,0,0,0,0,0,0,0,0,0,0,0,0,0,0,0,0,0,0,0,0,0,0,0,0,0,0,0,0,0],"id":8,"left_children":[1,3,5,7,9,11,13,15,17,19,21,-1,23,25,27,29,31,33,35,37,39,-1,-1,41,43,45,47,49,51,53,-1,-1,-1,55,57,-1,-1,59,61,63,-1,-1,65,67,69,71,73,75,-1,-1,77,79,81,-1,-1,-1,-1,-1,-1,-1,-1,-1,-1,-1,-1,-1,-1,-1,-1,-1,-1,-1,-1,-1,-1,-1,-1,-1,-1,-1,-1,-1,-1],"loss_changes":[1.8975613E1,4.160629E0,3.2150545E0,3.4272003E0,3.7538333E0,1.6517079E0,2.3039007E0,1.4065619E0,1.7355608E0,3.4155607E0,1.5629816E-1,0E0,1.5005184E0,2.5634942E0,1.2427387E0,9.79393E-1,1.6013939E0,1.1645766E0,2.1825933E-1,2.887413E0,2.3182669E0,0E0,0E0,2.3044045E0,1.7754389E0,1.8338487E0,1.8351823E0,1.4102969E0,1.0743027E0,4.4976425E-1,0E0,0E0,0E0,1.5477598E-1,1.1692016E0,0E0,0E0,3.0988102E0,7.838726E-3,1.6303256E0,0E0,0E0,2.5905895E0,1.1208513E0,1.356772E0,8.114195E-1,2.3391943E0,2.5721002E0,0E0,0E0,2.3330758E0,1.3006992E0,2.0452104E0,0E0,0E0,0E0,0E0,0E0,0E0,0E0,0E0,0E0,0E0,0E0,0E0,0E0,0E0,0E0,0E0,0E0,0E0,0E0,0E0,0E0,0E0,0E0,0E0,0E0,0E0,0E0,0E0,0E0,0E0],"parents":[2147483647,0,0,1,1,2,2,3,3,4,4,5,5,6,6,7,7,8,8,9,9,10,10,12,12,13,13,14,14,15,15,16,16,17,17,18,18,19,19,20,20,23,23,24,24,25,25,26,26,27,27,28,28,29,29,33,33,34,34,37,37,38,38,39,39,42,42,43,43,44,44,45,45,46,46,47,47,50,50,51,51,52,52],"right_children":[2,4,6,8,10,12,14,16,18,20,22,-1,24,26,28,30,32,34,36,38,40,-1,-1,42,44,46,48,50,52,54,-1,-1,-1,56,58,-1,-1,60,62,64,-1,-1,66,68,70,72,74,76,-1,-1,78,80,82,-1,-1,-1,-1,-1,-1,-1,-1,-1,-1,-1,-1,-1,-1,-1,-1,-1,-1,-1,-1,-1,-1,-1,-1,-1,-1,-1,-1,-1,-1],"split_conditions":[-4.9524553E-2,-1.1298808E0,-1.3248968E-1,-5.731036E-1,1.6612456E0,-2.0173283E0,-1.7227735E-1,2.4839418E0,1.1296711E-2,-1.9983474E-2,-1.3501954E0,1.9712143E-1,-9.277657E-2,4.0489692E-2,8.968854E-4,-4.6954866E-2,-2.131173E-1,-1.3972417E0,7.4105215E-1,-7.69121E-2,-4.3843976E-1,8.122026E-2,2.8312495E-1,-1.0733714E0,-3.035591E-1,-4.083851E-1,4.8229957E-1,-3.5815725E-1,1.827065E0,-1.7710267E-1,-8.838794E-3,-1.348178E-1,1.935585E-1,-6.28643E-2,7.7820905E-2,-1.5571572E-1,-5.815722E-3,-1.881025E0,4.8624948E-1,-6.5188396E-1,-1.9336212E-1,-1.6469395E-1,-3.2263747E-1,4.819474E-1,-4.3753162E-1,-4.433985E-1,-3.5808226E-1,5.592893E-1,-1.263761E-1,-1.6243878E-1,1.3684145E-1,-2.2510739E-1,9.60691E-1,2.626605E-1,4.944327E-2,-1.2371323E-1,4.8966967E-3,1.6852844E-1,-6.549332E-2,-1.620292E-1,4.3208018E-2,2.7959034E-1,9.3706615E-2,8.8806346E-2,-9.7572066E-2,-6.1917424E-2,1.466563E-1,-1.6644756E-1,-3.0517502E-2,-1.394977E-1,9.4673336E-2,2.8596979E-2,-1.5501967E-1,2.6880422E-1,-5.5989537E-2,2.587503E-1,-7.4318156E-2,-5.0598416E-2,2.4203022E-1,-4.654909E-2,-1.415254E-1,-1.4214955E-1,1.8039532E-1],"split_indices":[24,23,7,14,19,21,14,22,11,20,2,0,20,11,23,7,11,5,11,20,5,0,0,7,7,14,3,2,22,10,0,0,0,20,6,0,0,11,4,14,0,0,20,2,11,13,14,16,0,0,5,15,15,0,0,0,0,0,0,0,0,0,0,0,0,0,0,0,0,0,0,0,0,0,0,0,0,0,0,0,0,0,0],"split_type":[0,0,0,0,0,0,0,0,0,0,0,0,0,0,0,0,0,0,0,0,0,0,0,0,0,0,0,0,0,0,0,0,0,0,0,0,0,0,0,0,0,0,0,0,0,0,0,0,0,0,0,0,0,0,0,0,0,0,0,0,0,0,0,0,0,0,0,0,0,0,0,0,0,0,0,0,0,0,0,0,0,0,0],"sum_hessian":[4.3850568E2,2.196932E2,2.1881245E2,4.2161987E1,1.7753122E2,5.9563915E1,1.5924854E2,2.4954727E1,1.720726E1,1.716434E2,5.8878303E0,2.2834167E0,5.72805E1,3.3830147E1,1.25418396E2,2.1564072E1,3.3906567E0,1.3138401E1,4.0688586E0,1.4810983E2,2.3533556E1,1.4800873E0,4.407743E0,2.482743E1,3.2453068E1,2.3914032E1,9.916115E0,1.3592307E1,1.1182609E2,2.0234219E1,1.3298528E0,1.9010184E0,1.4896382E0,2.4944065E0,1.0643994E1,2.8327312E0,1.2361273E0,1.432973E2,4.8125377E0,1.4898323E1,8.635233E0,3.490614E0,2.1336817E1,2.2460833E1,9.992236E0,1.6089336E1,7.824695E0,8.115069E0,1.8010455E0,3.5452285E0,1.0047079E1,1.0672088E2,5.105211E0,1.875273E1,1.4814882E0,1.2729596E0,1.221447E0,8.8260355E0,1.8179586E0,5.983228E0,1.3731407E2,3.3821542E0,1.4303837E0,7.485386E0,7.412937E0,7.7599077E0,1.3576908E1,1.2257085E1,1.0203749E1,2.0060925E0,7.9861436E0,2.2048795E0,1.3884457E1,1.8193878E0,6.0053077E0,5.60566E0,2.5094092E0,7.5868855E0,2.4601934E0,1.6610165E1,9.011071E1,2.7579172E0,2.3472939E0],"tree_param":{"num_deleted":"0","num_feature":"26","num_nodes":"83","size_leaf_vector":"1"}},{"base_weights":[1.1909698E-1,-6.10933E-2,2.4876599E-1,-1.4580397E-1,1.4590561E-1,2.0574464E-1,5.158617E-1,-2.4938849E-1,6.189465E-2,-1.6386521E-1,2.1235089E-1,1.04799405E-1,2.8735805E-1,-1.2309058E-1,5.598713E-1,2.0693955E-1,-3.1573233E-1,3.7393537E-1,-1.6993463E-1,-1.6126207E-1,2.8981185E-1,1.6454838E-1,-1.5167516E-1,1.4944968E-1,3.796189E-1,6.235245E-1,-1.382208E-1,-2.2009687E-1,7.165097E-1,-4.8453394E-2,-3.9465606E-1,-1.5825698E-1,5.110099E-1,4.5464703E-1,-3.0130196E-1,-4.2200828E-1,2.2607873E-1,4.220057E-1,-8.737233E-2,4.167552E-1,8.356706E-2,7.300341E-2,-4.6794322E-1,-2.7835903E-1,2.5173596E-1,4.3984494E-1,-1.0669191E-2,6.791337E-1,-1.7213931E-2,-1.445947E-1,7.0629604E-2,-1.6650318E-1,8.848315E-2,-1.0466904E-1,3.1024572E-1,-1.00169584E-1,1.6807972E-1,-1.3286938E-1,-3.0200516E-3,2.772075E-1,3.5254486E-2,-4.2693764E-2,2.4042225E-1,-1.8779935E-1,-1.1365112E-2,2.7499445E-2,-1.6819212E-1,1.8755858E-1,-5.1927418E-2,1.906475E-2,1.7516765E-1,5.8165703E-2,-1.363291E-1,1.6116786E-1,-1.6489285E-1,-1.1957467E-1,5.072877E-2,6.678899E-2,-1.4451851E-1,1.6617792E-2,-1.972176E-1,-1.2044047E-1,9.3060784E-2,1.7802575E-1,2.1831332E-2,1.4869107E-1,-1.1569731E-2,7.9766415E-2,-1.7640936E-1,-3.750776E-2,2.1703981E-1],"categories":[],"categories_nodes":[],"categories_segments":[],"categories_sizes":[],"default_left":[0,0,0,0,0,0,0,0,0,0,0,0,0,0,0,0,0,0,0,0,0,0,0,0,0,0,0,0,0,0,0,0,0,0,0,0,0,0,0,0,0,0,0,0,0,0,0,0,0,0,0,0,0,0,0,0,0,0,0,0,0,0,0,0,0,0,0,0,0,0,0,0,0,0,0,0,0,0,0,0,0,0,0,0,0,0,0,0,0,0,0],"id":9,"left_children":[1,3,5,7,9,11,13,15,17,-1,19,21,23,-1,25,27,29,31,33,35,37,39,41,43,45,47,49,51,53,55,57,-1,59,61,63,65,67,69,71,73,75,77,79,81,83,85,87,89,-1,-1,-1,-1,-1,-1,-1,-1,-1,-1,-1,-1,-1,-1,-1,-1,-1,-1,-1,-1,-1,-1,-1,-1,-1,-1,-1,-1,-1,-1,-1,-1,-1,-1,-1,-1,-1,-1,-1,-1,-1,-1,-1],"loss_changes":[1.0796224E1,3.421222E0,2.979391E0,2.9863348E0,2.728386E0,1.8889046E0,1.7210226E0,2.860786E0,3.4456322E0,0E0,1.5675533E0,1.6448332E0,1.5747547E0,0E0,1.6570187E0,2.8395839E0,1.6897964E0,2.770705E0,2.3942876E0,1.0717177E0,2.2249556E0,1.7260191E0,1.490391E0,2.3913665E0,1.7953081E0,1.2725258E0,5.980458E-1,1.4522797E0,2.3419988E0,3.5941215E0,1.1533375E0,0E0,2.8293538E0,1.1862075E0,1.9718866E0,4.8765445E-1,8.315669E-1,1.8584905E0,1.3493736E0,2.705655E0,2.8101497E0,1.1735494E0,8.9369714E-1,9.006129E-1,2.6068103E0,1.7812462E0,1.9383225E0,1.166955E0,0E0,0E0,0E0,0E0,0E0,0E0,0E0,0E0,0E0,0E0,0E0,0E0,0E0,0E0,0E0,0E0,0E0,0E0,0E0,0E0,0E0,0E0,0E0,0E0,0E0,0E0,0E0,0E0,0E0,0E0,0E0,0E0,0E0,0E0,0E0,0E0,0E0,0E0,0E0,0E0,0E0,0E0,0E0],"parents":[2147483647,0,0,1,1,2,2,3,3,4,4,5,5,6,6,7,7,8,8,10,10,11,11,12,12,14,14,15,15,16,16,17,17,18,18,19,19,20,20,21,21,22,22,23,23,24,24,25,25,26,26,27,27,28,28,29,29,30,30,32,32,33,33,34,34,35,35,36,36,37,37,38,38,39,39,40,40,41,41,42,42,43,43,44,44,45,45,46,46,47,47],"right_children":[2,4,6,8,10,12,14,16,18,-1,20,22,24,-1,26,28,30,32,34,36,38,40,42,44,46,48,50,52,54,56,58,-1,60,62,64,66,68,70,72,74,76,78,80,82,84,86,88,90,-1,-1,-1,-1,-1,-1,-1,-1,-1,-1,-1,-1,-1,-1,-1,-1,-1,-1,-1,-1,-1,-1,-1,-1,-1,-1,-1,-1,-1,-1,-1,-1,-1,-1,-1,-1,-1,-1,-1,-1,-1,-1,-1],"split_conditions":[-3.1134978E-2,7.083234E-2,1.5490202E0,-8.972217E-2,-1.4631431E0,1.9944994E-1,1.4530282E-2,-1.0924348E0,-4.53436E-1,-1.6386521E-1,-1.2574321E0,8.139733E-1,-4.1428936E-1,-1.2309058E-1,2.627027E0,3.2860193E-1,-1.4354128E0,-1.0841782E0,-8.738283E-1,-2.549132E-1,3.534984E-1,-5.103499E-1,-2.7284297E-1,-1.7438509E-1,7.4663985E-1,1.3242247E0,5.395382E-1,-1.2521303E0,-7.287283E-1,-6.8573123E-1,-7.980782E-2,-1.5825698E-1,3.807186E-1,5.8040905E-1,-4.890465E-1,-1.0733658E0,-1.013721E0,-1.0952727E-2,3.9444816E-1,2.5241667E-1,-5.5269337E-1,1.302074E0,-2.1641912E-1,1.0231503E0,3.300263E-1,1.1145538E0,2.555584E-1,-9.080284E-1,-1.7213931E-2,-1.445947E-1,7.0629604E-2,-1.6650318E-1,8.848315E-2,-1.0466904E-1,3.1024572E-1,-1.00169584E-1,1.6807972E-1,-1.3286938E-1,-3.0200516E-3,2.772075E-1,3.5254486E-2,-4.2693764E-2,2.4042225E-1,-1.8779935E-1,-1.1365112E-2,2.7499445E-2,-1.6819212E-1,1.8755858E-1,-5.1927418E-2,1.906475E-2,1.7516765E-1,5.8165703E-2,-1.363291E-1,1.6116786E-1,-1.6489285E-1,-1.1957467E-1,5.072877E-2,6.678899E-2,-1.4451851E-1,1.6617792E-2,-1.972176E-1,-1.2044047E-1,9.3060784E-2,1.7802575E-1,2.1831332E-2,1.4869107E-1,-1.1569731E-2,7.9766415E-2,-1.7640936E-1,-3.750776E-2,2.1703981E-1],"split_indices":[23,2,6,7,14,14,23,9,18,0,19,12,21,0,8,5,6,8,14,14,19,5,14,6,4,18,5,9,0,15,6,0,7,17,20,14,5,22,21,7,6,16,6,20,6,20,3,11,0,0,0,0,0,0,0,0,0,0,0,0,0,0,0,0,0,0,0,0,0,0,0,0,0,0,0,0,0,0,0,0,0,0,0,0,0,0,0,0,0,0,0],"split_type":[0,0,0,0,0,0,0,0,0,0,0,0,0,0,0,0,0,0,0,0,0,0,0,0,0,0,0,0,0,0,0,0,0,0,0,0,0,0,0,0,0,0,0,0,0,0,0,0,0,0,0,0,0,0,0,0,0,0,0,0,0,0,0,0,0,0,0,0,0,0,0,0,0,0,0,0,0,0,0,0,0,0,0,0,0,0,0,0,0,0,0],"sum_hessian":[4.6041583E2,1.9289478E2,2.6752106E2,1.370891E2,5.580568E1,2.3193361E2,3.558745E1,9.133655E1,4.575255E1,4.2557163E0,5.154996E1,1.0470774E2,1.2722587E2,1.2367857E0,3.4350662E1,1.1324545E1,8.0012E1,1.924113E1,2.6511417E1,8.666669E0,4.2883293E1,8.52144E1,1.9493343E1,5.2047268E1,7.51786E1,3.1578133E1,2.7725298E0,6.470298E0,4.8542476E0,1.8608246E1,6.140376E1,2.163648E0,1.7077484E1,4.1794543E0,2.2331963E1,5.126298E0,3.540371E0,3.166622E1,1.12170725E1,1.9703585E1,6.551081E1,1.1846615E1,7.6467285E0,9.710805E0,4.2336464E1,6.501851E1,1.0160091E1,2.919628E1,2.3818517E0,1.2930243E0,1.4795055E0,3.8737335E0,2.5965643E0,1.0922694E0,3.7619781E0,1.2975261E1,5.632985E0,5.4425194E1,6.978564E0,7.674267E0,9.403216E0,1.752339E0,2.4271154E0,9.386047E0,1.2945914E1,1.1614759E0,3.964822E0,1.4871666E0,2.0532043E0,1.0285075E1,2.1381145E1,6.6178966E0,4.5991755E0,1.7914465E1,1.7891196E0,9.318681E0,5.6192135E1,9.801538E0,2.0450757E0,2.2204735E0,5.426255E0,8.293863E0,1.4169414E0,1.3756482E1,2.8579979E1,5.8195747E1,6.822757E0,7.2343197E0,2.9257717E0,1.4303538E0,2.7765926E1],"tree_param":{"num_deleted":"0","num_feature":"26","num_nodes":"91","size_leaf_vector":"1"}},{"base_weights":[-1.1476691E-1,1.4839041E-1,-1.3350716E-1,-2.794801E-1,5.205379E-1,5.7214487E-1,-1.4404677E-1,-4.9947438E-1,8.665087E-2,6.610907E-1,-1.2814882E-1,-1.0582152E-1,2.560933E-1,3.6200058E-1,-1.5477145E-1,3.9735172E-2,-1.816914E-1,2.046338E-1,-3.0497035E-1,-1.172551E-1,8.212578E-1,5.482819E-1,-1.0519473E-1,4.26035E-1,-1.6191353E-1,-1.4081243E-1,1.804539E-2,1.0208068E0,1.0678232E-1,2.1076782E-1,2.7741555E-2,-1.0357465E-1,2.258685E-1,-2.1660507E-1,-7.713671E-2,7.887073E-2,3.4765762E-1,-1.0673067E-1,1.5006697E-1,-5.513478E-2,-1.5591028E-1,-6.962155E-2,1.1130718E-2],"categories":[],"categories_nodes":[],"categories_segments":[],"categories_sizes":[],"default_left":[0,0,0,0,0,0,0,0,0,0,0,0,0,0,0,0,0,0,0,0,0,0,0,0,0,0,0,0,0,0,0,0,0,0,0,0,0,0,0,0,0,0,0],"id":10,"left_children":[1,3,5,7,9,11,13,15,17,19,-1,-1,-1,21,23,-1,-1,-1,25,-1,27,29,-1,31,33,-1,-1,35,37,-1,-1,-1,-1,39,41,-1,-1,-1,-1,-1,-1,-1,-1],"loss_changes":[2.0125651E0,4.498239E0,2.8917756E0,1.119925E0,2.276349E0,1.8007559E0,2.0802603E0,6.50295E-1,1.5766906E0,2.583521E0,0E0,0E0,0E0,1.2595938E0,1.586956E0,0E0,0E0,0E0,2.82249E-1,0E0,1.5985327E0,4.106853E-1,0E0,1.450012E0,1.6627464E0,0E0,0E0,6.6264343E-1,8.570547E-1,0E0,0E0,0E0,0E0,2.089387E0,2.5501857E0,0E0,0E0,0E0,0E0,0E0,0E0,0E0,0E0],"parents":[2147483647,0,0,1,1,2,2,3,3,4,4,5,5,6,6,7,7,8,8,9,9,13,13,14,14,18,18,20,20,21,21,23,23,24,24,27,27,28,28,33,33,34,34],"right_children":[2,4,6,8,10,12,14,16,18,20,-1,-1,-1,22,24,-1,-1,-1,26,-1,28,30,-1,32,34,-1,-1,36,38,-1,-1,-1,-1,40,42,-1,-1,-1,-1,-1,-1,-1,-1],"split_conditions":[-1.4844745E0,-5.947278E-1,-1.881025E0,-6.283385E-1,1.6586633E0,-1.052505E0,-1.8841165E0,-2.4206386E0,-7.7018416E-1,-6.9675446E-1,-1.2814882E-1,-1.0582152E-1,2.560933E-1,5.053353E-1,-2.304884E0,3.9735172E-2,-1.816914E-1,2.046338E-1,9.3578196E-1,-1.172551E-1,8.6409503E-1,6.5062624E-1,-1.0519473E-1,-1.8736873E-2,2.4011531E-1,-1.4081243E-1,1.804539E-2,4.1281886E-2,1.9738433E0,2.1076782E-1,2.7741555E-2,-1.0357465E-1,2.258685E-1,9.8340064E-1,-4.0341705E-1,7.887073E-2,3.4765762E-1,-1.0673067E-1,1.5006697E-1,-5.513478E-2,-1.5591028E-1,-6.962155E-2,1.1130718E-2],"split_indices":[14,6,11,10,17,10,9,12,23,3,0,0,0,11,10,0,0,0,3,0,21,10,0,9,10,0,0,17,22,0,0,0,0,14,4,0,0,0,0,0,0,0,0],"split_type":[0,0,0,0,0,0,0,0,0,0,0,0,0,0,0,0,0,0,0,0,0,0,0,0,0,0,0,0,0,0,0,0,0,0,0,0,0,0,0,0,0,0,0],"sum_hessian":[4.0307568E2,2.6336138E1,3.7673956E2,1.2366716E1,1.3969421E1,4.760013E0,3.7197955E2,7.4975343E0,4.8691816E0,1.24285755E1,1.5408455E0,1.0516579E0,3.708355E0,7.0400195E0,3.649395E2,1.0427995E0,6.454735E0,1.6375355E0,3.231646E0,1.451988E0,1.0976588E1,5.7639966E0,1.2760228E0,3.7206151E0,3.612189E2,2.0314221E0,1.2002239E0,8.245044E0,2.7315438E0,3.9019623E0,1.8620343E0,1.0906872E0,2.6299279E0,2.186242E2,1.425947E2,1.717939E0,6.5271053E0,1.2995132E0,1.4320304E0,1.9871191E2,1.9912302E1,6.0080265E1,8.251443E1],"tree_param":{"num_deleted":"0","num_feature":"26","num_nodes":"43","size_leaf_vector":"1"}},{"base_weights":[-2.0249907E-2,1.7787409E-1,-1.7007275E-1,2.607662E-1,-1.6176435E-1,-4.453004E-2,-2.9826614E-1,9.4399935E-1,2.2481613E-1,-1.943098E-1,-3.2277934E-2,-8.354482E-2,6.4841497E-1,-6.665835E-2,-3.531338E-1,3.0877584E-1,1.0080545E-1,3.6521757E-1,9.441886E-2,1.004498E-1,-1.6534874E-1,3.569738E-1,-1.1987109E-1,8.969903E-1,-1.02819026E-1,-3.1018057E-1,2.4509685E-1,-3.7828618E-1,2.2872066E-1,6.2184554E-1,2.442663E-1,-2.1406807E-1,2.0092063E-1,-3.6059654E-1,2.9467162E-1,-2.7719322E-1,6.4002484E-1,-2.6829962E-2,-2.8625768E-1,7.904109E-2,3.165189E-1,3.779971E-1,-1.7813165E-1,-1.3432857E-1,4.8045966E-1,-1.5224071E-2,-4.095255E-1,-1.202161E-1,2.1563815E-1,2.1928804E-1,7.254676E-2,2.2734186E-1,3.5052024E-2,2.8350761E-2,-1.447284E-1,-1.6717389E-1,7.298901E-2,-1.7799374E-1,1.4077134E-1,-9.666637E-2,1.3535602E-1,-1.3463482E-1,1.0233041E-2,2.8634536E-1,-1.0809354E-1,-3.696494E-2,9.151938E-2,-1.1111526E-1,5.890662E-2,2.2059973E-1,-4.5188893E-2,-1.268653E-1,2.3205964E-1,-8.9742646E-2,2.0375663E-1,-1.5169358E-1,-8.148908E-2],"categories":[],"categories_nodes":[],"categories_segments":[],"categories_sizes":[],"default_left":[0,0,0,0,0,0,0,0,0,0,0,0,0,0,0,0,0,0,0,0,0,0,0,0,0,0,0,0,0,0,0,0,0,0,0,0,0,0,0,0,0,0,0,0,0,0,0,0,0,0,0,0,0,0,0,0,0,0,0,0,0,0,0,0,0,0,0,0,0,0,0,0,0,0,0,0,0],"id":11,"left_children":[1,3,5,7,9,11,13,15,17,-1,19,21,23,25,27,-1,-1,29,31,33,-1,35,37,39,-1,41,43,45,47,49,51,53,55,57,59,61,63,65,67,-1,-1,69,-1,-1,71,73,75,-1,-1,-1,-1,-1,-1,-1,-1,-1,-1,-1,-1,-1,-1,-1,-1,-1,-1,-1,-1,-1,-1,-1,-1,-1,-1,-1,-1,-1,-1],"loss_changes":[1.2605435E1,5.1915812E0,3.8771687E0,3.4083977E0,2.2757175E0,3.3877769E0,1.4941549E0,1.987362E-2,2.5533466E0,0E0,2.1126869E0,1.9249921E0,1.9548321E0,1.9061925E0,1.4962196E0,0E0,0E0,1.949954E0,2.495087E0,2.3120701E0,0E0,1.8309306E0,1.6860465E0,2.8505564E-1,0E0,2.9520004E0,2.0302749E0,1.0452509E0,1.7114897E0,6.9587135E-1,3.0309603E0,1.671792E0,1.9346364E0,1.7752585E0,1.8719841E0,2.04429E-1,2.4424486E0,2.3176396E0,1.6616185E0,0E0,0E0,9.9661624E-1,0E0,0E0,2.654454E0,1.856067E0,9.935932E-1,0E0,0E0,0E0,0E0,0E0,0E0,0E0,0E0,0E0,0E0,0E0,0E0,0E0,0E0,0E0,0E0,0E0,0E0,0E0,0E0,0E0,0E0,0E0,0E0,0E0,0E0,0E0,0E0,0E0,0E0],"parents":[2147483647,0,0,1,1,2,2,3,3,4,4,5,5,6,6,7,7,8,8,10,10,11,11,12,12,13,13,14,14,17,17,18,18,19,19,21,21,22,22,23,23,25,25,26,26,27,27,28,28,29,29,30,30,31,31,32,32,33,33,34,34,35,35,36,36,37,37,38,38,41,41,44,44,45,45,46,46],"right_children":[2,4,6,8,10,12,14,16,18,-1,20,22,24,26,28,-1,-1,30,32,34,-1,36,38,40,-1,42,44,46,48,50,52,54,56,58,60,62,64,66,68,-1,-1,70,-1,-1,72,74,76,-1,-1,-1,-1,-1,-1,-1,-1,-1,-1,-1,-1,-1,-1,-1,-1,-1,-1,-1,-1,-1,-1,-1,-1,-1,-1,-1,-1,-1,-1],"split_conditions":[-2.094522E-1,1.6188936E-1,9.6727744E-2,-6.687806E-1,2.4595782E-1,1.2498194E0,-2.180243E-1,2.705554E-1,-7.7378994E-1,-1.943098E-1,6.96354E-1,-8.2030106E-1,5.3690934E-1,2.0392339E-1,5.459994E-1,3.0877584E-1,1.0080545E-1,-1.1298808E0,-2.130401E-1,-2.7782217E-1,-1.6534874E-1,-1.9339123E-1,8.7386094E-2,-7.208305E-1,-1.02819026E-1,-9.480178E-1,-7.172982E-1,-3.8834478E-4,6.2704784E-1,-6.5188396E-1,-4.9784526E-1,1.410765E-1,-5.5033594E-1,-1.7163724E-1,5.558098E-1,-9.393573E-1,-3.5701506E-2,5.478186E-1,1.1440942E0,7.904109E-2,3.165189E-1,5.0627196E-1,-1.7813165E-1,-1.3432857E-1,-4.2466515E-1,7.362733E-1,1.0025748E0,-1.202161E-1,2.1563815E-1,2.1928804E-1,7.254676E-2,2.2734186E-1,3.5052024E-2,2.8350761E-2,-1.447284E-1,-1.6717389E-1,7.298901E-2,-1.7799374E-1,1.4077134E-1,-9.666637E-2,1.3535602E-1,-1.3463482E-1,1.0233041E-2,2.8634536E-1,-1.0809354E-1,-3.696494E-2,9.151938E-2,-1.1111526E-1,5.890662E-2,2.2059973E-1,-4.5188893E-2,-1.268653E-1,2.3205964E-1,-8.9742646E-2,2.0375663E-1,-1.5169358E-1,-8.148908E-2],"split_indices":[13,6,23,21,6,12,7,11,12,0,22,10,18,6,21,0,0,23,3,21,0,19,14,6,0,2,14,13,13,14,17,21,21,9,0,14,23,13,19,0,0,11,0,0,3,14,6,0,0,0,0,0,0,0,0,0,0,0,0,0,0,0,0,0,0,0,0,0,0,0,0,0,0,0,0,0,0],"split_type":[0,0,0,0,0,0,0,0,0,0,0,0,0,0,0,0,0,0,0,0,0,0,0,0,0,0,0,0,0,0,0,0,0,0,0,0,0,0,0,0,0,0,0,0,0,0,0,0,0,0,0,0,0,0,0,0,0,0,0,0,0,0,0,0,0,0,0,0,0,0,0,0,0,0,0,0,0],"sum_hessian":[4.226422E2,1.8190538E2,2.4073682E2,1.4640582E2,3.5499557E1,1.22306564E2,1.18430244E2,6.0558295E0,1.4035E2,6.6271634E0,2.8872396E1,1.16619965E2,5.686602E0,2.310675E1,9.5323494E1,4.7033997E0,1.3524302E0,6.671537E1,7.363463E1,2.3633493E1,5.238903E0,8.211727E0,1.0840823E2,4.6223345E0,1.0642676E0,1.29759E1,1.0130851E1,9.170896E1,3.6145313E0,2.0044573E1,4.6670795E1,1.8638222E1,5.4996407E1,6.7510757E0,1.6882418E1,2.5405035E0,5.6712236E0,7.0273506E1,3.8134735E1,1.4555568E0,3.1667776E0,3.6896107E0,9.286289E0,2.339987E0,7.790864E0,7.383665E0,8.43253E1,1.6620939E0,1.9524375E0,1.4855661E1,5.1889114E0,8.294827E0,3.837597E1,8.97094E0,9.667282E0,2.2680383E0,5.272837E1,5.495078E0,1.2559979E0,3.2022524E0,1.3680164E1,1.35307E0,1.1874336E0,4.349712E0,1.3215115E0,5.4945393E1,1.5328111E1,3.2672062E1,5.462672E0,1.968167E0,1.7214438E0,1.7999382E0,5.990926E0,5.644902E0,1.7387629E0,4.811789E1,3.620741E1],"tree_param":{"num_deleted":"0","num_feature":"26","num_nodes":"77","size_leaf_vector":"1"}},{"base_weights":[9.119687E-2,-3.9328497E-2,2.0733449E-1,1.9606645E-1,-9.290033E-2,3.114798E-2,2.8495574E-1,1.3751859E-3,5.289207E-1,-3.0872893E-1,-2.7085507E-2,4.2128134E-1,-4.8421226E-2,-1.3431418E-1,3.2614118E-1,5.1718074E-1,-1.465445E-1,2.5383452E-1,9.2284195E-2,-9.1414176E-2,-4.7615173E-1,-1.5471938E-1,8.038923E-2,-1.4343324E-1,5.755959E-1,-1.1216285E-1,2.0090637E-1,1.602622E-1,-3.699758E-1,3.9643723E-1,1.845652E-1,-9.850835E-2,2.3357351E-1,6.4836614E-2,-1.9172163E-1,-1.5397927E-1,4.2346954E-1,5.276517E-1,-2.6920122E-1,-1.424802E-1,-5.725718E-1,1.9863512E-1,-1.8867952E-1,2.2001235E-2,7.550105E-1,-1.1834053E-2,2.4958561E-1,-3.7891675E-2,-2.014014E-1,-5.930585E-1,2.2699203E-1,2.627853E-1,5.744725E-1,-3.958829E-1,3.6768153E-1,-4.0099595E-2,1.443601E-1,1.8581395E-1,-2.1080453E-2,-2.6167696E-3,2.4053723E-1,-1.4872193E-1,1.2542783E-1,1.5163195E-1,-1.1825097E-1,-6.93585E-4,-1.8541132E-1,-1.8082014E-1,-3.122709E-2,3.2077298E-2,-1.1681457E-1,2.5536612E-1,8.0343604E-2,1.5569453E-1,-1.3579233E-1,-7.7696756E-2,4.1710686E-2,-2.2879866E-1,-1.656655E-2,1.7532009E-1,-6.635832E-2,-1.8866482E-1,9.869982E-2,5.0143257E-2,2.0526461E-1,-2.0652297E-1,1.033645E-1,4.3154158E-2,1.4386512E-1],"categories":[],"categories_nodes":[],"categories_segments":[],"categories_sizes":[],"default_left":[0,0,0,0,0,0,0,0,0,0,0,0,0,0,0,0,0,0,0,0,0,0,0,0,0,0,0,0,0,0,0,0,0,0,0,0,0,0,0,0,0,0,0,0,0,0,0,0,0,0,0,0,0,0,0,0,0,0,0,0,0,0,0,0,0,0,0,0,0,0,0,0,0,0,0,0,0,0,0,0,0,0,0,0,0,0,0,0,0],"id":12,"left_children":[1,3,5,7,9,11,13,15,17,19,21,23,25,27,29,31,33,-1,35,37,39,41,43,-1,45,47,-1,-1,49,51,53,-1,-1,55,-1,-1,57,59,61,63,65,-1,67,69,71,73,-1,75,-1,77,79,81,83,85,87,-1,-1,-1,-1,-1,-1,-1,-1,-1,-1,-1,-1,-1,-1,-1,-1,-1,-1,-1,-1,-1,-1,-1,-1,-1,-1,-1,-1,-1,-1,-1,-1,-1,-1],"loss_changes":[6.8076982E0,2.6920803E0,3.2393618E0,2.5674949E0,2.4547863E0,2.3101566E0,2.8887653E0,2.06011E0,1.9472032E0,1.4272733E0,1.8502767E0,2.0237472E0,2.9205372E0,2.6308966E0,1.4227543E0,1.5855281E0,2.2267938E0,0E0,1.6764444E0,2.2143986E0,6.453929E-1,1.8333496E0,2.8742537E0,0E0,1.6975625E0,2.3813338E0,0E0,0E0,1.7340541E0,2.2182417E0,5.6451807E0,0E0,0E0,1.3532416E0,0E0,0E0,5.5145776E-1,6.743828E-1,2.5879264E0,1.2424128E0,4.444976E-1,0E0,2.0354822E0,2.4373746E0,4.464698E-2,1.2623343E0,0E0,2.078635E0,0E0,7.8066134E-1,7.684691E-1,3.6735778E0,1.7564793E0,3.029148E0,9.289088E-1,0E0,0E0,0E0,0E0,0E0,0E0,0E0,0E0,0E0,0E0,0E0,0E0,0E0,0E0,0E0,0E0,0E0,0E0,0E0,0E0,0E0,0E0,0E0,0E0,0E0,0E0,0E0,0E0,0E0,0E0,0E0,0E0,0E0,0E0],"parents":[2147483647,0,0,1,1,2,2,3,3,4,4,5,5,6,6,7,7,8,8,9,9,10,10,11,11,12,12,13,13,14,14,15,15,16,16,18,18,19,19,20,20,21,21,22,22,24,24,25,25,28,28,29,29,30,30,33,33,36,36,37,37,38,38,39,39,40,40,42,42,43,43,44,44,45,45,47,47,49,49,50,50,51,51,52,52,53,53,54,54],"right_children":[2,4,6,8,10,12,14,16,18,20,22,24,26,28,30,32,34,-1,36,38,40,42,44,-1,46,48,-1,-1,50,52,54,-1,-1,56,-1,-1,58,60,62,64,66,-1,68,70,72,74,-1,76,-1,78,80,82,84,86,88,-1,-1,-1,-1,-1,-1,-1,-1,-1,-1,-1,-1,-1,-1,-1,-1,-1,-1,-1,-1,-1,-1,-1,-1,-1,-1,-1,-1,-1,-1,-1,-1,-1,-1],"split_conditions":[8.968854E-4,-5.1536167E-1,7.78205E-2,1.8082918E-1,-7.523813E-1,-4.4977084E-1,-6.732486E-1,-6.456978E-1,1.8413687E-2,-9.796459E-1,3.311388E-1,-5.6793374E-1,2.9095113E-1,-5.679338E-1,3.363555E-2,-9.79646E-1,-2.0181504E-1,2.5383452E-1,3.925744E-1,-1.4354128E0,-1.3831586E0,-6.623083E-1,4.461983E-1,-1.4343324E-1,-7.628647E-1,1.2667552E0,2.0090637E-1,1.602622E-1,-4.083851E-1,-4.2466515E-1,-2.855129E-1,-9.850835E-2,2.3357351E-1,3.720605E-1,-1.9172163E-1,-1.5397927E-1,8.7305874E-1,-1.6455846E0,1.3684145E-1,-7.2608036E-1,-4.2466515E-1,1.9863512E-1,-1.0279139E0,1.0401832E0,-2.7203578E-1,-8.411365E-1,2.4958561E-1,-1.9060541E-2,-2.014014E-1,8.0692285E-1,7.143167E-1,-3.5732815E-1,-1.2245489E0,2.1932662E0,7.261889E-2,-4.0099595E-2,1.443601E-1,1.8581395E-1,-2.1080453E-2,-2.6167696E-3,2.4053723E-1,-1.4872193E-1,1.2542783E-1,1.5163195E-1,-1.1825097E-1,-6.93585E-4,-1.8541132E-1,-1.8082014E-1,-3.122709E-2,3.2077298E-2,-1.1681457E-1,2.5536612E-1,8.0343604E-2,1.5569453E-1,-1.3579233E-1,-7.7696756E-2,4.1710686E-2,-2.2879866E-1,-1.656655E-2,1.7532009E-1,-6.635832E-2,-1.8866482E-1,9.869982E-2,5.0143257E-2,2.0526461E-1,-2.0652297E-1,1.033645E-1,4.3154158E-2,1.4386512E-1],"split_indices":[23,3,6,14,23,11,11,7,8,12,3,12,21,12,18,12,11,0,2,6,20,23,2,0,6,10,0,0,14,3,22,0,0,6,0,0,12,6,5,5,3,0,12,18,23,5,0,13,0,9,2,13,18,19,19,0,0,0,0,0,0,0,0,0,0,0,0,0,0,0,0,0,0,0,0,0,0,0,0,0,0,0,0,0,0,0,0,0,0],"split_type":[0,0,0,0,0,0,0,0,0,0,0,0,0,0,0,0,0,0,0,0,0,0,0,0,0,0,0,0,0,0,0,0,0,0,0,0,0,0,0,0,0,0,0,0,0,0,0,0,0,0,0,0,0,0,0,0,0,0,0,0,0,0,0,0,0,0,0,0,0,0,0,0,0,0,0,0,0,0,0,0,0,0,0,0,0,0,0,0,0],"sum_hessian":[4.475511E2,2.1103421E2,2.3651689E2,3.8630722E1,1.7240349E2,7.276178E1,1.6375511E2,2.5007566E1,1.3623155E1,3.9424995E1,1.3297849E2,1.1598584E1,6.1163193E1,1.4444826E1,1.4931029E2,5.016911E0,1.9990654E1,7.3476543E0,6.2755003E0,1.7828985E1,2.159601E1,6.0587246E1,7.239124E1,1.3913113E0,1.0207273E1,5.6951782E1,4.211411E0,3.4346423E0,1.1010183E1,9.856839E1,5.074189E1,1.1242212E0,3.8926897E0,1.4595131E1,5.395524E0,2.0243478E0,4.2511525E0,3.5387933E0,1.4290193E1,5.396964E0,1.6199047E1,1.680065E0,5.890718E1,6.7575264E1,4.815979E0,3.3909295E0,6.8163433E0,5.121679E1,5.7349916E0,8.019793E0,2.9903915E0,5.7716415E1,4.0851974E1,1.1890159E1,3.885173E1,1.0343042E1,4.2520885E0,2.8613327E0,1.3898197E0,1.5243891E0,2.0144043E0,1.0957278E1,3.332914E0,1.2278771E0,4.169087E0,1.2737522E0,1.4925294E1,8.953827E0,4.9953354E1,5.6625893E1,1.0949372E1,3.3978186E0,1.4181606E0,1.4579431E0,1.9329865E0,2.2560368E1,2.8656424E1,5.779304E0,2.2404883E0,1.4945965E0,1.495795E0,3.402269E0,5.4314148E1,9.205891E0,3.1646084E1,8.573306E0,3.3168533E0,1.3708583E1,2.5143148E1],"tree_param":{"num_deleted":"0","num_feature":"26","num_nodes":"89","size_leaf_vector":"1"}},{"base_weights":[-8.804672E-2,-6.587222E-2,-2.7797985E-1,1.0744117E-1,-1.075388E-1,3.5312048E-1,-3.7728912E-1,4.0090868E-1,2.171385E-3,-2.324076E-1,-1.9180683E-2,-1.13907084E-1,6.5875214E-1,1.4380458E-1,-4.5318884E-1,-1.3837904E-1,5.531055E-1,-2.1503688E-1,2.2753984E-1,-2.860806E-1,1.20002136E-1,2.1502693E-1,-8.661374E-2,2.681463E-1,5.6340743E-4,-2.6995233E-1,2.2122802E-1,-4.9022037E-1,1.09586E-2,8.719776E-3,7.4412274E-1,5.751457E-1,-3.2868734E-1,-1.3620494E-1,3.22005E-1,3.1716672E-1,-3.089125E-1,2.7870443E-1,-1.3947515E-1,6.8669593E-1,6.393851E-2,-1.4171003E-1,2.4793684E-1,2.6918901E-2,-1.3648479E-1,-2.0500806E-1,-5.6288254E-1,1.4141098E-1,-1.4029326E-1,2.4155213E-2,2.703579E-1,7.280724E-3,2.723071E-1,1.3102555E-1,-1.2715621E-1,1.5067449E-1,-7.062721E-2,-3.747526E-2,2.0192136E-1,-1.0292363E-1,4.734292E-2,-1.3547485E-1,1.5188742E-1,-1.12443045E-1,2.789551E-1,5.328512E-2,-1.566827E-1,-5.3288013E-2,1.4510535E-1,2.5463828E-1,5.230696E-3,-1.5653256E-1,7.150532E-2,4.2085655E-2,-1.8139374E-1],"categories":[],"categories_nodes":[],"categories_segments":[],"categories_sizes":[],"default_left":[0,0,0,0,0,0,0,0,0,0,0,0,0,0,0,0,0,0,0,0,0,0,0,0,0,0,0,0,0,0,0,0,0,0,0,0,0,0,0,0,0,0,0,0,0,0,0,0,0,0,0,0,0,0,0,0,0,0,0,0,0,0,0,0,0,0,0,0,0,0,0,0,0,0,0],"id":13,"left_children":[1,3,5,7,9,11,13,15,17,19,21,-1,23,25,27,-1,29,31,33,35,37,39,41,-1,-1,43,-1,45,-1,47,49,51,53,-1,55,57,59,61,-1,63,65,67,69,-1,-1,71,73,-1,-1,-1,-1,-1,-1,-1,-1,-1,-1,-1,-1,-1,-1,-1,-1,-1,-1,-1,-1,-1,-1,-1,-1,-1,-1,-1,-1],"loss_changes":[1.6153622E0,2.5292933E0,2.6553018E0,2.102169E0,3.1022243E0,1.5912268E0,1.459465E0,2.6127179E0,2.5507455E0,2.2396402E0,2.6400857E0,0E0,7.072474E-1,1.486362E0,5.803118E-1,0E0,1.6287827E0,2.572378E0,1.7923834E0,1.4956427E0,1.6254659E0,2.6209197E0,2.4238286E0,0E0,0E0,2.9503635E-1,0E0,4.8355722E-1,0E0,1.3436573E0,1.1395788E0,6.559173E-1,1.9216065E0,0E0,2.4332495E0,7.439711E-1,1.6213703E0,2.43926E0,0E0,2.663642E0,2.0536017E0,2.5995004E0,2.5734565E0,0E0,0E0,1.1693782E0,7.444062E-1,0E0,0E0,0E0,0E0,0E0,0E0,0E0,0E0,0E0,0E0,0E0,0E0,0E0,0E0,0E0,0E0,0E0,0E0,0E0,0E0,0E0,0E0,0E0,0E0,0E0,0E0,0E0,0E0],"parents":[2147483647,0,0,1,1,2,2,3,3,4,4,5,5,6,6,7,7,8,8,9,9,10,10,12,12,13,13,14,14,16,16,17,17,18,18,19,19,20,20,21,21,22,22,25,25,27,27,29,29,30,30,31,31,32,32,34,34,35,35,36,36,37,37,39,39,40,40,41,41,42,42,45,45,46,46],"right_children":[2,4,6,8,10,12,14,16,18,20,22,-1,24,26,28,-1,30,32,34,36,38,40,42,-1,-1,44,-1,46,-1,48,50,52,54,-1,56,58,60,62,-1,64,66,68,70,-1,-1,72,74,-1,-1,-1,-1,-1,-1,-1,-1,-1,-1,-1,-1,-1,-1,-1,-1,-1,-1,-1,-1,-1,-1,-1,-1,-1,-1,-1,-1],"split_conditions":[1.2574302E0,-7.374774E-1,-2.607918E-1,-4.364537E-1,3.363555E-2,5.863157E-2,-4.828199E-2,-8.9866483E-1,1.5635732E-1,7.1362203E-1,-4.5766512E-1,-1.13907084E-1,1.0789148E0,1.6130338E0,1.3891E0,-1.3837904E-1,-2.2828177E-1,-1.0044739E0,-1.9836493E0,-1.8518324E0,8.7305874E-1,3.0147457E-1,2.403568E-1,2.681463E-1,5.6340743E-4,-8.645924E-2,2.2122802E-1,5.075205E-2,1.09586E-2,-1.5622172E-1,-6.6855234E-1,-4.667246E-1,-1.267276E0,-1.3620494E-1,-9.224237E-3,-5.9975684E-1,1.075083E0,-9.796459E-1,-1.3947515E-1,-5.193339E-1,6.095868E-1,1.8427466E0,-2.7772167E-1,2.6918901E-2,-1.3648479E-1,1.0884484E0,-8.9866483E-1,1.4141098E-1,-1.4029326E-1,2.4155213E-2,2.703579E-1,7.280724E-3,2.723071E-1,1.3102555E-1,-1.2715621E-1,1.5067449E-1,-7.062721E-2,-3.747526E-2,2.0192136E-1,-1.0292363E-1,4.734292E-2,-1.3547485E-1,1.5188742E-1,-1.12443045E-1,2.789551E-1,5.328512E-2,-1.566827E-1,-5.3288013E-2,1.4510535E-1,2.5463828E-1,5.230696E-3,-1.5653256E-1,7.150532E-2,4.2085655E-2,-1.8139374E-1],"split_indices":[13,18,7,14,18,16,6,5,23,22,4,0,12,13,17,0,17,20,22,11,12,18,10,0,0,0,0,14,0,12,5,11,6,0,22,9,13,12,0,14,13,3,2,0,0,10,5,0,0,0,0,0,0,0,0,0,0,0,0,0,0,0,0,0,0,0,0,0,0,0,0,0,0,0,0],"split_type":[0,0,0,0,0,0,0,0,0,0,0,0,0,0,0,0,0,0,0,0,0,0,0,0,0,0,0,0,0,0,0,0,0,0,0,0,0,0,0,0,0,0,0,0,0,0,0,0,0,0,0,0,0,0,0,0,0,0,0,0,0,0,0,0,0,0,0,0,0,0,0,0,0,0,0],"sum_hessian":[3.86892E2,3.476509E2,3.924107E1,6.707438E1,2.8057654E2,4.9878736E0,3.4253197E1,1.6966726E1,5.010765E1,1.1559124E2,1.6498529E2,1.3967009E0,3.5911725E0,4.2410913E0,3.0012104E1,2.241014E0,1.4725713E1,2.553911E1,2.456854E1,1.0047659E2,1.5114652E1,3.639386E1,1.2859143E2,2.3790774E0,1.212095E0,2.8204632E0,1.4206281E0,2.7901237E1,2.1108673E0,4.0965333E0,1.062918E1,2.7007604E0,2.2838348E1,2.5274043E0,2.2041138E1,3.1940618E0,9.728253E1,1.23007E1,2.8139515E0,7.9695296E0,2.8424332E1,1.1090344E2,1.7687988E1,1.1328589E0,1.6876042E0,6.440903E0,2.1460335E1,2.083499E0,2.0130343E0,2.323836E0,8.305344E0,1.420542E0,1.2802184E0,2.1285758E0,2.0709774E1,1.6730398E1,5.3107395E0,1.7140188E0,1.480043E0,9.089361E1,6.388923E0,2.6887486E0,9.611952E0,1.384399E0,6.58513E0,2.439137E1,4.032961E0,1.0555722E2,5.34622E0,4.16043E0,1.3527558E1,3.653626E0,2.7872772E0,1.0708783E0,2.0389456E1],"tree_param":{"num_deleted":"0","num_feature":"26","num_nodes":"75","size_leaf_vector":"1"}},{"base_weights":[-1.6577944E-2,1.4299779E-1,-1.4165848E-1,2.0760193E-1,-1.3234353E-1,-3.449806E-2,-2.5840667E-1,7.8091234E-1,1.7643824E-1,-1.790526E-1,-1.5291099E-2,-6.933458E-2,5.6121796E-1,-4.9728242E-1,-2.0141801E-1,2.589466E-1,7.657648E-2,-3.037343E-1,2.0708859E-1,9.9614754E-2,-1.5401259E-1,-8.834226E-2,5.468011E-1,-2.7566003E-2,7.6025933E-1,-1.7547017E-1,-7.905599E-2,-1.4070101E-1,-4.3249768E-1,1.2450171E-1,-4.8269537E-1,3.3255076E-1,9.299557E-2,-3.2944497E-1,2.7039075E-1,2.9777497E-1,-1.2126696E-1,2.633883E-1,-1.156756E-4,2.7139214E-1,6.912909E-2,-1.310554E-1,1.673977E-1,-3.7103143E-1,-5.2205693E-2,3.3719074E-2,-4.7251293E-1,-2.053795E-1,2.32387E-2,1.5460703E-1,4.6073724E-2,-8.5704066E-2,5.2378118E-2,-1.6809858E-1,1.2340574E-1,-8.464913E-2,1.2018008E-1,-7.960759E-2,1.6515125E-1,-1.3737933E-1,-2.471772E-2,1.9225655E-2,-1.323358E-1,-7.371678E-2,3.2687742E-2,-1.5394482E-1,1.5041763E-2],"categories":[],"categories_nodes":[],"categories_segments":[],"categories_sizes":[],"default_left":[0,0,0,0,0,0,0,0,0,0,0,0,0,0,0,0,0,0,0,0,0,0,0,0,0,0,0,0,0,0,0,0,0,0,0,0,0,0,0,0,0,0,0,0,0,0,0,0,0,0,0,0,0,0,0,0,0,0,0,0,0,0,0,0,0,0,0],"id":14,"left_children":[1,3,5,7,9,11,13,15,17,-1,19,21,23,25,27,-1,-1,29,31,33,-1,35,37,-1,39,-1,41,43,45,-1,47,49,51,53,55,57,59,-1,-1,-1,-1,-1,-1,61,63,-1,65,-1,-1,-1,-1,-1,-1,-1,-1,-1,-1,-1,-1,-1,-1,-1,-1,-1,-1,-1,-1],"loss_changes":[8.151864E0,3.2206743E0,2.8546348E0,2.46691E0,1.878933E0,2.539563E0,1.3889699E0,9.198761E-2,2.1169057E0,0E0,1.6972997E0,1.3919504E0,9.4955516E-1,7.009134E-1,1.2018793E0,0E0,0E0,1.3295875E0,1.8554654E0,1.862907E0,0E0,1.4619523E0,6.477133E-1,0E0,1.965468E-1,0E0,1.3123012E0,1.463596E0,4.5092106E-1,0E0,9.003006E-1,1.9616189E0,2.2253985E0,1.4864298E0,1.3984133E0,1.4414523E0,1.3241237E0,0E0,0E0,0E0,0E0,0E0,0E0,6.3912654E-1,1.7023245E0,0E0,3.9079762E-1,0E0,0E0,0E0,0E0,0E0,0E0,0E0,0E0,0E0,0E0,0E0,0E0,0E0,0E0,0E0,0E0,0E0,0E0,0E0,0E0],"parents":[2147483647,0,0,1,1,2,2,3,3,4,4,5,5,6,6,7,7,8,8,10,10,11,11,12,12,13,13,14,14,17,17,18,18,19,19,21,21,22,22,24,24,26,26,27,27,28,28,30,30,31,31,32,32,33,33,34,34,35,35,36,36,43,43,44,44,46,46],"right_children":[2,4,6,8,10,12,14,16,18,-1,20,22,24,26,28,-1,-1,30,32,34,-1,36,38,-1,40,-1,42,44,46,-1,48,50,52,54,56,58,60,-1,-1,-1,-1,-1,-1,62,64,-1,66,-1,-1,-1,-1,-1,-1,-1,-1,-1,-1,-1,-1,-1,-1,-1,-1,-1,-1,-1,-1],"split_conditions":[-2.094522E-1,1.6188936E-1,9.6727744E-2,-6.687806E-1,2.4595782E-1,1.2498194E0,1.8316083E-1,2.1324818E-1,-1.4515427E0,-1.790526E-1,6.96354E-1,8.203544E-2,2.132873E-1,5.6641257E-1,1.2124858E0,2.589466E-1,7.657648E-2,-2.3159246E0,-7.7378994E-1,-2.7782217E-1,-1.5401259E-1,-8.2030106E-1,2.403568E-1,-2.7566003E-2,1.3005316E0,-1.7547017E-1,4.461983E-1,-2.0181493E-1,-3.961345E-1,1.2450171E-1,-2.4523374E-1,5.7304645E-1,-1.3253607E0,-1.7163724E-1,5.558098E-1,-1.9339123E-1,-8.311846E-1,2.633883E-1,-1.156756E-4,2.7139214E-1,6.912909E-2,-1.310554E-1,1.673977E-1,-8.699007E-1,-5.002455E-1,3.3719074E-2,4.2578712E-1,-2.053795E-1,2.32387E-2,1.5460703E-1,4.6073724E-2,-8.5704066E-2,5.2378118E-2,-1.6809858E-1,1.2340574E-1,-8.464913E-2,1.2018008E-1,-7.960759E-2,1.6515125E-1,-1.3737933E-1,-2.471772E-2,1.9225655E-2,-1.323358E-1,-7.371678E-2,3.2687742E-2,-1.5394482E-1,1.5041763E-2],"split_indices":[13,6,23,21,6,12,23,14,16,0,22,23,10,17,11,0,0,20,12,21,0,10,10,0,10,0,2,11,10,0,20,4,13,9,0,19,22,0,0,0,0,0,0,5,3,0,21,0,0,0,0,0,0,0,0,0,0,0,0,0,0,0,0,0,0,0,0],"split_type":[0,0,0,0,0,0,0,0,0,0,0,0,0,0,0,0,0,0,0,0,0,0,0,0,0,0,0,0,0,0,0,0,0,0,0,0,0,0,0,0,0,0,0,0,0,0,0,0,0,0,0,0,0,0,0,0,0,0,0,0,0,0,0,0,0,0,0],"sum_hessian":[4.0639886E2,1.7851237E2,2.2788647E2,1.4478668E2,3.37257E1,1.19497765E2,1.0838871E2,6.2241526E0,1.3856253E2,5.9631686E0,2.7762533E1,1.1373059E2,5.7671723E0,1.9389395E1,8.899931E1,4.8268995E0,1.3972526E0,7.779423E0,1.3078311E2,2.3208448E1,4.554084E0,1.11158005E2,2.5725846E0,1.4728231E0,4.294349E0,1.5701431E1,3.6879647E0,7.175446E1,1.724485E1,1.2879224E0,6.491501E0,6.1376183E1,6.940692E1,6.343032E0,1.6865417E1,8.101803E0,1.03056206E2,1.2260647E0,1.34652E0,2.8187938E0,1.4755554E0,2.5628235E0,1.1251413E0,1.9030455E1,5.272401E1,1.0560178E0,1.6188833E1,4.608325E0,1.8831755E0,2.9433035E1,3.194315E1,1.1861185E1,5.754574E1,5.0215764E0,1.3214555E0,2.9938357E0,1.3871581E1,2.494209E0,5.607593E0,9.552169E0,9.3504036E1,2.6520054E0,1.6378448E1,2.3719006E1,2.9005007E1,1.5037816E1,1.151016E0],"tree_param":{"num_deleted":"0","num_feature":"26","num_nodes":"67","size_leaf_vector":"1"}},{"base_weights":[7.166364E-2,-1.2406111E-1,1.2849583E-1,-2.0570414E-1,1.0358698E-1,9.9921785E-2,3.9013135E-1,4.1130677E-1,-2.523223E-1,4.1626704E-1,-9.934852E-2,-4.601743E-1,1.1189492E-1,4.3352547E-1,-1.2507516E-1,2.2086607E-1,-4.8215084E-2,-3.1492496E-1,2.124465E-2,6.2712854E-1,-1.3628837E-1,2.8238368E-1,-2.482859E-1,-1.6514382E-1,-1.4453869E-3,2.3670644E-1,1.0407704E-1,4.8692885E-1,-4.7159713E-2,-3.6560443E-1,1.4805572E-1,-3.7561584E-1,2.3878554E-1,-2.7283672E-2,7.837005E-1,-5.9919614E-2,1.6922028E-1,-4.6929368E-1,7.156308E-2,-4.2774928E-1,1.1422063E-1,-5.8970727E-2,5.3721344E-1,2.2251917E-2,-1.2108994E-1,1.4241852E-1,-1.3194439E-1,8.369352E-3,-1.489089E-1,1.3645458E-1,-1.33684E-1,1.0460137E-2,2.7789247E-1,1.5526295E-2,-1.6922753E-1,1.6351219E-1,-1.4407465E-1,1.0182609E-2,-1.6056235E-1,2.2020174E-2,6.910932E-2,-1.8227614E-2,1.7006588E-1],"categories":[],"categories_nodes":[],"categories_segments":[],"categories_sizes":[],"default_left":[0,0,0,0,0,0,0,0,0,0,0,0,0,0,0,0,0,0,0,0,0,0,0,0,0,0,0,0,0,0,0,0,0,0,0,0,0,0,0,0,0,0,0,0,0,0,0,0,0,0,0,0,0,0,0,0,0,0,0,0,0,0,0],"id":15,"left_children":[1,3,5,7,9,11,13,15,17,19,21,23,25,27,-1,-1,-1,29,31,33,-1,35,37,-1,-1,-1,39,41,-1,43,45,47,49,-1,51,-1,-1,53,55,57,59,-1,61,-1,-1,-1,-1,-1,-1,-1,-1,-1,-1,-1,-1,-1,-1,-1,-1,-1,-1,-1,-1],"loss_changes":[4.844762E0,1.8463602E0,2.479792E0,2.192329E0,1.7283156E0,2.097438E0,1.3304329E0,1.1369882E0,1.1734715E0,2.2410412E0,1.0326186E0,2.6796198E-1,1.5033746E0,1.0747938E0,0E0,0E0,0E0,1.3564796E0,1.2659016E0,1.0829775E0,0E0,8.214605E-1,9.320514E-1,0E0,0E0,0E0,1.652353E0,1.1113896E0,0E0,8.7144804E-1,1.3971598E0,2.6781714E-1,1.5944016E0,0E0,7.6773024E-1,0E0,0E0,4.069996E-1,1.845411E0,3.0462587E-1,1.3696692E0,0E0,5.228629E-1,0E0,0E0,0E0,0E0,0E0,0E0,0E0,0E0,0E0,0E0,0E0,0E0,0E0,0E0,0E0,0E0,0E0,0E0,0E0,0E0],"parents":[2147483647,0,0,1,1,2,2,3,3,4,4,5,5,6,6,7,7,8,8,9,9,10,10,11,11,12,12,13,13,17,17,18,18,19,19,21,21,22,22,26,26,27,27,29,29,30,30,31,31,32,32,34,34,37,37,38,38,39,39,40,40,42,42],"right_children":[2,4,6,8,10,12,14,16,18,20,22,24,26,28,-1,-1,-1,30,32,34,-1,36,38,-1,-1,-1,40,42,-1,44,46,48,50,-1,52,-1,-1,54,56,58,60,-1,62,-1,-1,-1,-1,-1,-1,-1,-1,-1,-1,-1,-1,-1,-1,-1,-1,-1,-1,-1,-1],"split_conditions":[-3.052589E-1,2.177486E-2,1.5490202E0,-2.330675E0,-2.1800141E-1,-1.7406799E0,1.4310895E0,1.4929941E-1,7.083234E-2,9.3578196E-1,-6.9675446E-1,9.66403E-1,-1.9714854E0,2.627027E0,-1.2507516E-1,2.2086607E-1,-4.8215084E-2,4.5219865E-1,-9.914219E-1,-9.624415E-1,-1.3628837E-1,4.8319075E-1,2.8066176E-1,-1.6514382E-1,-1.4453869E-3,2.3670644E-1,-1.3727428E0,-9.080284E-1,-4.7159713E-2,-1.8518325E0,-6.7989933E-1,-9.080284E-1,-3.809117E-1,-2.7283672E-2,-1.066115E0,-5.9919614E-2,1.6922028E-1,-4.4127095E-1,-8.2005924E-1,-1.3709974E0,3.3600166E-2,-5.8970727E-2,-5.1063555E-1,2.2251917E-2,-1.2108994E-1,1.4241852E-1,-1.3194439E-1,8.369352E-3,-1.489089E-1,1.3645458E-1,-1.33684E-1,1.0460137E-2,2.7789247E-1,1.5526295E-2,-1.6922753E-1,1.6351219E-1,-1.4407465E-1,1.0182609E-2,-1.6056235E-1,2.2020174E-2,6.910932E-2,-1.8227614E-2,1.7006588E-1],"split_indices":[23,6,6,15,18,13,17,22,2,3,3,11,7,8,0,0,0,10,19,23,0,21,5,0,0,0,7,11,0,11,2,11,5,0,20,0,0,22,10,0,22,0,13,0,0,0,0,0,0,0,0,0,0,0,0,0,0,0,0,0,0,0,0],"split_type":[0,0,0,0,0,0,0,0,0,0,0,0,0,0,0,0,0,0,0,0,0,0,0,0,0,0,0,0,0,0,0,0,0,0,0,0,0,0,0,0,0,0,0,0,0,0,0,0,0,0,0,0,0,0,0,0,0,0,0,0,0,0,0],"sum_hessian":[4.3311115E2,9.719561E1,3.3591553E2,7.161E1,2.5585604E1,3.0408713E2,3.1828407E1,4.480872E0,6.7129135E1,9.656217E0,1.5929387E1,5.580925E0,2.985062E2,3.0643562E1,1.1848445E0,2.674623E0,1.8062493E0,5.4505085E1,1.2624046E1,7.998502E0,1.6577152E0,4.219264E0,1.1710123E1,4.482975E0,1.0979499E0,2.2665803E0,2.9623962E2,2.8264107E1,2.3794563E0,4.9316998E1,5.188086E0,4.212509E0,8.411537E0,1.5068581E0,6.491644E0,1.6633297E0,2.5559342E0,6.648759E0,5.061364E0,4.7739263E0,2.914657E2,1.7375231E0,2.6526583E1,3.8495023E0,4.5467495E1,3.458628E0,1.7294581E0,1.1473256E0,3.0651834E0,6.64814E0,1.7633975E0,1.2375835E0,5.2540603E0,1.0933465E0,5.555413E0,2.730636E0,2.330728E0,1.0305117E0,3.7434144E0,2.1687462E2,7.459107E1,1.2045553E0,2.5322027E1],"tree_param":{"num_deleted":"0","num_feature":"26","num_nodes":"63","size_leaf_vector":"1"}},{"base_weights":[-6.773624E-2,-7.909001E-2,2.6450723E-1,-2.6839495E-2,-1.7882961E-1,1.9245003E-1,8.982875E-2,-4.095307E-2,5.922219E-1,-1.1904282E-1,-3.8834628E-1,3.505406E-1,-1.3377121E-1,-4.00323E-1,-1.6968422E-2,2.5044203E-1,-1.1930646E-2,6.5680565E-3,-2.5504303E-1,-4.601937E-1,3.193533E-2,1.7749694E-1,-5.6012414E-2,-5.0794387E-1,7.8343034E-2,4.304044E-1,-3.939235E-2,-3.367222E-1,1.2820163E-1,-4.4603476E-1,-9.092116E-2,5.541928E-2,-5.293407E-1,-1.2497975E-1,1.5506145E-1,-1.0823753E-1,8.5457034E-2,2.9791169E-2,-1.7067413E-1,-1.3603891E-2,2.3124851E-1,1.762601E-1,-1.578751E-2,9.694979E-2,-1.3090366E-1,-8.268641E-2,7.1923755E-2,-1.6263014E-1,-1.9454684E-2,-5.605959E-2,1.6060142E-1,-8.367432E-2,-1.7098445E-1],"categories":[],"categories_nodes":[],"categories_segments":[],"categories_sizes":[],"default_left":[0,0,0,0,0,0,0,0,0,0,0,0,0,0,0,0,0,0,0,0,0,0,0,0,0,0,0,0,0,0,0,0,0,0,0,0,0,0,0,0,0,0,0,0,0,0,0,0,0,0,0,0,0],"id":16,"left_children":[1,3,5,7,9,-1,11,13,15,17,19,21,-1,23,25,-1,-1,27,29,31,33,-1,35,37,-1,39,41,43,45,47,49,-1,51,-1,-1,-1,-1,-1,-1,-1,-1,-1,-1,-1,-1,-1,-1,-1,-1,-1,-1,-1,-1],"loss_changes":[1.4266028E0,1.8770406E0,7.684073E-1,2.1049016E0,1.5065341E0,0E0,1.5159764E0,2.00811E0,8.569113E-1,1.6738075E0,8.323393E-1,7.299108E-1,0E0,1.1706519E0,2.2258036E0,0E0,0E0,2.2085984E0,1.4334135E0,1.1319103E0,1.278578E0,0E0,4.7259066E-1,5.3337765E-1,0E0,1.750638E0,1.7779558E0,1.0510728E0,1.823535E0,7.512827E-1,1.6950972E0,0E0,5.6646824E-2,0E0,0E0,0E0,0E0,0E0,0E0,0E0,0E0,0E0,0E0,0E0,0E0,0E0,0E0,0E0,0E0,0E0,0E0,0E0,0E0],"parents":[2147483647,0,0,1,1,2,2,3,3,4,4,6,6,7,7,8,8,9,9,10,10,11,11,13,13,14,14,17,17,18,18,19,19,20,20,22,22,23,23,25,25,26,26,27,27,28,28,29,29,30,30,32,32],"right_children":[2,4,6,8,10,-1,12,14,16,18,20,22,-1,24,26,-1,-1,28,30,32,34,-1,36,38,-1,40,42,44,46,48,50,-1,52,-1,-1,-1,-1,-1,-1,-1,-1,-1,-1,-1,-1,-1,-1,-1,-1,-1,-1,-1,-1],"split_conditions":[2.4839418E0,-9.224237E-3,9.5664136E-2,2.1619406E0,5.1192325E-1,1.9245003E-1,2.6732588E0,-1.4241664E0,1.9023392E0,5.6228274E-1,1.332518E0,1.2959097E-1,-1.3377121E-1,9.794613E-1,-1.1993363E0,2.5044203E-1,-1.1930646E-2,-4.468569E-1,5.689094E-1,-1.6603391E-1,2.5549048E-1,1.7749694E-1,6.939246E-1,-1.881025E0,7.8343034E-2,2.1539861E-2,-1.9223604E0,-2.0710685E0,-1.071249E0,5.090205E-1,6.718333E-1,5.541928E-2,-1.7095318E0,-1.2497975E-1,1.5506145E-1,-1.0823753E-1,8.5457034E-2,2.9791169E-2,-1.7067413E-1,-1.3603891E-2,2.3124851E-1,1.762601E-1,-1.578751E-2,9.694979E-2,-1.3090366E-1,-8.268641E-2,7.1923755E-2,-1.6263014E-1,-1.9454684E-2,-5.605959E-2,1.6060142E-1,-8.367432E-2,-1.7098445E-1],"split_indices":[22,22,4,11,11,0,20,22,12,9,4,3,0,7,22,0,0,9,22,14,12,0,3,11,0,13,4,13,5,7,14,0,3,0,0,0,0,0,0,0,0,0,0,0,0,0,0,0,0,0,0,0,0],"split_type":[0,0,0,0,0,0,0,0,0,0,0,0,0,0,0,0,0,0,0,0,0,0,0,0,0,0,0,0,0,0,0,0,0,0,0,0,0,0,0,0,0,0,0,0,0,0,0,0,0,0,0,0,0],"sum_hessian":[3.716412E2,3.6009753E2,1.15436735E1,2.3713756E2,1.2295997E2,2.808937E0,8.734737E0,2.3276476E2,4.372804E0,9.688224E1,2.607773E1,6.1079917E0,2.6267455E0,1.3581271E1,2.1918349E2,2.9279983E0,1.4448057E0,5.0859608E1,4.6022636E1,2.2189463E1,3.8882666E0,3.5482929E0,2.5596986E0,1.1880417E1,1.7008545E0,9.593455E0,2.0959004E2,1.2843281E1,3.8016327E1,2.0476286E1,2.554635E1,1.9868472E0,2.0202616E1,2.0931544E0,1.7951121E0,1.3205324E0,1.2391661E0,1.0266324E0,1.0853785E1,4.3629384E0,5.230517E0,3.4353015E0,2.0615474E2,1.3902986E0,1.1452982E1,7.9097466E0,3.0106579E1,1.6017458E1,4.458828E0,2.2760944E1,2.785405E0,3.9167228E0,1.6285892E1],"tree_param":{"num_deleted":"0","num_feature":"26","num_nodes":"53","size_leaf_vector":"1"}},{"base_weights":[-1.4906616E-2,1.1912588E-1,-1.1541975E-1,4.885614E-1,8.5443266E-2,-2.5038627E-1,-4.4459008E-2,1.2645666E-1,2.1219943E-1,1.0744828E-1,-4.7471976E-1,-3.026738E-1,4.5416813E-2,2.1011004E-2,-2.705304E-1,1.7822617E-1,-1.9904727E-1,5.1890105E-1,8.144092E-2,-6.7712497E-3,-1.7077701E-1,-5.4863495E-1,-2.1217535E-1,3.1523767E-1,-1.8558817E-1,-3.984421E-2,3.355332E-1,4.749634E-1,-3.6489895E-1,-1.748285E-1,1.4028563E-1,1.9327404E-1,-3.630913E-2,4.2005864E-1,4.646678E-2,1.5120077E-2,-1.783365E-1,5.419277E-1,-2.916163E-1,-1.0584193E-1,5.8636963E-1,3.4317467E-1,-1.4779276E-1,9.980071E-2,-1.3719957E-1,3.3219133E-2,6.670997E-1,2.1093126E-1,-1.0891802E-2,1.22356996E-1,-4.5449254E-1,2.0939445E-1,-7.105737E-2,5.2833278E-2,-2.2675762E-2,-1.1359208E-2,2.460413E-1,-1.0513917E-1,6.893487E-2,9.840943E-4,2.3849307E-1,1.2928686E-1,2.4277518E-2,1.3421822E-3,1.5666765E-1,-1.5046147E-1,-1.9848846E-2,-8.804616E-2,1.2947989E-1,2.5321966E-1,-9.552709E-2,-8.951983E-2,2.2899885E-1,-1.6213495E-1,5.4764032E-2],"categories":[],"categories_nodes":[],"categories_segments":[],"categories_sizes":[],"default_left":[0,0,0,0,0,0,0,0,0,0,0,0,0,0,0,0,0,0,0,0,0,0,0,0,0,0,0,0,0,0,0,0,0,0,0,0,0,0,0,0,0,0,0,0,0,0,0,0,0,0,0,0,0,0,0,0,0,0,0,0,0,0,0,0,0,0,0,0,0,0,0,0,0,0,0],"id":17,"left_children":[1,3,5,7,9,11,13,15,-1,17,19,21,23,25,27,-1,29,31,33,-1,-1,35,37,39,41,43,45,47,49,-1,-1,-1,-1,51,53,-1,-1,55,57,-1,59,61,-1,63,65,67,69,-1,-1,71,73,-1,-1,-1,-1,-1,-1,-1,-1,-1,-1,-1,-1,-1,-1,-1,-1,-1,-1,-1,-1,-1,-1,-1,-1],"loss_changes":[5.3176265E0,2.0638041E0,2.1484358E0,1.0137584E0,1.9773983E0,1.212194E0,2.2110531E0,1.1019642E0,0E0,1.5755945E0,2.4754238E-1,1.3521681E0,8.3817446E-1,2.242634E0,2.5323858E0,0E0,1.4388448E0,7.8402114E-1,1.6786034E0,0E0,0E0,4.997368E-1,3.1450505E0,1.3190382E0,1.3654122E0,1.3525692E0,1.8811338E0,5.1568735E-1,1.3796897E0,0E0,0E0,0E0,0E0,2.593349E0,2.0875833E0,0E0,0E0,8.540052E-1,1.4845674E0,0E0,5.7434356E-1,4.101023E-2,0E0,1.6500117E0,1.4795436E0,1.5563368E0,1.8390007E0,0E0,0E0,1.7107347E0,1.5131602E0,0E0,0E0,0E0,0E0,0E0,0E0,0E0,0E0,0E0,0E0,0E0,0E0,0E0,0E0,0E0,0E0,0E0,0E0,0E0,0E0,0E0,0E0,0E0,0E0],"parents":[2147483647,0,0,1,1,2,2,3,3,4,4,5,5,6,6,7,7,9,9,10,10,11,11,12,12,13,13,14,14,16,16,17,17,18,18,21,21,22,22,23,23,24,24,25,25,26,26,27,27,28,28,33,33,34,34,37,37,38,38,40,40,41,41,43,43,44,44,45,45,46,46,49,49,50,50],"right_children":[2,4,6,8,10,12,14,16,-1,18,20,22,24,26,28,-1,30,32,34,-1,-1,36,38,40,42,44,46,48,50,-1,-1,-1,-1,52,54,-1,-1,56,58,-1,60,62,-1,64,66,68,70,-1,-1,72,74,-1,-1,-1,-1,-1,-1,-1,-1,-1,-1,-1,-1,-1,-1,-1,-1,-1,-1,-1,-1,-1,-1,-1,-1],"split_conditions":[-1.2789239E-1,-1.8500891E0,-4.548974E-1,7.8854626E-1,1.0923167E0,8.117373E-1,8.5594296E-1,1.2959097E-1,2.1219943E-1,-1.9449983E0,-8.134669E-1,2.342787E-1,-1.4072102E0,2.5241667E-1,-9.7964597E-1,1.7822617E-1,7.5438887E-1,3.379509E-1,-1.3709974E0,-6.7712497E-3,-1.7077701E-1,-1.0552651E0,3.720605E-1,6.030566E-1,3.9205503E-1,-5.190282E-1,-2.6337698E-1,-4.468569E-1,-7.254116E-1,-1.748285E-1,1.4028563E-1,1.9327404E-1,-3.630913E-2,-3.9202288E-1,3.311388E-1,1.5120077E-2,-1.783365E-1,4.2448205E-1,1.9194729E0,-1.0584193E-1,-8.20301E-1,2.132873E-1,-1.4779276E-1,8.629513E-1,-2.3412982E-1,9.49229E-2,3.7748545E-2,2.1093126E-1,-1.0891802E-2,1.047965E0,1.4799606E0,2.0939445E-1,-7.105737E-2,5.2833278E-2,-2.2675762E-2,-1.1359208E-2,2.460413E-1,-1.0513917E-1,6.893487E-2,9.840943E-4,2.3849307E-1,1.2928686E-1,2.4277518E-2,1.3421822E-3,1.5666765E-1,-1.5046147E-1,-1.9848846E-2,-8.804616E-2,1.2947989E-1,2.5321966E-1,-9.552709E-2,-8.951983E-2,2.2899885E-1,-1.6213495E-1,5.4764032E-2],"split_indices":[23,12,3,18,14,4,5,3,0,20,23,8,3,7,12,0,3,7,0,0,0,2,6,9,20,2,9,9,19,0,0,0,0,23,3,0,0,5,14,0,10,10,0,10,20,19,22,0,0,10,3,0,0,0,0,0,0,0,0,0,0,0,0,0,0,0,0,0,0,0,0,0,0,0,0],"split_type":[0,0,0,0,0,0,0,0,0,0,0,0,0,0,0,0,0,0,0,0,0,0,0,0,0,0,0,0,0,0,0,0,0,0,0,0,0,0,0,0,0,0,0,0,0,0,0,0,0,0,0,0,0,0,0,0,0,0,0,0,0,0,0,0,0,0,0,0,0,0,0,0,0,0,0],"sum_hessian":[3.9269556E2,1.68208E2,2.2448756E2,1.29262495E1,1.5528175E2,7.648516E1,1.4800241E2,5.462628E0,7.4636216E0,1.5018999E2,5.091764E0,6.497641E1,1.1508753E1,1.15469604E2,3.2532803E1,1.9032378E0,3.55939E0,7.8022E0,1.4238779E2,1.0947192E0,3.997045E0,1.6115234E1,4.8861176E1,5.140203E0,6.36855E0,9.7481705E1,1.7987896E1,3.2022858E0,2.9330517E1,2.3389895E0,1.2204006E0,6.518629E0,1.2835706E0,1.2299E1,1.3008878E2,1.1379621E0,1.4977272E1,4.1018715E0,4.4759304E1,1.3969678E0,3.743235E0,2.2964E0,4.0721498E0,4.003337E1,5.7448334E1,9.984482E0,8.003413E0,1.9547958E0,1.2474898E0,4.4986815E0,2.4831835E1,8.598644E0,3.700355E0,6.2867794E1,6.7220985E1,1.6101686E0,2.4917028E0,4.0514484E1,4.2448187E0,1.2539573E0,2.4892778E0,1.2385281E0,1.0578719E0,3.348708E1,6.546293E0,8.3845825E0,4.906375E1,5.6303825E0,4.3540998E0,6.9067383E0,1.0966747E0,3.0385387E0,1.4601429E0,2.2013168E1,2.8186677E0],"tree_param":{"num_deleted":"0","num_feature":"26","num_nodes":"75","size_leaf_vector":"1"}},{"base_weights":[5.4421924E-2,-1.0078524E-1,1.0206715E-1,-3.183095E-1,-3.6497965E-2,-5.4335088E-2,1.4666525E-1,-4.0627044E-1,1.2537682E-1,-1.4837651E-1,2.5200084E-1,1.2604739E-1,-2.0516182E-1,1.137803E-1,3.5086355E-1,1.8054365E-1,-5.1185656E-1,-1.7506656E-1,-3.324112E-2,4.760974E-1,-9.767794E-2,-9.832246E-2,3.370964E-1,1.2521836E-1,-2.4511556E-1,1.8520328E-1,-6.332407E-2,4.6020973E-1,-5.5150986E-2,1.6645445E-1,-1.0414807E-1,-5.9311324E-1,4.197913E-2,8.928384E-2,-3.216788E-1,-4.631852E-2,5.6426316E-1,-2.972695E-1,1.8274203E-1,2.0210356E-1,-1.8164161E-1,-1.179091E-1,4.801925E-1,-4.018196E-1,-5.272724E-2,1.2779714E-1,3.722779E-1,-1.1806385E-1,4.9760854E-1,5.952194E-1,3.4683958E-2,-1.9326298E-1,2.8308102E-1,-1.7348975E-2,-1.9344784E-1,-5.8743376E-2,8.96871E-2,1.06979586E-1,-1.2708995E-1,2.1559548E-1,-8.152966E-4,1.089277E-1,-1.4694919E-1,1.4515103E-1,-1.0616556E-1,-1.4976664E-1,9.67624E-2,1.8567733E-1,-7.662903E-3,9.09293E-2,-1.3838965E-1,1.2175002E-1,-6.0784515E-2,-9.3725346E-2,5.0463986E-2,1.6060664E-1,-3.7629176E-2,5.0987374E-2,-7.587584E-2,3.559799E-2,1.7023702E-1,1.9602086E-1,-3.303026E-2,1.5044278E-1,-9.4411194E-2,-1.0495343E-1,1.595069E-1],"categories":[],"categories_nodes":[],"categories_segments":[],"categories_sizes":[],"default_left":[0,0,0,0,0,0,0,0,0,0,0,0,0,0,0,0,0,0,0,0,0,0,0,0,0,0,0,0,0,0,0,0,0,0,0,0,0,0,0,0,0,0,0,0,0,0,0,0,0,0,0,0,0,0,0,0,0,0,0,0,0,0,0,0,0,0,0,0,0,0,0,0,0,0,0,0,0,0,0,0,0,0,0,0,0,0,0],"id":18,"left_children":[1,3,5,7,9,11,13,15,-1,17,19,21,23,25,27,29,31,-1,33,35,37,39,41,-1,43,45,47,49,51,-1,-1,53,-1,55,57,-1,59,61,-1,63,-1,65,67,69,71,73,75,77,79,81,83,-1,85,-1,-1,-1,-1,-1,-1,-1,-1,-1,-1,-1,-1,-1,-1,-1,-1,-1,-1,-1,-1,-1,-1,-1,-1,-1,-1,-1,-1,-1,-1,-1,-1,-1,-1],"loss_changes":[3.136866E0,1.3841242E0,2.2679026E0,1.6358974E0,2.5604837E0,2.0015306E0,1.6547961E0,1.3768401E0,0E0,2.8343744E0,1.7872306E0,1.6283818E0,1.0954925E0,2.780029E0,1.5582123E0,9.6304524E-1,1.0272913E0,0E0,1.657952E0,8.4912896E-1,1.522103E0,2.7281919E0,1.2015845E0,0E0,1.1290033E0,1.630003E0,2.0128152E0,1.5481834E0,1.8198171E0,0E0,0E0,4.0682983E-1,0E0,2.0394711E0,1.1165679E0,0E0,1.0734992E0,1.205895E0,0E0,1.9710586E0,0E0,1.002469E0,9.6825933E-1,1.0150476E0,1.3384428E0,2.2063138E0,3.00182E0,2.326442E0,8.7507606E-2,9.201331E-1,1.4036981E0,0E0,1.1168231E0,0E0,0E0,0E0,0E0,0E0,0E0,0E0,0E0,0E0,0E0,0E0,0E0,0E0,0E0,0E0,0E0,0E0,0E0,0E0,0E0,0E0,0E0,0E0,0E0,0E0,0E0,0E0,0E0,0E0,0E0,0E0,0E0,0E0,0E0],"parents":[2147483647,0,0,1,1,2,2,3,3,4,4,5,5,6,6,7,7,9,9,10,10,11,11,12,12,13,13,14,14,15,15,16,16,18,18,19,19,20,20,21,21,22,22,24,24,25,25,26,26,27,27,28,28,31,31,33,33,34,34,36,36,37,37,39,39,41,41,42,42,43,43,44,44,45,45,46,46,47,47,48,48,49,49,50,50,52,52],"right_children":[2,4,6,8,10,12,14,16,-1,18,20,22,24,26,28,30,32,-1,34,36,38,40,42,-1,44,46,48,50,52,-1,-1,54,-1,56,58,-1,60,62,-1,64,-1,66,68,70,72,74,76,78,80,82,84,-1,86,-1,-1,-1,-1,-1,-1,-1,-1,-1,-1,-1,-1,-1,-1,-1,-1,-1,-1,-1,-1,-1,-1,-1,-1,-1,-1,-1,-1,-1,-1,-1,-1,-1,-1],"split_conditions":[-5.889089E-1,-2.6478416E-1,-5.6793374E-1,1.0789146E0,-7.713115E-2,-1.8559681E-1,1.3418047E0,-1.0037798E0,1.2537682E-1,-5.118419E-1,5.125319E-1,-2.2426589E-1,-1.4515427E0,8.3810717E-1,4.6254402E-1,-6.788999E-1,8.511594E-1,-1.7506656E-1,-1.5622175E-1,-7.6297224E-1,1.4175391E0,-7.737899E-1,-9.7964597E-1,1.2521836E-1,-1.300035E-1,3.4437904E-1,2.0611768E0,6.046394E-1,-1.5079917E-1,1.6645445E-1,-1.0414807E-1,-2.4744058E0,4.197913E-2,-9.212044E-1,-1.0924348E0,-4.631852E-2,2.2909082E-1,-6.1181393E-2,1.8274203E-1,-9.1281223E-1,-1.8164161E-1,3.5786472E-2,6.9341505E-1,-1.0663689E0,-1.0981996E0,-9.513695E-1,6.642818E-1,1.5926929E-1,-6.9788597E-3,-5.396509E-2,-1.4153177E0,-1.9326298E-1,1.1673515E0,-1.7348975E-2,-1.9344784E-1,-5.8743376E-2,8.96871E-2,1.06979586E-1,-1.2708995E-1,2.1559548E-1,-8.152966E-4,1.089277E-1,-1.4694919E-1,1.4515103E-1,-1.0616556E-1,-1.4976664E-1,9.67624E-2,1.8567733E-1,-7.662903E-3,9.09293E-2,-1.3838965E-1,1.2175002E-1,-6.0784515E-2,-9.3725346E-2,5.0463986E-2,1.6060664E-1,-3.7629176E-2,5.0987374E-2,-7.587584E-2,3.559799E-2,1.7023702E-1,1.9602086E-1,-3.303026E-2,1.5044278E-1,-9.4411194E-2,-1.0495343E-1,1.595069E-1],"split_indices":[8,21,12,12,23,18,15,12,0,17,3,14,16,12,22,11,7,0,12,12,19,12,12,0,20,23,12,19,5,0,0,22,0,11,9,0,23,23,0,14,0,6,15,22,13,22,10,23,5,21,21,0,20,0,0,0,0,0,0,0,0,0,0,0,0,0,0,0,0,0,0,0,0,0,0,0,0,0,0,0,0,0,0,0,0,0,0],"split_type":[0,0,0,0,0,0,0,0,0,0,0,0,0,0,0,0,0,0,0,0,0,0,0,0,0,0,0,0,0,0,0,0,0,0,0,0,0,0,0,0,0,0,0,0,0,0,0,0,0,0,0,0,0,0,0,0,0,0,0,0,0,0,0,0,0,0,0,0,0,0,0,0,0,0,0,0,0,0,0,0,0,0,0,0,0,0,0],"sum_hessian":[4.2180316E2,9.8809616E1,3.2299356E2,2.163921E1,7.717041E1,7.16176E1,2.5137596E2,1.9730139E1,1.9090712E0,5.5956444E1,2.1213964E1,3.2688183E1,3.8929417E1,2.1784973E2,3.352623E1,2.9004486E0,1.6829689E1,1.0855887E1,4.5100555E1,1.2708204E1,8.505759E0,1.6102966E1,1.6585217E1,1.7779882E0,3.715143E1,1.5521043E2,6.2639294E1,2.6307673E1,7.2185555E0,1.6667626E0,1.233686E0,1.5044188E1,1.7855022E0,3.2138817E1,1.2961739E1,1.4668988E0,1.1241305E1,7.0846257E0,1.4211336E0,1.0490236E1,5.612731E0,4.010133E0,1.2575084E1,1.9874598E1,1.727683E1,1.20053635E2,3.5156807E1,5.778932E1,4.8499694E0,1.9668514E1,6.6391587E0,2.3030188E0,4.9155364E0,1.5119698E0,1.3532217E1,1.3647822E1,1.8490995E1,1.3673649E0,1.1594374E1,8.625172E0,2.616134E0,1.3995314E0,5.6850944E0,7.0484076E0,3.441829E0,2.07784E0,1.9322929E0,9.692465E0,2.8826194E0,1.2277758E0,1.864682E1,3.8353956E0,1.3441435E1,9.529353E0,1.10524284E2,2.6423368E1,8.733438E0,1.8346008E1,3.9443314E1,1.1748517E0,3.675118E0,1.8237658E1,1.4308562E0,2.6557305E0,3.9834282E0,1.2714291E0,3.6441073E0],"tree_param":{"num_deleted":"0","num_feature":"26","num_nodes":"87","size_leaf_vector":"1"}},{"base_weights":[-5.115542E-2,1.7334804E-1,-6.691809E-2,-9.548376E-2,4.8211634E-1,-1.2450805E-1,1.6493117E-2,-2.9799798E-1,2.3207968E-1,6.8036073E-1,-9.5469855E-2,-9.631143E-2,-4.4430786E-1,2.7003053E-1,-4.2404253E-2,-1.6138709E-1,9.415767E-2,1.8782514E-1,-8.717189E-2,6.574334E-2,9.000232E-1,-1.1384491E-1,7.979373E-2,-1.0645445E-1,1.766521E-1,1.09582014E-1,-1.667839E-1,6.5165955E-1,9.3071796E-2,-6.593829E-4,-2.9758716E-1,-1.334087E-1,1.251532E-1,1.1745552E-1,-9.9372774E-2,9.595466E-2,3.011353E-1,-1.2280067E-1,3.4223738E-1,-1.0550794E-1,1.7492227E-1,2.4555873E-2,7.7826184E-1,-3.1309772E-1,3.0198556E-1,-8.065175E-2,2.6962838E-1,-4.310013E-1,1.4100587E-1,-8.167906E-2,-1.9274896E-2,2.111902E-1,-1.1692523E-1,6.5270886E-2,2.7371243E-1,-1.6382547E-1,7.7021085E-2,1.7764731E-1,-6.1063804E-2,3.5294774E-3,-9.542613E-2,1.7992406E-1,-8.3605275E-2,4.8241355E-2,-1.4788376E-1],"categories":[],"categories_nodes":[],"categories_segments":[],"categories_sizes":[],"default_left":[0,0,0,0,0,0,0,0,0,0,0,0,0,0,0,0,0,0,0,0,0,0,0,0,0,0,0,0,0,0,0,0,0,0,0,0,0,0,0,0,0,0,0,0,0,0,0,0,0,0,0,0,0,0,0,0,0,0,0,0,0,0,0,0,0],"id":19,"left_children":[1,3,5,7,9,11,13,15,17,19,21,23,25,27,29,-1,-1,-1,31,33,35,-1,-1,37,-1,39,-1,41,43,45,47,-1,-1,-1,-1,-1,-1,49,51,-1,-1,-1,53,55,57,59,61,63,-1,-1,-1,-1,-1,-1,-1,-1,-1,-1,-1,-1,-1,-1,-1,-1,-1],"loss_changes":[1.288123E0,2.0335371E0,1.6246332E0,9.736137E-1,1.359926E0,1.7600853E0,2.0847766E0,1.4701488E0,7.805088E-1,1.0941622E0,4.876206E-1,1.3484321E0,1.0455372E0,1.7160969E0,1.2092478E0,0E0,0E0,0E0,9.186451E-1,5.6009847E-1,5.3058147E-2,0E0,0E0,1.3854029E0,0E0,9.7088856E-1,0E0,5.25537E-1,1.7187792E0,2.153047E0,1.8369992E0,0E0,0E0,0E0,0E0,0E0,0E0,1.5354815E0,2.0489974E0,0E0,0E0,0E0,2.9520917E-1,1.0685337E0,2.0493736E0,1.6897099E0,4.2835674E0,5.9682655E-1,0E0,0E0,0E0,0E0,0E0,0E0,0E0,0E0,0E0,0E0,0E0,0E0,0E0,0E0,0E0,0E0,0E0],"parents":[2147483647,0,0,1,1,2,2,3,3,4,4,5,5,6,6,7,7,8,8,9,9,10,10,11,11,12,12,13,13,14,14,18,18,19,19,20,20,23,23,25,25,27,27,28,28,29,29,30,30,37,37,38,38,42,42,43,43,44,44,45,45,46,46,47,47],"right_children":[2,4,6,8,10,12,14,16,18,20,22,24,26,28,30,-1,-1,-1,32,34,36,-1,-1,38,-1,40,-1,42,44,46,48,-1,-1,-1,-1,-1,-1,50,52,-1,-1,-1,54,56,58,60,62,64,-1,-1,-1,-1,-1,-1,-1,-1,-1,-1,-1,-1,-1,-1,-1,-1,-1],"split_conditions":[-1.6387317E0,-9.7303605E-1,2.4011531E-1,-3.3007696E-1,5.866025E-1,9.8340064E-1,-5.9264797E-1,8.327698E-1,-1.1575413E0,2.8527236E-1,-9.0896535E-1,9.183769E-1,-6.9733286E-1,-7.739997E-1,1.3216002E0,-1.6138709E-1,9.415767E-2,1.8782514E-1,7.9313375E-2,-6.732485E-1,-1.2078086E0,-1.1384491E-1,7.979373E-2,1.9893495E0,1.766521E-1,1.1750657E-2,-1.667839E-1,-1.3803988E0,-1.3235065E-1,8.0839205E-1,2.2678979E-1,-1.334087E-1,1.251532E-1,1.1745552E-1,-9.9372774E-2,9.595466E-2,3.011353E-1,-6.1102426E-1,-2.9299262E-1,-1.0550794E-1,1.7492227E-1,2.4555873E-2,-1.1625125E0,6.1893475E-1,-6.967902E-1,2.8066176E-1,1.1255789E0,4.820104E-1,1.4100587E-1,-8.167906E-2,-1.9274896E-2,2.111902E-1,-1.1692523E-1,6.5270886E-2,2.7371243E-1,-1.6382547E-1,7.7021085E-2,1.7764731E-1,-6.1063804E-2,3.5294774E-3,-9.542613E-2,1.7992406E-1,-8.3605275E-2,4.8241355E-2,-1.4788376E-1],"split_indices":[13,6,10,23,21,14,14,22,5,18,11,14,15,7,7,0,0,0,5,11,14,0,0,9,0,23,0,11,6,7,21,0,0,0,0,0,0,5,14,0,0,0,2,12,11,5,13,5,0,0,0,0,0,0,0,0,0,0,0,0,0,0,0,0,0],"split_type":[0,0,0,0,0,0,0,0,0,0,0,0,0,0,0,0,0,0,0,0,0,0,0,0,0,0,0,0,0,0,0,0,0,0,0,0,0,0,0,0,0,0,0,0,0,0,0,0,0,0,0,0,0,0,0,0,0,0,0,0,0,0,0,0,0],"sum_hessian":[3.5972455E2,2.2943872E1,3.367807E2,1.2634391E1,1.0309482E1,1.9893585E2,1.3784483E2,7.863244E0,4.771147E0,7.5426774E0,2.7668045E0,1.8401268E2,1.4923167E1,2.530949E1,1.1253535E2,5.7349014E0,2.1283426E0,1.7053686E0,3.065778E0,2.3280544E0,5.2146235E0,1.5214285E0,1.245376E0,1.821606E2,1.8520885E0,2.5063627E0,1.2416804E1,7.168138E0,1.8141352E1,9.7575714E1,1.4959635E1,1.8632402E0,1.2025378E0,1.2862791E0,1.0417752E0,1.4104915E0,3.804132E0,1.7645839E2,5.702214E0,1.3998587E0,1.106504E0,1.6024463E0,5.565692E0,5.9923506E0,1.2149002E1,7.583404E1,2.1741674E1,1.3118143E1,1.8414909E0,4.864149E1,1.27816895E2,3.8419166E0,1.860297E0,1.5804623E0,3.9852295E0,4.2828913E0,1.7094591E0,7.6097155E0,4.539287E0,5.52713E1,2.0562737E1,1.35125E1,8.229174E0,1.0917581E0,1.2026385E1],"tree_param":{"num_deleted":"0","num_feature":"26","num_nodes":"65","size_leaf_vector":"1"}},{"base_weights":[-1.1982205E-2,9.627214E-2,-1.00875966E-1,3.9370736E-1,5.3852264E-2,-2.874124E-2,-1.8792869E-1,5.593988E-1,6.832632E-2,2.173527E-2,4.756149E-1,-6.920993E-2,3.8670924E-1,-4.4809338E-1,-1.2943788E-1,6.844359E-3,6.4459705E-1,4.548347E-1,-4.740413E-1,5.8616646E-2,-2.958336E-1,6.8917185E-1,-1.06635414E-1,-1.6517462E-2,-3.594175E-1,5.717652E-1,-1.1252691E-1,-1.6443737E-1,-2.9286176E-2,-7.030168E-2,-3.7405533E-1,4.884361E-3,2.109414E-1,-1.3319434E-2,1.8640947E-1,-1.6217417E-1,-4.5945175E-2,-4.4512308E-1,8.792954E-2,-1.7050332E-1,-3.7792835E-2,8.313327E-1,3.25869E-2,-1.20567985E-1,8.277565E-2,-1.0517727E-1,3.246059E-1,1.23273544E-1,-4.4866064E-1,-5.757461E-2,7.696533E-1,-1.2008342E-1,1.5847012E-1,-3.0206E-1,1.4084622E-2,-1.5596598E-1,-1.6679645E-1,-1.9156693E-1,2.1534724E-2,7.602495E-2,5.77766E-4,1.2656605E-1,-8.81799E-2,8.413168E-2,2.7785414E-1,-1.0856236E-1,-6.483024E-3,1.7187922E-1,-4.2512894E-2,-1.6113767E-1,7.323685E-2,4.3973017E-2,2.895822E-1,-1.15784265E-1,4.681726E-2,-4.8277628E-2,4.202097E-2,9.422133E-2,-1.4022651E-1],"categories":[],"categories_nodes":[],"categories_segments":[],"categories_sizes":[],"default_left":[0,0,0,0,0,0,0,0,0,0,0,0,0,0,0,0,0,0,0,0,0,0,0,0,0,0,0,0,0,0,0,0,0,0,0,0,0,0,0,0,0,0,0,0,0,0,0,0,0,0,0,0,0,0,0,0,0,0,0,0,0,0,0,0,0,0,0,0,0,0,0,0,0,0,0,0,0,0,0],"id":20,"left_children":[1,3,5,7,9,11,13,15,17,19,21,23,25,27,29,-1,31,33,35,37,39,41,43,45,47,49,-1,-1,51,53,55,-1,-1,-1,-1,-1,-1,57,59,-1,61,63,-1,-1,-1,65,67,-1,69,-1,71,-1,-1,73,75,-1,77,-1,-1,-1,-1,-1,-1,-1,-1,-1,-1,-1,-1,-1,-1,-1,-1,-1,-1,-1,-1,-1,-1],"loss_changes":[3.66932E0,2.1487617E0,1.3089511E0,1.1105685E0,2.0442376E0,1.9710205E0,1.3825526E0,6.2438536E-1,1.9615548E0,1.6804026E0,1.402091E0,1.6184351E0,1.6829344E0,6.9489264E-1,1.1120944E0,0E0,4.309454E-1,4.7432148E-1,1.6617775E-3,1.9299625E0,1.0290816E0,5.659528E-1,5.325774E-1,2.7848318E0,1.3032234E0,1.4740901E0,0E0,0E0,1.1066793E0,1.2677734E0,3.6935925E-1,0E0,0E0,0E0,0E0,0E0,0E0,7.6640224E-1,1.7336726E0,0E0,1.1536573E0,6.616163E-2,0E0,0E0,0E0,1.556922E0,2.2821336E0,0E0,1.0543203E0,0E0,7.3246E-1,0E0,0E0,7.246696E-1,1.0878625E0,0E0,1.2605772E0,0E0,0E0,0E0,0E0,0E0,0E0,0E0,0E0,0E0,0E0,0E0,0E0,0E0,0E0,0E0,0E0,0E0,0E0,0E0,0E0,0E0,0E0],"parents":[2147483647,0,0,1,1,2,2,3,3,4,4,5,5,6,6,7,7,8,8,9,9,10,10,11,11,12,12,13,13,14,14,16,16,17,17,18,18,19,19,20,20,21,21,22,22,23,23,24,24,25,25,28,28,29,29,30,30,37,37,38,38,40,40,41,41,45,45,46,46,48,48,50,50,53,53,54,54,56,56],"right_children":[2,4,6,8,10,12,14,16,18,20,22,24,26,28,30,-1,32,34,36,38,40,42,44,46,48,50,-1,-1,52,54,56,-1,-1,-1,-1,-1,-1,58,60,-1,62,64,-1,-1,-1,66,68,-1,70,-1,72,-1,-1,74,76,-1,78,-1,-1,-1,-1,-1,-1,-1,-1,-1,-1,-1,-1,-1,-1,-1,-1,-1,-1,-1,-1,-1,-1],"split_conditions":[-2.094522E-1,-1.066115E0,9.6727744E-2,-8.3890235E-1,-2.6669067E-1,3.774994E-2,1.8316083E-1,-2.1101537E0,5.8040905E-1,5.194579E-1,2.4685831E-1,9.500485E-3,5.945553E-1,5.6641257E-1,1.2124858E0,6.844359E-3,-1.7328225E0,-2.7350435E-1,-7.242091E-1,-1.4515427E0,-6.0821766E-1,2.132873E-1,-3.9613432E-1,5.478186E-1,-5.6793374E-1,-1.1930124E0,-1.1252691E-1,-1.6443737E-1,4.461983E-1,-2.0181493E-1,6.606929E-1,4.884361E-3,2.109414E-1,-1.3319434E-2,1.8640947E-1,-1.6217417E-1,-4.5945175E-2,-2.4523374E-1,-4.9784526E-1,-1.7050332E-1,-3.620778E-1,-1.3501954E0,3.25869E-2,-1.20567985E-1,8.277565E-2,-6.0413486E-1,3.0896044E-1,1.23273544E-1,1.2804106E0,-5.757461E-2,-4.3753174E-1,-1.2008342E-1,1.5847012E-1,1.1505306E0,-5.002455E-1,-1.5596598E-1,9.8243517E-1,-1.9156693E-1,2.1534724E-2,7.602495E-2,5.77766E-4,1.2656605E-1,-8.81799E-2,8.413168E-2,2.7785414E-1,-1.0856236E-1,-6.483024E-3,1.7187922E-1,-4.2512894E-2,-1.6113767E-1,7.323685E-2,4.3973017E-2,2.895822E-1,-1.15784265E-1,4.681726E-2,-4.8277628E-2,4.202097E-2,9.422133E-2,-1.4022651E-1],"split_indices":[13,20,23,8,15,24,23,11,17,8,21,23,7,17,11,0,5,3,15,16,10,10,10,13,12,16,0,0,2,11,2,0,0,0,0,0,0,20,17,0,12,2,0,0,0,12,16,0,10,0,11,0,0,7,3,0,2,0,0,0,0,0,0,0,0,0,0,0,0,0,0,0,0,0,0,0,0,0,0],"split_type":[0,0,0,0,0,0,0,0,0,0,0,0,0,0,0,0,0,0,0,0,0,0,0,0,0,0,0,0,0,0,0,0,0,0,0,0,0,0,0,0,0,0,0,0,0,0,0,0,0,0,0,0,0,0,0,0,0,0,0,0,0,0,0,0,0,0,0,0,0,0,0,0,0,0,0,0,0,0,0],"sum_hessian":[3.7929272E2,1.7098505E2,2.0830766E2,2.0308292E1,1.5067676E2,1.1464185E2,9.366582E1,1.2979584E1,7.328709E0,1.4099184E2,9.6849165E0,1.0522534E2,9.416506E0,1.5970183E1,7.769563E1,1.9522123E0,1.1027371E1,4.3734446E0,2.9552648E0,1.2705188E2,1.3939957E1,6.9515877E0,2.7333283E0,8.9950165E1,1.5275177E1,7.7768173E0,1.6396883E0,1.2641913E1,3.3282695E0,6.360624E1,1.4089397E1,